svm_type c_svc
kernel_type sigmoid
gamma 0.000977
coef0 0
nr_class 4
total_sv 296
rho 3.692 2.76933 3.04359 1.29417 1.61862 0.269195
label 4 3 1 2
nr_sv 58 65 77 96
SV
0 20.42115879249022 42.03608078085526 0:0 1:0 2:0 3:0 4:0 5:0 6:0 7:0 8:0 9:0 10:0 11:0 12:0 13:0 14:0 15:0 16:0 17:0 18:0.081137716 19:0.081137716 20:0.12381902 21:0.12136724 22:0 23:0 24:0 25:0 26:0 27:0 28:0 29:0.015125541 30:0.22944225 31:0.31553054 32:0.40916918 33:0.32945448 34:0.083437902 35:0 36:0 37:0 38:0 39:0 40:0 41:0.12617393 42:0.42629583 43:0.47350258 44:0.48769415 45:0.43058129 46:0.16645758 47:0.17333231 48:0 49:0 50:0 51:0 52:0.098195295 53:0.43706181 54:0.61737281 55:0.49113393 56:0.37962694 57:0.28790215 58:0.23053149 59:0.34408115 60:0 61:0 62:0.14268871 63:0.19007372 64:0.17215909 65:0.34830217 66:0.5205657 67:0.5234389 68:0.39957628 69:0.20786364 70:0.28774215 71:0.34465892 72:0 73:0.035240352 74:0.42824547 75:0.62733232 76:0.26046689 77:0.2180351 78:0.27162849 79:0.33897192 80:0.24587031 81:0.082195673 82:0.28716438 83:0.34293709 84:0 85:0.16610262 86:0.68826942 87:0.89273332 88:0.54137408 89:0.048291363 90:0.12589217 91:0.20501756 92:0.12442574 93:0.056632894 94:0.17189864 95:0.17075458 96:0 97:0.28611292 98:0.77162999 99:0.97703622 100:0.6860218 101:0 102:0.042031837 103:0.08364545 104:0.040789609 105:0 106:0 107:0 108:0 109:0.33534245 110:0.75885042 111:0.8245691 112:0.52099077 113:0 114:0 115:0 116:0 117:0 118:0 119:0 120:0.12035744 121:0.35988372 122:0.44818749 123:0.43867271 124:0.31492212 125:0 126:0 127:0 128:0 129:0 130:0 131:0 132:0.11916284 133:0.24012358 134:0.23772839 135:0.10584866 136:0.10375272 137:0 138:0 139:0 140:0 141:0 142:0 143:0 144:0 145:0 146:0 147:0 148:0 149:0 150:0 151:0 152:0 153:0 154:0 155:0 156:0 157:0 158:0 159:0 160:0 161:0 162:0 163:0.13375603 164:0.36627273 165:0.2325167 166:0 167:0 168:0 169:0 170:0 171:0 172:0 173:0.077993508 174:0.16217058 175:0.30127468 176:0.61724947 177:0.90306154 178:0.6672088 179:0.16431576 180:0 181:0 182:0 183:0 184:0 185:0.077993508 186:0.24094793 187:0.34772136 188:0.32364687 189:0.67159605 190:0.99673002 191:0.83152456 192:0 193:0 194:0 195:0 196:0 197:0 198:0.19656923 199:0.27796406 200:0.12366636 201:0.04074252 202:0.32945516 203:0.66061942 204:0 205:0 206:0.01458526 207:0.014296453 208:0 209:0 210:0.25653736 211:0.38225185 212:0.12572722 213:0 214:0 215:0 216:0 217:0 218:0.043756145 219:0.043177082 220:0 221:0 222:0.25398477 223:0.38480444 224:0.2546245 225:0 226:0 227:0 228:0 229:0 230:0.057978405 231:0.081936964 232:0.028664566 233:0 234:0 235:0.25208465 236:0.2495826 237:0 238:0 239:0 240:0 241:0 242:0.057906744 243:0.082440069 244:0.081287691 245:0 246:0 247:0 248:0 249:0 250:0 251:0 252:0 253:0 254:0.057906744 255:0.081960024 256:0.080807646 257:0 258:0 259:0 260:0 261:0 262:0 263:0 264:0 265:0 266:0.028808968 267:0.043611743 268:0.042748172 269:0 270:0 271:0 272:0 273:0 274:0 275:0 276:0 277:0 278:0 279:0.014368114 280:0.014083606 281:0 282:0 283:0 284:0 285:0 286:0 287:0 288:0 289:0 290:0 291:0 292:0 293:0 294:0 295:0 296:0 297:0 298:0 299:0 300:0 301:0 302:0 303:0 304:0 305:0 306:0.12224889 307:0.36735943 308:0.51603438 309:0.27036452 310:0 311:0 312:0 313:0 314:0 315:0 316:0 317:0.08841791 318:0.47104487 319:0.88640431 320:0.86908346 321:0.6001349 322:0.34796514 323:0.038097664 324:0 325:0 326:0 327:0 328:0.014405697 329:0.1463299 330:0.51048422 331:0.86025093 332:0.90742887 333:0.67240396 334:0.42349793 335:0.1927943 336:0 337:0 338:0 339:0.028883604 340:0.10141497 341:0.16069623 342:0.40011023 343:0.57008139 344:0.34978002 345:0.10537974 346:0.076386292 347:0.15316885 348:0 349:0 350:0.04336151 351:0.086508909 352:0.16928034 353:0.35161833 354:0.41457031 355:0.24910964 356:0.059713052 357:0 358:0 359:0 360:0 361:0 362:0.043074828 363:0.23789676 364:0.4007517 365:0.40105136 366:0.4898958 367:0.38989486 368:0.13460507 369:0.14411984 370:0.10746473 371:0.035404809 372:0 373:0 374:0.24462855 375:0.69532557 376:0.8132673 377:0.45251612 378:0.43148252 379:0.34769771 380:0.1797057 381:0.21510692 382:0.17952824 383:0.070987086 384:0 385:0.23053325 386:0.70168641 387:0.78800528 388:0.76745519 389:0.49846019 390:0.32774988 391:0.23939818 392:0.1797057 393:0.17862928 394:0.1412696 395:0.0348777 396:0 397:0.22596839 398:0.5663883 399:0.63518976 400:0.63661938 401:0.55676592 402:0.44891876 403:0.27444179 404:0.14233178 405:0.0348777 406:0 407:0 408:0.10202919 409:0.30659899 410:0.36892282 411:0.4485691 412:0.56598366 413:0.49573649 414:0.3179151 415:0.10568732 416:0 417:0 418:0 419:0 420:0.10202919 421:0.30659899 422:0.33126803 423:0.38094549 424:0.48298447 425:0.34373575 426:0.11324552 427:0 428:0 429:0 430:0 431:0 432:0 433:0 434:0 435:0 436:0 437:0 438:0 439:0 440:0 441:0 442:0 443:0 444:0 445:0 446:0 447:0 448:0 449:0 450:0.021369651 451:0.14639716 452:0.22275289 453:0.097190523 454:0 455:0 456:0 457:0 458:0 459:0 460:0 461:0.066251512 462:0.37304075 463:0.70041323 464:0.61868713 465:0.34942688 466:0.098506481 467:0 468:0 469:0 470:0 471:0 472:0.066251512 473:0.41801629 474:0.88707839 475:0.9177308 476:0.80395235 477:0.49536418 478:0.19095258 479:0.11090694 480:0 481:0 482:0 483:0.1327419 484:0.46354567 485:0.85592492 486:0.92366967 487:0.9019784 488:0.66747523 489:0.34430181 490:0.14750593 491:0.22016085 492:0 493:0 494:0.1993255 495:0.51427975 496:0.67130479 497:0.74539697 498:0.7966838 499:0.63300708 500:0.47735368 501:0.23173735 502:0.18411226 503:0.22053054 504:0 505:0.051286076 506:0.35263779 507:0.69652004 508:0.73512694 509:0.67644588 510:0.62865556 511:0.64839076 512:0.38677059 513:0.21675992 514:0.27217063 515:0.23644192 516:0 517:0.20565845 518:0.4679675 519:0.59363104 520:0.48859009 521:0.49552831 522:0.62583113 523:0.66792119 524:0.29586755 525:0.32352632 526:0.343036 527:0.17978733 528:0 529:0.2755874 530:0.45301564 531:0.53688812 532:0.33716393 533:0.62425463 534:0.68633523 535:0.57876308 536:0.31575638 537:0.26866301 538:0.21247309 539:0.052456954 540:0 541:0.22660312 542:0.35302965 543:0.31365928 544:0.48632836 545:0.55541737 546:0.68807507 547:0.43538663 548:0.21407064 549:0.052456954 550:0 551:0 552:0.070434138 553:0.28799314 554:0.39722851 555:0.37188693 556:0.37803546 557:0.35904787 558:0.38052332 559:0.15895643 560:0 561:0 562:0 563:0 564:0.06973505 565:0.18190084 566:0.27750938 567:0.30017932 568:0.19471374 569:0.070457281 570:0.052456954 571:0 572:0 573:0 574:0 575:0 576:0 577:0 578:0 579:0 580:0 581:0 582:0 583:0 584:0 585:0 586:0 587:0 588:0 589:0 590:0 591:0 592:0 593:0 594:0 595:0 596:0 597:0 598:0 599:0 600:0 601:0 602:0 603:0 604:0 605:0 606:0.49875 607:1 608:0.98513657 609:0 610:0 611:0 612:0 613:0 614:0 615:0 616:0 617:0 618:0.48887409 619:0.99501248 620:0.98513657 621:0 622:0 623:0 624:0 625:0 626:0 627:0 628:0 629:0 630:0 631:0 632:0 633:0 634:0 635:0 636:0 637:0 638:0 639:0 640:0 641:0 642:0 643:0 644:0 645:0 646:0 647:0 648:0 649:0 650:0 651:0.49626248 652:0.49626248 653:0 654:0 655:0 656:0 657:0 658:0 659:0 660:0 661:0 662:0 663:0.99501248 664:0.98513657 665:0.49132458 666:0 667:0 668:0 669:0 670:0 671:0 672:0 673:0 674:0 675:0.49875 676:0.99007459 677:0.4815957 678:0 679:0 680:0 681:0 682:0 683:0 684:0 685:0 686:0 687:0.48887409 688:0.48887409 689:0 690:0 691:0 692:0 693:0 694:0 695:0 696:0 697:0 698:0 699:0 700:0 701:0 702:0 703:0 704:0 705:0 706:0 707:0 708:0 709:0 710:0 711:0 712:0 713:0 714:0 715:0 716:0 717:0 718:0 719:0 
33.68698365551008 32.10980958408992 38.36484851546074 0:0 1:0 2:0 3:0 4:0 5:0 6:0.10421354 7:0.10421354 8:0 9:0 10:0 11:0 12:0 13:0 14:0 15:0 16:0 17:0 18:0.31316298 19:0.31316298 20:0.2058386 21:0.043530668 22:0.16049333 23:0.11464664 24:0 25:0 26:0 27:0 28:0 29:0 30:0.31161145 31:0.41790932 32:0.40963416 33:0.27499681 34:0.46523947 35:0.27513572 36:0 37:0 38:0 39:0.0038540641 40:0.027786986 41:0.048138821 42:0.12631379 43:0.20791251 44:0.34899076 45:0.65050601 46:0.58053745 47:0.44575764 48:0 49:0 50:0.0076889059 51:0.028442213 52:0.11687794 53:0.11992943 54:0.071551712 55:0.060420402 56:0.37837254 57:0.64803414 58:0.57771813 59:0.28548986 60:0 61:0 62:0.020638451 63:0.11184774 64:0.18665551 65:0.1804891 66:0.094373571 67:0.104504 68:0.19724407 69:0.47824483 70:0.37809467 71:0.070483884 72:0 73:0.071430409 74:0.22570522 75:0.29059649 76:0.22844581 77:0.13149438 78:0.070088984 79:0.070088984 80:0.099858999 81:0.20496432 82:0.14980324 83:0 84:0 85:0.21464927 86:0.58544656 87:0.48669107 88:0.3005203 89:0.036806205 90:0.057762079 91:0.064815304 92:0.032124436 93:0.014094575 94:0.0027630553 95:0 96:0 97:0.50159296 98:1 99:0.82379367 100:0.32290707 101:0.013334615 102:0.031487906 103:0.023610945 104:0.0084849483 105:0.0027630553 106:0 107:0 108:0 109:0.59600448 110:0.90588859 111:0.85209509 112:0.23295042 113:0 114:0 115:0.0028188727 116:0.0027630553 117:0 118:0 119:0 120:0 121:0.2376375 122:0.48142505 123:0.51253334 124:0.083234618 125:0 126:0 127:0 128:0 129:0 130:0 131:0 132:0 133:0 134:0.11851874 135:0.11617191 136:0 137:0 138:0 139:0 140:0 141:0 142:0 143:0 144:0 145:0 146:0 147:0 148:0 149:0 150:0 151:0 152:0 153:0 154:0 155:0 156:0 157:0 158:0 159:0 160:0 161:0 162:0 163:0 164:0.05772989 165:0.11488679 166:0.086094005 167:0.028364114 168:0 169:0 170:0 171:0 172:0 173:0 174:0 175:0 176:0.05772989 177:0.11488679 178:0.11546266 179:0.057443397 180:0 181:0 182:0 183:0 184:0 185:0 186:0 187:0 188:0.028364114 189:0.085234519 190:0.11317635 191:0.056305942 192:0 193:0 194:0 195:0 196:0 197:0 198:0 199:0 200:0 201:0 202:0 203:0 204:0 205:0 206:0 207:0 208:0 209:0 210:0 211:0 212:0 213:0 214:0 215:0 216:0 217:0 218:0 219:0 220:0 221:0 222:0 223:0 224:0 225:0 226:0 227:0 228:0 229:0 230:0 231:0 232:0 233:0 234:0 235:0 236:0 237:0 238:0 239:0 240:0 241:0.36783585 242:0.62327797 243:0.25772632 244:0 245:0 246:0 247:0 248:0 249:0 250:0 251:0 252:0 253:0.61000616 254:1 255:0.63306376 256:0.25643449 257:0 258:0 259:0 260:0 261:0 262:0 263:0 264:0 265:0.24218248 266:0.61872473 267:0.75030024 268:0.25388927 269:0 270:0 271:0 272:0 273:0 274:0 275:0 276:0 277:0 278:0.12472885 279:0.12233714 280:0 281:0 282:0 283:0 284:0 285:0 286:0 287:0 288:0 289:0 290:0 291:0 292:0 293:0 294:0 295:0 296:0 297:0 298:0 299:0 300:0 301:0 302:0 303:0 304:0 305:0 306:0 307:0.064562906 308:0.28601942 309:0.60980432 310:0.58243064 311:0.19188478 312:0 313:0 314:0 315:0 316:0 317:0.12944943 318:0.35746204 319:0.42546522 320:0.49513316 321:0.68184015 322:0.69508278 323:0.3869336 324:0 325:0 326:0 327:0.098783314 328:0.24659645 329:0.47290538 330:0.83957805 331:0.93145677 332:0.98980212 333:0.88172553 334:0.55991996 335:0.21599413 336:0 337:0 338:0 339:0.13005 340:0.37482434 341:0.44968009 342:0.63105361 343:0.86396088 344:0.7119637 345:0.42360766 346:0.12598961 347:0 348:0 349:0 350:0 351:0.04853467 352:0.24913947 353:0.28731191 354:0.17016235 355:0.17585621 356:0.093710433 357:0.0011297287 358:0.00022324323 359:0 360:0 361:0 362:0 363:0.043698559 364:0.11004417 365:0.13025869 366:0.046860382 367:0.017834805 368:0.0015773342 369:0.00066640604 370:0 371:0 372:0 373:0 374:0.0085811159 375:0.047190414 376:0.090542602 377:0.17875328 378:0.26000452 379:0.13310035 380:0.00066640604 381:0 382:0 383:0 384:0 385:0 386:0.052396348 387:0.23881692 388:0.40716873 389:0.47076109 390:0.42766571 391:0.26686861 392:0.066049781 393:0 394:0 395:0 396:0 397:0.12654984 398:0.45698514 399:0.57105856 400:0.47500088 401:0.41257442 402:0.37981623 403:0.2622324 404:0.064741908 405:0 406:0 407:0 408:0 409:0.12654984 410:0.41033806 411:0.58730134 412:0.39719645 413:0.13046226 414:0 415:0 416:0 417:0 418:0 419:0 420:0 421:0 422:0.2499564 423:0.27206229 424:0.024099963 425:0 426:0 427:0 428:0 429:0 430:0 431:0 432:0 433:0 434:0 435:0 436:0 437:0 438:0.011387486 439:0.011387486 440:0 441:0 442:0 443:0 444:0 445:0 446:0 447:0 448:0 449:0 450:0.034219539 451:0.072200358 452:0.14980009 453:0.24275561 454:0.22962963 455:0.096744493 456:0 457:0 458:0 459:0 460:0 461:0.12165324 462:0.42391628 463:0.50663754 464:0.42381758 465:0.47619487 466:0.41783057 467:0.25211021 468:0 469:0 470:0 471:0.12091596 472:0.32239414 473:0.6208457 474:0.86330996 475:0.72591226 476:0.67823464 477:0.57095043 478:0.4712749 479:0.26723481 480:0 481:0 482:0.14751302 483:0.41061879 484:0.74001834 485:0.91550198 486:0.87037635 487:0.75871569 488:0.78491159 489:0.68446101 490:0.42370821 491:0.12166844 492:0 493:0 494:0.21392717 495:0.64384663 496:0.98936092 497:0.93282799 498:0.77790724 499:0.85686437 500:0.89008028 501:0.77662526 502:0.36247526 503:0.03003842 504:0 505:0.067878279 506:0.40182814 507:0.90515614 508:0.99423257 509:0.85466883 510:0.73041318 511:0.81552447 512:0.89008028 513:0.69892645 514:0.25120167 515:0 516:0 517:0.15172261 518:0.6574529 519:0.85712402 520:0.90709051 521:0.76667469 522:0.81458486 523:0.74096866 524:0.59387825 525:0.3672346 526:0.071991493 527:0 528:0 529:0.2266167 530:0.63545336 531:0.79842036 532:0.67037119 533:0.76099775 534:0.8141611 535:0.4814793 536:0.2210756 537:0.071991493 538:0 539:0 540:0 541:0.25125142 542:0.65366107 543:0.73949477 544:0.63900172 545:0.57822995 546:0.3690819 547:0.18141568 548:0.071991493 549:0 550:0 551:0 552:0 553:0.10833992 554:0.34134937 555:0.60215593 556:0.39920518 557:0.10445695 558:0 559:0 560:0 561:0 562:0 563:0 564:0 565:0 566:0.11001412 567:0.16976584 568:0.059530936 569:0 570:0 571:0 572:0 573:0 574:0 575:0 576:0 577:0 578:0 579:0 580:0 581:0 582:0.99004983 583:0.99004983 584:0 585:0 586:0 587:0 588:0 589:0 590:0 591:0 592:0 593:0 594:0.99004983 595:1 596:0.98019867 597:0 598:0 599:0 600:0 601:0 602:0 603:0 604:0 605:0 606:0 607:0.98019867 608:0.96078944 609:0 610:0 611:0 612:0 613:0 614:0 615:0 616:0 617:0 618:0 619:0 620:0 621:0 622:0 623:0 624:0 625:0 626:0.99004983 627:0.99004983 628:0 629:0 630:0 631:0 632:0 633:0 634:0 635:0 636:0 637:0 638:0.99004983 639:1 640:0.98019867 641:0 642:0 643:0 644:0 645:0 646:0 647:0 648:0 649:0 650:0 651:0.98019867 652:0.96078944 653:0 654:0 655:0 656:0 657:0 658:0 659:0 660:0 661:0 662:0 663:0 664:0 665:0 666:0 667:0 668:0 669:0 670:0 671:0 672:0 673:0 674:0 675:0 676:0 677:0 678:0 679:0 680:0 681:0 682:0 683:0 684:0 685:0 686:0 687:0 688:0 689:0 690:0 691:0 692:0 693:0 694:0 695:0 696:0 697:0 698:0 699:0 700:0 701:0 702:0 703:0 704:0 705:0 706:0 707:0 708:0 709:0 710:0 711:0 712:0 713:0 714:0 715:0 716:0 717:0 718:0 719:0 
0 0.1246684870011158 3.108245577459322 0:0 1:0 2:0 3:0 4:0 5:0 6:0 7:0 8:0 9:0.13010348 10:0.12940466 11:0 12:0 13:0 14:0 15:0 16:0 17:0.074284068 18:0.072813145 19:0.12607095 20:0.12607095 21:0.32045715 22:0.31598908 23:0.093868784 24:0 25:0 26:0.066798896 27:0.071121197 28:0.18353008 29:0.32761811 30:0.22101079 31:0.37906165 32:0.37906165 33:0.53392232 34:0.37878058 35:0.092010058 36:0 37:0 38:0.29245954 39:0.29807193 40:0.40635864 41:0.4691918 42:0.36553113 43:0.37740264 44:0.50599727 45:0.73501218 46:0.29011062 47:0.050064906 48:0 49:0.18675923 50:0.58370129 51:0.45183186 52:0.38936382 53:0.49425542 54:0.34023142 55:0.12440763 56:0.25195205 57:0.29778461 58:0.37638475 59:0.20126721 60:0 61:0.42528053 62:0.80434915 63:0.63472658 64:0.24940673 65:0.71410249 66:0.61483712 67:0.2107919 68:0.11695829 69:0.050064906 70:0.47231172 71:0.41388576 72:0 73:0.35769515 74:0.8865962 75:0.9454581 76:0.12889 77:0.76482309 78:1 79:0.65464255 80:0.23914362 81:0.065905029 82:0.40127733 83:0.40062319 84:0 85:0.18342702 86:0.72753035 87:0.89290313 88:0.17663878 89:0.44466857 90:0.78764568 91:0.73636372 92:0.23622303 93:0.15648253 94:0.27878638 95:0.27566833 96:0 97:0.064283886 98:0.40171552 99:0.53267722 100:0.17507096 101:0.13589746 102:0.20838751 103:0.17936992 104:0 105:0.089425124 106:0.39708248 107:0.30333204 108:0 109:0 110:0.14148576 111:0.24018856 112:0.21397065 113:0.069452281 114:0 115:0 116:0 117:0 118:0.464709 119:0.45550714 120:0 121:0 122:0 123:0.047082465 124:0.086542764 125:0.039991681 126:0 127:0 128:0 129:0 130:0.3711183 131:0.3711183 132:0 133:0 134:0 135:0 136:0 137:0 138:0 139:0 140:0 141:0 142:0.12226684 143:0.12226684 144:0 145:0 146:0 147:0 148:0 149:0 150:0 151:0 152:0 153:0.16070849 154:0.15910941 155:0 156:0 157:0 158:0 159:0 160:0 161:0 162:0 163:0.0044224694 164:0.0044224694 165:0.15910941 166:0.16070849 167:0.079156935 168:0 169:0 170:0 171:0.014914268 172:0.09845092 173:0.082027615 174:0.054674019 175:0.22311991 176:0.2764332 177:0.10799273 178:0.079156935 179:0.077589523 180:0 181:0 182:0.037553012 183:0.051723681 184:0.34950706 185:0.32976131 186:0.053591401 187:0.24074019 188:0.37525449 189:0.39279414 190:0.24136589 191:0.065795464 192:0 193:0.0097645137 194:0.27008704 195:0.25699512 196:0.47307058 197:0.70556031 198:0.2477337 199:0.024795135 200:0.15791733 201:0.34385257 202:0.44167493 203:0.26450603 204:0 205:0.029342486 206:0.30983776 207:0.55500699 208:0.67039763 209:0.94026154 210:0.85454349 211:0.4189591 212:0.10683634 213:0.065795464 214:0.27400534 215:0.27136681 216:0 217:0.11180642 218:0.44755011 219:0.64233345 220:0.58499746 221:0.84712649 222:0.92835486 223:0.819582 224:0.39583513 225:0.090639194 226:0.079511748 227:0.079511748 228:0 229:0.16043766 230:0.81045914 231:0.78119204 232:0.46151781 233:0.43841479 234:0.511506 235:0.68262708 236:0.45612389 237:0.28582371 238:0.22403827 239:0.060521707 240:0 241:0.068461961 242:0.64855585 243:0.96989522 244:0.66800981 245:0.10272864 246:0.060453598 247:0.12619975 248:0.16862137 249:0.26567448 250:0.28374707 251:0.12130081 252:0 253:0 254:0.20676372 255:0.56959843 256:0.77765657 257:0.4935472 258:0.26247892 259:0.044279709 260:0 261:0 262:0.10069162 263:0.10069162 264:0 265:0 266:0 267:0.068805128 268:0.32212176 269:0.47272733 270:0.38229439 271:0.26947937 272:0.22474792 273:0.08922862 274:0.033173375 275:0.033173375 276:0 277:0 278:0 279:0 280:0 281:0.071952209 282:0.2334937 283:0.25023273 284:0.22497771 285:0.17935624 286:0.044501662 287:0 288:0 289:0 290:0 291:0 292:0 293:0 294:0.11402516 295:0.22720364 296:0.22777519 297:0.22691858 298:0.11289342 299:0 300:0 301:0 302:0 303:0 304:0 305:0.027056125 306:0.15440929 307:0.23939855 308:0.22748446 309:0.22691858 310:0.11289342 311:0 312:0 313:0 314:0.11714571 315:0.38608647 316:0.48115368 317:0.39955398 318:0.41445857 319:0.47382579 320:0.2709297 321:0.088975064 322:0.0084692152 323:0 324:0 325:0 326:0.11598299 327:0.38259249 328:0.5187325 329:0.43945269 330:0.33117868 331:0.33889007 332:0.36708853 333:0.37489507 334:0.12899878 335:0 336:0 337:0 338:0.077424113 339:0.1928886 340:0.35737257 341:0.32450517 342:0.10953114 343:0.061310299 344:0.20480337 345:0.32410639 346:0.11973536 347:0 348:0 349:0 350:0.13829508 351:0.51347447 352:0.76202773 353:0.68085582 354:0.4978518 355:0.24749115 356:0.069528968 357:0 358:0 359:0 360:0 361:0 362:0.21439621 363:0.760724 364:1 365:0.89849905 366:0.81555619 367:0.62215697 368:0.29929697 369:0.20380695 370:0.09614242 371:0 372:0 373:0 374:0.15332984 375:0.53850704 376:0.73968456 377:0.63305803 378:0.56356076 379:0.59790295 380:0.43948825 381:0.39144193 382:0.2794571 383:0.087716557 384:0 385:0 386:0.070582329 387:0.30583499 388:0.56705594 389:0.50490929 390:0.26545875 391:0.24929136 392:0.282569 393:0.35759094 394:0.27647089 395:0.086767087 396:0 397:0 398:0.068450991 399:0.20467698 400:0.47460464 401:0.40225886 402:0.14796988 403:0.046829282 404:0 405:0 406:0.018939153 407:0.018564132 408:0 409:0 410:0 411:0.13520178 412:0.18678269 413:0.15286006 414:0.2432373 415:0.28499568 416:0.23768864 417:0.15127869 418:0.094133709 419:0.056347978 420:0 421:0 422:0 423:0 424:0 425:0.026262964 426:0.16769328 427:0.23581069 428:0.23793166 429:0.22746721 430:0.14119584 431:0.055972958 432:0 433:0 434:0 435:0 436:0 437:0 438:0.12126582 439:0.18334731 440:0.12723518 441:0.12675668 442:0.063062241 443:0 444:0 445:0 446:0 447:0 448:0 449:0.17899645 450:0.38843692 451:0.33028982 452:0.12707278 453:0.18326155 454:0.12285361 455:0.029450225 456:0 457:0 458:0.082379662 459:0.24609157 460:0.28477566 461:0.34922777 462:0.45189811 463:0.33224907 464:0.099799671 465:0.25158391 466:0.18473034 467:0.028867072 468:0 469:0 470:0.44582561 471:0.70960273 472:0.47949244 473:0.33458438 474:0.27615653 475:0.011612373 476:0.20058138 477:0.32539911 478:0.21962892 479:0 480:0 481:0.10529715 482:0.63126685 483:0.82920936 484:0.57213014 485:0.25549234 486:0.13765927 487:0.0040991226 488:0.1039402 489:0.19846279 490:0.09281205 491:0 492:0 493:0.10425203 494:0.46230677 495:0.86425402 496:0.72776039 497:0.50520966 498:0.086193238 499:0.042136373 500:0.010154358 501:0 502:0.080497614 503:0.078903654 504:0 505:0 506:0.39602068 507:0.76869273 508:0.79328794 509:0.55301487 510:0.33232983 511:0.12266182 512:0.063262631 513:0.24661483 514:0.28335563 515:0.15940127 516:0 517:0.054041114 518:0.308353 519:0.56480284 520:0.69948656 521:1 522:0.69199551 523:0.23187162 524:0.13935846 525:0.33061506 526:0.36816084 527:0.23710647 528:0 529:0.052971028 530:0.16078372 531:0.20105267 532:0.65096691 533:0.90285017 534:0.64143212 535:0.10942449 536:0.084740397 537:0.17076148 538:0.20546275 539:0.077728932 540:0 541:0 542:0.016485089 543:0.073738949 544:0.30831152 545:0.47009966 546:0.23319904 547:0 548:0 549:0 550:0.094301938 551:0.092434635 552:0 553:0 554:0 555:0.032560717 556:0.032237539 557:0 558:0 559:0 560:0.081946848 561:0.32943249 562:0.41521247 563:0.25679807 564:0 565:0 566:0 567:0 568:0 569:0 570:0 571:0 572:0.081946848 573:0.32616274 574:0.49046719 575:0.24340048 576:0 577:0 578:0 579:0 580:0 581:0 582:0 583:0 584:0 585:0 586:0 587:0 588:0 589:0 590:0 591:0 592:0 593:0 594:0 595:0.99004983 596:0.99004983 597:0 598:0 599:0 600:0 601:0 602:0 603:0 604:0 605:0 606:0 607:0.99004983 608:1 609:0.98019867 610:0 611:0 612:0 613:0 614:0 615:0 616:0 617:0 618:0 619:0 620:0.98019867 621:0.96078944 622:0 623:0 624:0 625:0 626:0 627:0 628:0 629:0 630:0 631:0 632:0 633:0 634:0 635:0 636:0 637:0 638:0 639:0 640:0 641:0 642:0 643:0 644:0 645:0 646:0 647:0 648:0 649:0 650:0 651:0 652:0.99501248 653:0.99501248 654:0.97530991 655:0 656:0 657:0 658:0 659:0 660:0 661:0 662:0 663:0 664:0.97530991 665:0.99501248 666:0.97530991 667:0 668:0 669:0 670:0 671:0 672:0 673:0 674:0 675:0 676:0 677:0 678:0 679:0 680:0 681:0 682:0 683:0 684:0 685:0 686:0 687:0 688:0 689:0 690:0 691:0 692:0 693:0 694:0 695:0 696:0 697:0 698:0 699:0 700:0 701:0 702:0 703:0 704:0 705:0 706:0 707:0 708:0 709:0 710:0 711:0 712:0 713:0 714:0 715:0 716:0 717:0 718:0 719:0 
41.26938857696031 0 0 0:0 1:0 2:0 3:0 4:0 5:0 6:0 7:0 8:0 9:0 10:0 11:0 12:0 13:0 14:0 15:0 16:0 17:0 18:0 19:0 20:0 21:0 22:0 23:0 24:0 25:0.085524776 26:0.095166296 27:0.038759635 28:0.02873341 29:0.0094979764 30:0 31:0.16599409 32:0.24768792 33:0.082101768 34:0 35:0 36:0 37:0.25700302 38:0.35102147 39:0.21732642 40:0.076657114 41:0.14564137 42:0.095409382 43:0.2470901 44:0.494148 45:0.34185565 46:0.094539937 47:0 48:0 49:0.37463903 50:0.62335596 51:0.49558863 52:0.19370262 53:0.289112 54:0.19226069 55:0.27422023 56:0.51296441 57:0.69698355 58:0.36448543 59:0.047151794 60:0.070995699 61:0.40093168 62:0.64131417 63:0.49104315 64:0.29007811 65:0.36602502 66:0.2439782 67:0.48516955 68:0.65352824 69:0.84590294 70:0.64162876 71:0.15795021 72:0.16782816 73:0.4434966 74:0.5951861 75:0.44199467 76:0.4010418 77:0.33781064 78:0.17455823 79:0.58223784 80:0.8761504 81:1 82:0.62421079 83:0.1096987 84:0.095419604 85:0.43408348 86:0.51882475 87:0.48821604 88:0.42417031 89:0.2849485 90:0.10260062 91:0.6207712 92:0.89220276 93:0.95526253 94:0.41105955 95:0 96:0 97:0.21336954 98:0.47210554 99:0.47909376 100:0.17320317 101:0.12377877 102:0.086097393 103:0.47808451 104:0.72671004 105:0.77079985 106:0.22049711 107:0 108:0 109:0.025101531 110:0.39422233 111:0.39287011 112:0.025101531 113:0.030635451 114:0.030028828 115:0.14749831 116:0.40358367 117:0.36458809 118:0.054437985 119:0 120:0 121:0 122:0.13692495 123:0.16253357 124:0.025101531 125:0 126:0 127:0.047512607 128:0.10277332 129:0.05526071 130:0 131:0 132:0 133:0 134:0 135:0 136:0 137:0 138:0 139:0 140:0 141:0 142:0 143:0 144:0 145:0 146:0 147:0 148:0 149:0 150:0 151:0 152:0 153:0 154:0 155:0 156:0 157:0 158:0 159:0 160:0 161:0.062889753 162:0.20503577 163:0.20173614 164:0.059793081 165:0 166:0 167:0 168:0 169:0 170:0 171:0 172:0 173:0.062889753 174:0.27628647 175:0.554326 176:0.54835627 177:0.20722616 178:0 179:0 180:0 181:0 182:0 183:0 184:0 185:0.057982978 186:0.39929492 187:0.75138059 188:0.89308226 189:0.62559982 190:0.21092507 191:0 192:0 193:0.14167422 194:0.21268843 195:0.069608028 196:0.08475089 197:0.31181295 198:0.67920241 199:0.79611935 200:0.88590127 201:0.94931313 202:0.53140297 203:0.059820608 204:0 205:0.14026805 206:0.42432664 207:0.28123919 208:0.083072709 209:0.5156964 210:0.76487774 211:0.86892262 212:0.86220829 213:0.89246745 214:0.59280224 215:0.11994107 216:0.16614265 217:0.28926545 218:0.47477915 219:0.49937732 220:0.3035457 221:0.41486419 222:0.51533084 223:0.6570834 224:0.59759216 225:0.50364241 226:0.28472821 227:0.058929995 228:0.16449361 229:0.57749901 230:0.58836158 231:0.52777351 232:0.79846753 233:0.53843086 234:0.25243946 235:0.23318529 236:0.20932028 237:0.075866852 238:0.014008069 239:0 240:0 241:0.37071139 242:0.69756073 243:0.57471808 244:0.55776395 245:0.63199721 246:0.28127466 247:0 248:0 249:0 250:0 251:0 252:0 253:0.081629968 254:0.535205 255:0.54821715 256:0.20955388 257:0.33262011 258:0.20344846 259:0 260:0 261:0 262:0 263:0 264:0 265:0 266:0.23716444 267:0.45676274 268:0.44985076 269:0.2186605 270:0 271:0 272:0 273:0 274:0 275:0 276:0 277:0 278:0 279:0.14516517 280:0.36384744 281:0.21721967 282:0 283:0 284:0 285:0 286:0 287:0 288:0 289:0 290:0 291:0 292:0 293:0 294:0 295:0 296:0 297:0 298:0 299:0 300:0 301:0 302:0 303:0 304:0.14209405 305:0.28277776 306:0.27467388 307:0.17613546 308:0.042693169 309:0 310:0 311:0 312:0 313:0.053484878 314:0.16072273 315:0.29454805 316:0.47241788 317:0.55173362 318:0.47187194 319:0.3930431 320:0.23130091 321:0.06750905 322:0 323:0 324:0 325:0.053484878 326:0.17009728 327:0.32975439 328:0.4097853 329:0.57743219 330:0.68612774 331:0.53338054 332:0.29773558 333:0.2130759 334:0.10117835 335:0 336:0 337:0 338:0.10564129 339:0.2384989 340:0.16060792 341:0.26508016 342:0.45385866 343:0.33222105 344:0.11595093 345:0.16835909 346:0.10051165 347:0 348:0 349:0 350:0 351:0.018516256 352:0.021394582 353:0.26455654 354:0.55325808 355:0.5064558 356:0.22672579 357:0.057727205 358:0 359:0 360:0 361:0 362:0 363:0 364:0 365:0.1891829 366:0.40655857 367:0.50320678 368:0.334646 369:0.057691334 370:0 371:0 372:0 373:0 374:0 375:0.11984713 376:0.23554949 377:0.26918731 378:0.30543862 379:0.21653746 380:0.1535983 381:0 382:0 383:0 384:0 385:0 386:0 387:0.11826109 388:0.2739279 389:0.46745465 390:0.66621608 391:0.57628321 392:0.31071385 393:0.077397873 394:0 395:0 396:0 397:0 398:0.16237948 399:0.42326602 400:0.49618385 401:0.73971756 402:0.9794293 403:0.8897948 404:0.51622474 405:0.12987099 406:0 407:0 408:0 409:0 410:0.15979044 411:0.44855429 412:0.62418549 413:0.67065414 414:0.67685757 415:0.58021512 416:0.29254586 417:0.051777536 418:0 419:0 420:0 421:0 422:0 423:0.062472256 424:0.1960079 425:0.27431254 426:0.2803355 427:0.22664249 428:0.08629931 429:0 430:0 431:0 432:0 433:0 434:0 435:0 436:0 437:0 438:0 439:0 440:0 441:0 442:0 443:0 444:0 445:0 446:0 447:0 448:0.06556477 449:0.14621252 450:0.14489088 451:0.063910934 452:0 453:0 454:0 455:0 456:0 457:0.04047089 458:0.16152918 459:0.44282527 460:0.58641562 461:0.40938931 462:0.25839608 463:0.1366592 464:0.031874781 465:0 466:0 467:0 468:0 469:0.14010385 470:0.58373451 471:1 472:0.82595617 473:0.62341444 474:0.35047897 475:0.18007065 476:0.031243618 477:0 478:0 479:0 480:0 481:0.34201916 482:0.78933792 483:0.9419252 484:0.75616433 485:0.5431816 486:0.4325766 487:0.12459495 488:0.0070504046 489:0.042899349 490:0.042899349 491:0 492:0.0308763 493:0.34519763 494:0.52862821 495:0.56918614 496:0.34074979 497:0.47418191 498:0.45929314 499:0.20128101 500:0.23545849 501:0.22786692 502:0.13495768 503:0.084733155 504:0.061907367 505:0.22341924 506:0.38914975 507:0.25950254 508:0.28847374 509:0.3248262 510:0.20150224 511:0.35936884 512:0.58332491 513:0.45923965 514:0.31738218 515:0.083892143 516:0.030416611 517:0.11691745 518:0.23425358 519:0.17128028 520:0.14658383 521:0.17591406 522:0.16611704 523:0.44414557 524:0.64018903 525:0.5756633 526:0.30931089 527:0 528:0 529:0 530:0.043141217 531:0.042286964 532:0.019904424 533:0.096293912 534:0.28506114 535:0.54880364 536:0.5878209 537:0.46445977 538:0.1686253 539:0 540:0 541:0 542:0.0005009996 543:0.0015055101 544:0.0019990508 545:0.087490092 546:0.36170911 547:0.68151425 548:0.66311202 549:0.39762941 550:0.041631482 551:0 552:0 553:0 554:0.00049107915 555:0.001475699 556:0.051941295 557:0.10117775 558:0.24123344 559:0.45894542 560:0.5741984 561:0.21309155 562:0 563:0 564:0 565:0 566:0 567:0 568:0.048992121 569:0.074167363 570:0.097861762 571:0.19163323 572:0.14170678 573:0 574:0 575:0 576:0 577:0 578:0 579:0 580:0 581:0 582:0 583:0 584:0 585:0 586:0 587:0 588:0 589:0 590:0 591:0 592:0 593:0 594:0 595:0 596:0 597:0 598:0 599:0 600:0 601:0 602:0 603:0 604:0 605:0 606:0 607:0 608:0 609:0 610:0 611:0 612:0 613:0 614:0 615:0 616:0 617:0 618:0 619:0 620:0 621:0 622:0 623:0 624:0 625:0 626:0 627:0 628:0 629:0 630:0 631:0 632:0 633:0 634:0 635:0 636:0 637:0 638:0 639:0 640:0 641:0.99501248 642:0.99501248 643:0.97530991 644:0 645:0.99501248 646:0.97530991 647:0 648:0 649:0 650:0 651:0 652:0 653:0.97530991 654:0.99501248 655:0.97530991 656:0 657:0.99501248 658:0.99501248 659:0 660:0 661:0 662:0 663:0 664:0 665:0 666:0 667:0 668:0 669:0.97530991 670:0.97530991 671:0 672:0 673:0 674:0 675:0 676:0 677:0 678:0 679:0 680:0 681:0 682:0 683:0 684:0 685:0 686:0 687:0 688:0 689:0 690:0 691:0 692:0 693:0 694:0 695:0 696:0 697:0 698:0 699:0 700:0 701:0 702:0 703:0 704:0 705:0 706:0 707:0 708:0 709:0 710:0 711:0 712:0 713:0 714:0 715:0 716:0 717:0 718:0 719:0 
22.19469322964573 0 0 0:0 1:0 2:0 3:0 4:0 5:0 6:0 7:0 8:0.017019259 9:0.017019259 10:0 11:0 12:0 13:0 14:0 15:0 16:0 17:0 18:0 19:0 20:0.051143087 21:0.068247655 22:0.03361579 23:0 24:0 25:0 26:0 27:0 28:0 29:0 30:0 31:0.010650163 32:0.044294355 33:0.29309011 34:0.25862589 35:0.11055299 36:0.061127636 37:0.061127636 38:0 39:0 40:0 41:0.03255495 42:0.031910318 43:0.01412954 44:0.28377986 45:0.73079764 46:0.46430315 47:0.33221313 48:0.24512335 49:0.38577358 50:0.19184766 51:0.069702599 52:0.064947531 53:0.16989053 54:0.10325677 55:0.0034797296 56:0.65232132 57:1 58:0.63247902 59:0.44112021 60:0.34085332 61:0.68994278 62:0.39374651 63:0.20945718 64:0.18175394 65:0.25967782 66:0.18793763 67:0.11617 68:0.82136509 69:0.89923523 70:0.58715046 71:0.21946007 72:0.29594948 73:0.6201516 74:0.41381755 75:0.20841945 76:0.26080713 77:0.27981326 78:0.23445717 79:0.2234921 80:0.63713416 81:0.69315463 82:0.28236465 83:0 84:0.15572455 85:0.50774101 86:0.47741289 87:0.23324963 88:0.27293207 89:0.27278809 90:0.18045567 91:0.22093483 92:0.50143807 93:0.47443907 94:0.099769815 95:0 96:0.21155784 97:0.55559153 98:0.56097579 99:0.33947686 100:0.2812741 101:0.097606145 102:0.093883487 103:0.14755122 104:0.30607317 105:0.25725517 106:0 107:0 108:0.20945804 109:0.47584357 110:0.49858429 111:0.34627039 112:0.31605432 113:0.01138839 114:0.03587522 115:0.052348394 116:0.10195766 117:0.083839573 118:0 119:0 120:0 121:0.15769818 122:0.20966642 123:0.24290516 124:0.18868682 125:0 126:0.0025832671 127:0.0052055753 128:0.0038460316 129:0 130:0 131:0 132:0 133:0 134:0.026549594 135:0.026023877 136:0 137:0 138:0 139:0 140:0 141:0 142:0 143:0 144:0 145:0 146:0 147:0 148:0 149:0 150:0 151:0 152:0.10265444 153:0.10265444 154:0 155:0 156:0 157:0 158:0 159:0 160:0 161:0 162:0 163:0 164:0.30847788 165:0.41164688 166:0.20275913 167:0 168:0 169:0 170:0 171:0 172:0 173:0.023325137 174:0.046418762 175:0.37342201 176:0.54947274 177:0.51431159 178:0.61137211 179:0.10112612 180:0 181:0 182:0 183:0 184:0 185:0.022863268 186:0.045499609 187:0.51893714 188:0.84141484 189:0.65110576 190:0.4065701 191:0.10112612 192:0 193:0 194:0 195:0 196:0 197:0 198:0 199:0.14567037 200:0.70712294 201:0.73460946 202:0.22949945 203:0 204:0.082604612 205:0.080968931 206:0 207:0 208:0 209:0 210:0 211:0 212:0.26111786 213:0.46040864 214:0.26710509 215:0 216:0.12319029 217:0.47810755 218:0.47410395 219:0.11675918 220:0 221:0 222:0 223:0 224:0.049534678 225:0.10604153 226:0.055467987 227:0 228:0.081376823 229:0.39240941 230:0.82677828 231:0.59475153 232:0.12844388 233:0.049584147 234:0.041826736 235:0 236:0.01629255 237:0.032666767 238:0.016049985 239:0 240:0.092819973 241:0.18610521 242:0.55565252 243:0.99810977 244:0.65714193 245:0.16634333 246:0.041826736 247:0 248:0 249:0 250:0 251:0 252:0.092819973 253:0.46596325 254:0.47991919 255:0.66779892 256:0.94505011 257:0.38363536 258:0.022791583 259:0.0075088045 260:0 261:0 262:0 263:0 264:0 265:0.27615444 266:0.46137283 267:0.34891427 268:0.41387514 269:0.26219391 270:0.022791583 271:0.0075088045 272:0 273:0 274:0 275:0 276:0 277:0 278:0.091896399 279:0.090076728 280:0 281:0 282:0 283:0 284:0 285:0 286:0 287:0 288:0 289:0 290:0 291:0 292:0 293:0 294:0 295:0.095325629 296:0.28645471 297:0.18923204 298:0 299:0 300:0 301:0 302:0 303:0.11394067 304:0.30584777 305:0.38226769 306:0.38226769 307:0.47759332 308:0.47712261 309:0.38037066 310:0.094377123 311:0 312:0 313:0.0090459392 314:0.027228503 315:0.13918303 316:0.388863 317:0.64293776 318:0.75083608 319:0.75462292 320:0.65951662 321:0.37469828 322:0.092508331 323:0 324:0.0090459392 325:0.045411295 326:0.08050505 327:0.13330277 328:0.20894905 329:0.53482933 330:0.84172968 331:0.86181001 332:0.60716738 333:0.24672637 334:0 335:0 336:0.0090459392 337:0.062635327 338:0.13312543 339:0.18572711 340:0.19990415 341:0.35592978 342:0.63669588 343:0.66019091 344:0.66437208 345:0.37692769 346:0.012898522 347:0 348:0 349:0.026103585 350:0.10892689 351:0.14677514 352:0.15425005 353:0.16108258 354:0.36738244 355:0.50985679 356:0.35986034 357:0.12927663 358:0.012643115 359:0 360:0 361:0.046830027 362:0.093407694 363:0.076305102 364:0.075569968 365:0.044711523 366:0.30552018 367:0.48714349 368:0.20916645 369:0.00029982189 370:0.00014767722 371:0 372:0 373:0.046506379 374:0.079267033 375:0.12099006 376:0.30449443 377:0.40614593 378:0.51570466 379:0.55034056 380:0.34398762 381:0.088252756 382:0.00014475301 383:0 384:0 385:0.014978173 386:0.032122534 387:0.10633201 388:0.46569792 389:0.78055467 390:0.57954819 391:0.53188785 392:0.3373513 393:0.092717668 394:0 395:0 396:0 397:0.094166286 398:0.28297087 399:0.57478386 400:0.93279066 401:0.98309298 402:0.71853152 403:0.29579022 404:0.025020674 405:0.0061311927 406:0 407:0 408:0 409:0.094166286 410:0.28297087 411:0.56777047 412:0.7578997 413:0.914163 414:0.64434532 415:0.19616773 416:0 417:0 418:0 419:0 420:0 421:0 422:0.18599365 423:0.37014123 424:0.37014123 425:0.2773769 426:0.091383252 427:0 428:0 429:0 430:0 431:0 432:0 433:0 434:0 435:0 436:0 437:0 438:0 439:0.0061010673 440:0.018333784 441:0.012111302 442:0 443:0 444:0 445:0 446:0 447:0.20456786 448:0.21550941 449:0.085284139 450:0.024466043 451:0.03056711 452:0.030536984 453:0.024344628 454:0.0060403607 455:0 456:0 457:0.06796218 458:0.20456786 459:0.40711378 460:0.44810314 461:0.26374658 462:0.13441704 463:0.036736287 464:0.030293546 465:0.023981583 466:0.010349464 467:0.0043410161 468:0.06796218 469:0.34117525 470:0.46120379 471:0.46120379 472:0.51655545 473:0.48910048 474:0.27407194 475:0.20757914 476:0.24649924 477:0.1256159 478:0.017582971 479:0.013044808 480:0.17721664 481:0.46504824 482:0.55302307 483:0.53283758 484:0.59119512 485:0.6900517 486:0.52894811 487:0.37011706 488:0.40537048 489:0.44747811 490:0.20911311 491:0.079212016 492:0.14519378 493:0.31982317 494:0.41240788 495:0.48040921 496:0.65954629 497:0.73005464 498:0.61701637 499:0.40506475 500:0.49332833 501:0.60316567 502:0.38041555 503:0.070508224 504:0.072053331 505:0.34765646 506:0.5015561 507:0.53991234 508:0.70636491 509:0.82932888 510:0.65291465 511:0.58043988 512:0.62253928 513:0.59065109 514:0.27131077 515:0 516:0 517:0.23731591 518:0.41676694 519:0.5072053 520:0.63508859 521:0.71612672 522:0.71305066 523:0.89858009 524:0.76250853 525:0.51426658 526:0.072143913 527:0 528:0.01723119 529:0.09706286 530:0.1598061 531:0.27860212 532:0.39983705 533:0.32157806 534:0.7155269 535:1 536:0.88148489 537:0.37741265 538:0 539:0 540:0.017060163 541:0.034377725 542:0.034034814 543:0.053691435 544:0.068489175 545:0.22007808 546:0.60193973 547:0.9141885 548:0.64296694 549:0.14399101 550:0 551:0 552:0 553:0.0085085438 554:0.022309076 555:0.027799378 556:0.043346212 557:0.089501888 558:0.25743529 559:0.43082134 560:0.21652647 561:0 562:0 563:0 564:0 565:0 566:0.013692408 567:0.027248913 568:0.027248913 569:0.020419825 570:0.0067274167 571:0 572:0 573:0 574:0 575:0 576:0 577:0 578:0 579:0 580:0 581:0 582:0 583:0 584:0 585:0 586:0 587:0 588:0 589:0 590:0 591:0 592:0 593:0 594:0 595:0 596:0 597:0 598:0 599:0 600:0 601:0 602:0 603:0 604:0 605:0 606:0 607:0 608:0 609:0 610:0 611:0 612:0 613:0 614:0 615:0 616:0 617:0 618:0 619:0 620:0 621:0 622:0 623:0 624:0 625:0 626:0 627:0 628:0 629:0 630:0 631:0 632:0 633:0 634:0 635:0 636:0 637:0 638:0 639:0 640:0 641:0 642:0 643:0 644:1 645:0.99004983 646:0 647:0 648:1 649:0.99004983 650:0 651:0 652:0 653:0 654:0 655:0 656:0.99004983 657:0.99004983 658:0 659:0 660:0.99004983 661:0.99004983 662:0 663:0 664:0 665:0 666:0 667:0 668:0 669:0 670:0 671:0 672:0 673:0 674:0 675:0 676:0 677:0 678:0 679:0 680:0 681:0 682:0 683:0 684:0 685:0 686:0 687:0 688:0 689:0 690:0 691:0 692:0 693:0 694:0 695:0 696:0 697:0 698:0 699:0 700:0 701:0 702:0 703:0 704:0 705:0 706:0 707:0 708:0 709:0 710:0 711:0 712:0 713:0 714:0 715:0 716:0 717:0 718:0 719:0 
0 11.24687618436301 0 0:0 1:0 2:0 3:0 4:0 5:0 6:0 7:0 8:0 9:0 10:0 11:0 12:0 13:0 14:0 15:0 16:0 17:0 18:0 19:0 20:0 21:0 22:0 23:0 24:0 25:0 26:0 27:0 28:0 29:0 30:0 31:0.15097985 32:0.3496788 33:0.19476445 34:0.11573114 35:0.11343951 36:0 37:0 38:0 39:0 40:0 41:0 42:0 43:0.38024916 44:0.77813121 45:0.64583017 46:0.49931929 47:0.49243292 48:0 49:0.15101222 50:0.15101222 51:0.074196015 52:0 53:0 54:0.09818256 55:0.43416524 56:1 57:0.90425716 58:0.6858958 59:0.67833081 60:0.075317344 61:0.37659987 62:0.544517 63:0.30261355 64:0.080588588 65:0 66:0.1338783 67:0.39450735 68:0.81125458 69:0.57367807 70:0.60696912 71:0.71963389 72:0.30202444 73:0.45078837 74:0.45656067 75:0.32015325 76:0.22016591 77:0.057424723 78:0.071564977 79:0.34533109 80:0.79968682 81:0.76855144 82:0.60804811 83:0.60651059 84:0.58536106 85:0.5767307 86:0.37663992 87:0.16158113 88:0.1368135 89:0.056287637 90:0 91:0.15248047 92:0.46128604 93:0.53243137 94:0.53714096 95:0.45526061 96:0.71673099 97:0.70253877 98:0.07309138 99:0 100:0 101:0 102:0 103:0 104:0.02344326 105:0.33157334 106:0.39397864 107:0.15108653 108:0.73247808 109:0.71828586 110:0 111:0 112:0 113:0 114:0 115:0.02344326 116:0.054443201 117:0.19235228 118:0.16875325 119:0 120:0.53442595 121:0.5819044 122:0.046850133 123:0 124:0 125:0 126:0.02344326 127:0.054443201 128:0.054443201 129:0.038555068 130:0.0075582118 131:0 132:0.17606939 133:0.23905892 134:0.094098812 135:0.031103046 136:0 137:0 138:0.031154935 139:0.046770761 140:0.038555068 141:0.0075582118 142:0 143:0 144:0 145:0 146:0 147:0 148:0 149:0 150:0 151:0 152:0 153:0 154:0 155:0 156:0 157:0 158:0 159:0 160:0 161:0 162:0 163:0.057519792 164:0.27431197 165:0.21501819 166:0 167:0 168:0 169:0 170:0 171:0 172:0 173:0 174:0 175:0.09469518 176:0.31149491 177:0.54159591 178:0.43326971 179:0.10670279 180:0 181:0 182:0 183:0 184:0.041035106 185:0.081662922 186:0.081560846 187:0.18981498 188:0.16390831 189:0.37832861 190:0.62757598 191:0.38866316 192:0 193:0 194:0 195:0 196:0.040222556 197:0.080045887 198:0.081255626 199:0.24282111 200:0.3854311 201:0.30721709 202:0.34599936 203:0.41040225 204:0 205:0 206:0.057055885 207:0.19550567 208:0.13844978 209:0 210:0 211:0.089533261 212:0.40337567 213:0.35996188 214:0.064883798 215:0.13009283 216:0 217:0 218:0.24587846 219:0.3824541 220:0.16829927 221:0.10931816 222:0 223:0 224:0.089533261 225:0.089533261 226:0 227:0 228:0.032853446 229:0.032202904 230:0.18882258 231:0.37671749 232:0.45006119 233:0.20904297 234:0.0060222204 235:0 236:0 237:0 238:0 239:0 240:0.065380808 241:0.064086182 242:0.092773174 243:0.28018664 244:0.28324823 245:0.10188946 246:0.0060222204 247:0 248:0 249:0 250:0 251:0 252:0.33642607 253:0.33260303 254:0 255:0 256:0 257:0 258:0 259:0 260:0 261:0 262:0 263:0 264:0.44764737 265:0.87670272 266:0.4265078 267:0 268:0 269:0 270:0 271:0 272:0 273:0 274:0 275:0 276:0.14122188 277:0.7146573 278:0.90048782 279:0.41490337 280:0.13109899 281:0.043191239 282:0 283:0 284:0 285:0 286:0 287:0 288:0 289:0 290:0 291:0 292:0 293:0 294:0 295:0 296:0 297:0 298:0 299:0 300:0 301:0 302:0 303:0 304:0 305:0.064570375 306:0.23976338 307:0.42248363 308:0.35595979 309:0.10706905 310:0 311:0 312:0 313:0 314:0 315:0 316:0 317:0.064570375 318:0.23629433 319:0.54442547 320:0.54667986 321:0.29562364 322:0.11144468 323:0.027445857 324:0 325:0 326:0.10705982 327:0.26672077 328:0.36352698 329:0.44972711 330:0.49580013 331:0.6049445 332:0.48830728 333:0.35479795 334:0.13903914 335:0.083029586 336:0 337:0.053663737 338:0.24199109 339:0.46006037 340:0.63556648 341:0.86901646 342:0.9833804 343:0.92763511 344:0.81202423 345:0.32523547 346:0.055029286 347:0.054483098 348:0 349:0.052601123 350:0.46681047 351:0.83984521 352:0.88647282 353:0.9262054 354:0.8571932 355:0.89485997 356:0.67830181 357:0.2314406 358:0 359:0 360:0 361:0 362:0.47417013 363:0.87938485 364:0.94260545 365:0.87167714 366:0.64726689 367:0.38401769 368:0.19499624 369:0.047632505 370:0 371:0 372:0 373:0 374:0.14285049 375:0.44991587 376:0.71364699 377:0.71324723 378:0.48097631 379:0.23479619 380:0.081792842 381:0.0026092527 382:0 383:0 384:0 385:0 386:0.04706283 387:0.13054817 388:0.30110464 389:0.35852201 390:0.33403226 391:0.2347699 392:0.080412478 393:0.00128199 394:0 395:0 396:0 397:0 398:0 399:0 400:0 401:0 402:0 403:0 404:0 405:0 406:0 407:0 408:0 409:0 410:0 411:0 412:0 413:0 414:0 415:0 416:0 417:0 418:0 419:0 420:0 421:0.066152465 422:0.19878899 423:0.26658911 424:0.27186739 425:0.27446074 426:0.27309186 427:0.13586491 428:0 429:0 430:0 431:0 432:0 433:0 434:0 435:0 436:0 437:0 438:0 439:0 440:0 441:0 442:0 443:0 444:0 445:0 446:0 447:0 448:0 449:0.023853485 450:0.052106533 451:0.0321524 452:0.0082165451 453:0 454:0 455:0 456:0 457:0 458:0 459:0 460:0 461:0.023853485 462:0.051547085 463:0.14365172 464:0.13774631 465:0.022070744 466:0 467:0 468:0 469:0 470:0.067570234 471:0.16833939 472:0.17734394 473:0.22060815 474:0.35865858 475:0.61137778 476:0.49444858 477:0.22946638 478:0.019455871 479:0.019455871 480:0 481:0.10083161 482:0.25910796 483:0.42826918 484:0.5452504 485:0.65054518 486:0.84694649 487:1 488:0.87527162 489:0.43570261 490:0.058562658 491:0.058175475 492:0.050289766 493:0.25145761 494:0.49244794 495:0.66002803 496:0.73673148 497:0.74876679 498:0.81078637 499:0.89552647 500:0.7296759 501:0.30861459 502:0.10812309 503:0.10636163 504:0.20166322 505:0.30099364 506:0.41581919 507:0.59042516 508:0.76578079 509:0.68044293 510:0.50869868 511:0.39386788 512:0.36809838 513:0.21527099 514:0.21827185 515:0.18664503 516:0.20116785 517:0.30149906 518:0.28347895 519:0.26918899 520:0.32823769 521:0.23385377 522:0.11706636 523:0.41058286 524:0.43420844 525:0.24777649 526:0.29728043 527:0.24481608 528:0.099830815 529:0.14962019 530:0.086882932 531:0.07634978 532:0.037512524 533:0.024369103 534:0.11474829 535:0.26247886 536:0.31520214 537:0.45796306 538:0.35207366 539:0.096807801 540:0 541:0 542:0 543:0 544:0 545:0 546:0 547:0.23359235 548:0.54248066 549:0.51479818 550:0.27965371 551:0 552:0 553:0 554:0 555:0 556:0 557:0 558:0.23359235 559:0.54248066 560:0.54248066 561:0.3841688 562:0.075311217 563:0 564:0 565:0 566:0 567:0.020544191 568:0.061735552 569:0.08197388 570:0.35121521 571:0.48616865 572:0.3841688 573:0.075311217 574:0 575:0 576:0 577:0 578:0 579:0 580:0 581:0 582:0 583:0 584:0 585:0 586:0 587:0 588:0 589:0 590:0 591:0 592:0 593:0.99004983 594:0.99004983 595:0 596:0 597:0 598:0 599:0 600:0 601:0 602:0 603:0 604:0 605:0.99004983 606:1 607:0.98019867 608:0 609:0 610:0 611:0 612:0 613:0 614:0 615:0 616:0 617:0 618:0.98019867 619:0.96078944 620:0 621:0 622:0 623:0 624:0 625:0 626:0 627:0 628:0 629:0 630:0 631:0 632:0 633:0 634:0 635:0 636:0 637:0 638:0 639:0 640:0 641:0 642:1 643:0.99004983 644:0 645:0 646:0 647:0 648:0 649:0 650:0 651:0 652:0 653:0 654:0.99004983 655:0.99004983 656:0 657:0 658:0 659:0 660:0 661:0 662:0 663:0 664:0 665:0 666:0 667:0 668:0 669:0 670:0 671:0 672:0 673:0 674:0 675:0 676:0 677:0 678:0 679:0 680:0 681:0 682:0 683:0 684:0 685:0 686:0 687:0 688:0 689:0 690:0 691:0 692:0 693:0 694:0 695:0 696:0 697:0 698:0 699:0 700:0 701:0 702:0 703:0 704:0 705:0 706:0 707:0 708:0 709:0 710:0 711:0 712:0 713:0 714:0 715:0 716:0 717:0 718:0 719:0 
127.2605715269889 53.30326374358233 51.81722449705847 0:0 1:0 2:0 3:0 4:0 5:0.32022831 6:0.46384837 7:0.28358067 8:0 9:0 10:0 11:0 12:0 13:0 14:0 15:0 16:0.12492433 17:0.76180311 18:0.7778734 19:0.56573993 20:0 21:0 22:0 23:0 24:0 25:0 26:0 27:0.045445884 28:0.26127714 29:0.81785492 30:0.71704593 31:0.42079103 32:0.079381205 33:0.078595278 34:0.038904676 35:0 36:0 37:0 38:0 39:0.30373483 40:0.39098971 41:0.5965505 42:0.47195863 43:0.13863178 44:0.33732402 45:0.2176603 46:0.038904676 47:0 48:0 49:0 50:0.2106034 51:0.5518634 52:0.51696712 53:0.31384969 54:0.14072693 55:0.23716072 56:0.39750891 57:0.53101007 58:0.2997513 59:0 60:0 61:0 62:0.58535592 63:0.68546502 64:0.51341112 65:0.048141524 66:0.19747012 67:0.19747012 68:0.19550137 69:0.8158378 70:0.67466041 71:0 72:0 73:0 74:0.87065489 75:0.88831677 76:0.29587983 77:0.043742052 78:0.1190728 79:0.15738262 80:0.22198956 81:0.66740039 82:0.66519153 83:0 84:0 85:0.030007055 86:1 87:0.96289214 88:0.050164129 89:0.0042494072 90:0.078004362 91:0.077230136 92:0.22144425 93:0.45644163 94:0.34215272 95:0 96:0 97:0.039877894 98:0.98257133 99:0.97364251 100:0.01123014 101:0 102:0 103:0 104:0.10989311 105:0.16470093 106:0.053722551 107:0 108:0 109:0.019789657 110:0.68234009 111:0.75447642 112:0.090297297 113:0 114:0 115:0 116:0 117:0 118:0 119:0 120:0 121:0 122:0.18195926 123:0.27408069 124:0.090297297 125:0 126:0 127:0 128:0 129:0 130:0 131:0 132:0 133:0 134:0 135:0 136:0 137:0 138:0 139:0 140:0 141:0 142:0 143:0 144:0 145:0 146:0 147:0 148:0 149:0 150:0 151:0 152:0 153:0 154:0 155:0 156:0 157:0 158:0 159:0 160:0 161:0 162:0 163:0 164:0 165:0 166:0 167:0 168:0 169:0 170:0 171:0 172:0 173:0 174:0 175:0 176:0 177:0 178:0 179:0 180:0 181:0 182:0 183:0 184:0 185:0 186:0 187:0 188:0.18073808 189:0.18073808 190:0 191:0 192:0 193:0 194:0 195:0 196:0 197:0 198:0 199:0 200:0.36238212 201:0.72658069 202:0.53772503 203:0 204:0 205:0 206:0 207:0 208:0 209:0 210:0 211:0 212:0.17804724 213:0.79104373 214:0.7839037 215:0 216:0 217:0 218:0 219:0 220:0 221:0 222:0 223:0 224:0 225:0.24612511 226:0.24612511 227:0 228:0 229:0 230:0 231:0 232:0 233:0 234:0 235:0 236:0 237:0 238:0 239:0 240:0 241:0 242:0.38785637 243:0.3801763 244:0 245:0 246:0 247:0 248:0 249:0 250:0 251:0 252:0 253:0 254:0.79064966 255:0.9914261 256:0.20802748 257:0 258:0 259:0 260:0 261:0 262:0 263:0 264:0 265:0 266:0.39859085 267:0.80655133 268:0.4202574 269:0 270:0 271:0 272:0 273:0 274:0 275:0 276:0 277:0 278:0 279:0.20802748 280:0.20802748 281:0 282:0 283:0 284:0 285:0 286:0 287:0 288:0 289:0 290:0 291:0 292:0 293:0.19881579 294:0.29897173 295:0.19684246 296:0 297:0 298:0 299:0 300:0 301:0 302:0 303:0 304:0 305:0.19684246 306:0.29897173 307:0.29501518 308:0 309:0 310:0 311:0 312:0 313:0 314:0 315:0 316:0 317:0 318:0.098172723 319:0.096228773 320:0 321:0 322:0 323:0 324:0 325:0 326:0 327:0 328:0 329:0 330:0 331:0 332:0 333:0 334:0 335:0 336:0 337:0 338:0 339:0 340:0.49769621 341:0.49440573 342:0.16288452 343:0 344:0 345:0.040833204 346:0.040024652 347:0 348:0 349:0 350:0 351:0 352:0.49440573 353:0.50197866 354:0.3265855 355:0.040629547 356:0.31193072 357:0.46640684 358:0.19348451 359:0 360:0 361:0 362:0 363:0 364:0.16288452 365:0.33744892 366:0.19321337 367:0.12730047 368:0.51303398 369:0.6638285 370:0.35000309 371:0 372:0 373:0 374:0 375:0 376:0 377:0.021457006 378:0.032536611 379:0.15028976 380:0.39968756 381:0.57688427 382:0.22478331 383:0 384:0 385:0 386:0 387:0 388:0 389:0.11958458 390:0.28237118 391:0.24306508 392:0.13001307 393:0.062038152 394:0 395:0 396:0 397:0 398:0.077931018 399:0.51812775 400:0.99620833 401:0.91656662 402:0.59854322 403:0.43667244 404:0.099360114 405:0.019477979 406:0 407:0 408:0 409:0 410:0.07638788 411:0.51658461 412:0.99382853 413:0.89953539 414:0.81113527 415:0.37153019 416:0.019477979 417:0 418:0 419:0 420:0 421:0 422:0 423:0.21627947 424:0.64992253 425:0.64670255 426:0.21305949 427:0 428:0 429:0 430:0 431:0 432:0 433:0 434:0 435:0 436:0 437:0.18816021 438:0.23514103 439:0.095065798 440:0 441:0 442:0 443:0 444:0 445:0 446:0 447:0 448:0.20621747 449:0.52881806 450:0.40855598 451:0.19671811 452:0 453:0 454:0 455:0 456:0 457:0 458:0 459:0.065856593 460:0.40338936 461:0.53473829 462:0.44522385 463:0.13295297 464:0.13640993 465:0.13505938 466:0.066854414 467:0 468:0 469:0 470:0 471:0.23750584 472:0.38196168 473:0.46230399 474:0.16660781 475:0.20427471 476:0.40653038 477:0.27112913 478:0.066854414 479:0 480:0 481:0 482:0.10493655 483:0.32709156 484:0.40509569 485:0.25196207 486:0.13606975 487:0.40754076 488:0.47439517 489:0.26876314 490:0.066537918 491:0 492:0 493:0 494:0.22209643 495:0.51227923 496:0.50069821 497:0.29005657 498:0.34900988 499:0.40349617 500:0.33595266 501:0.39586322 502:0.2019635 503:0 504:0 505:0 506:0.3893394 507:0.70186344 508:0.64172375 509:0.41861972 510:0.39475991 511:0.5104339 512:0.84105825 513:0.68507925 514:0.3869182 515:0 516:0 517:0.234252 518:0.58320328 519:0.62193423 520:0.38736942 521:0.15489278 522:0.31441132 523:0.77528385 524:0.94819033 525:0.83128882 526:0.24572002 527:0 528:0 529:0.31130934 530:0.47036985 531:0.38774082 532:0.0749991 533:0.041030672 534:0.42628177 535:0.76115342 536:0.90815814 537:0.4229717 538:0.060665207 539:0 540:0 541:0.15448923 542:0.23453135 543:0.078516434 544:0.10458306 545:0.2133292 546:0.34549505 547:0.5340416 548:0.44732336 549:0.072246704 550:0 551:0 552:0 553:0 554:0 555:0.01496391 556:0.10376652 557:0.16984483 558:0.27727021 559:0.22728259 560:0.072246704 561:0 562:0 563:0 564:0 565:0 566:0 567:0.0073521369 568:0.022093264 569:0.055217225 570:0.039818033 571:0 572:0 573:0 574:0 575:0 576:0 577:0 578:0 579:0 580:0 581:0 582:0 583:0 584:0 585:0 586:0 587:0 588:0 589:0 590:0 591:0 592:0 593:0 594:0 595:0 596:0 597:0 598:0 599:0 600:0 601:0 602:0 603:0 604:0 605:0.5 606:0.49009934 607:0 608:0.5 609:0.5 610:0.49009934 611:0 612:0 613:0 614:0 615:0 616:0 617:0.5 618:0.5 619:0 620:0.98760558 621:0.98760558 622:0.49009934 623:0 624:0 625:0 626:0 627:0 628:0.5 629:0.99009934 630:0.98019867 631:0 632:0.49750624 633:0.99750624 634:0.49255597 635:0 636:0 637:0 638:0 639:0 640:0.49009934 641:0.5 642:0.49009934 643:0 644:0 645:1 646:0.98280271 647:0 648:0 649:0 650:0 651:0 652:0 653:0.50250626 654:0.49750624 655:0.50250626 656:0.49750624 657:0.99009934 658:0.99009934 659:0 660:0 661:0 662:0 663:0 664:0 665:0.49750624 666:0.98030895 667:0.99006221 668:0.49750624 669:0.49009934 670:0.49009934 671:0 672:0 673:0.50250626 674:0.49750624 675:0 676:0 677:0 678:0.49750624 679:0.50250626 680:0.49255597 681:0 682:0 683:0 684:0 685:0.49750624 686:0.49750624 687:0 688:0 689:0 690:0 691:0.49255597 692:0.48280271 693:0 694:0 695:0 696:0 697:0 698:0 699:0 700:0 701:0 702:0 703:0 704:0 705:0 706:0 707:0 708:0 709:0 710:0 711:0 712:0 713:0 714:0 715:0 716:0 717:0 718:0 719:0 
70.79507793220449 18.10013801262996 0 0:0 1:0 2:0 3:0 4:0.029869857 5:0.059889437 6:0.029425153 7:0 8:0 9:0 10:0 11:0 12:0 13:0 14:0 15:0 16:0.11977887 17:0.14920403 18:0.089017379 19:0 20:0 21:0 22:0 23:0 24:0 25:0 26:0 27:0.2159299 28:0.33541454 29:0.28516854 30:0.11741002 31:0 32:0.042071965 33:0.041238884 34:0 35:0 36:0 37:0 38:0 39:0.4297166 40:0.45928925 41:0.40767444 42:0.028987069 43:0 44:0.40633489 45:0.51909149 46:0.35044912 47:0.22913636 48:0 49:0 50:0.051619811 51:0.55072303 52:0.50012536 53:0.45791251 54:0 55:0 56:0.66859294 57:0.85793401 58:0.8205105 59:0.4605698 60:0 61:0.15319592 62:0.40949795 63:0.8210622 64:0.58438098 65:0.5345095 66:0 67:0 68:0.49261371 69:0.73077937 70:0.71219012 71:0.47267004 72:0 73:0.53846832 74:0.89692713 75:0.95818869 76:0.62236201 77:0.59040648 78:0.021529709 79:0.18679435 80:0.4667617 81:0.68343716 82:0.48991836 83:0.40171155 84:0 85:0.54057924 86:0.94461423 87:0.90040792 88:0.66634015 89:0.59029802 90:0.050479051 91:0.20647005 92:0.372671 93:0.53279916 94:0.32687784 95:0.15980411 96:0 97:0.25730523 98:0.45631411 99:0.59454543 100:0.66571688 101:0.56848029 102:0.14308945 103:0.36482165 104:0.32514209 105:0.17091159 106:0.080501309 107:0 108:0 109:0 110:0.03918099 111:0.1685993 112:0.34116627 113:0.33496623 114:0.11202395 115:0.47030113 116:0.46076748 117:0 118:0 119:0 120:0 121:0 122:0 123:0 124:0.055134815 125:0.054587579 126:0 127:0.22574092 128:0.22574092 129:0 130:0 131:0 132:0 133:0 134:0 135:0 136:0 137:0 138:0 139:0 140:0 141:0 142:0 143:0 144:0 145:0 146:0 147:0 148:0 149:0.086571491 150:0.085712233 151:0 152:0 153:0 154:0 155:0 156:0 157:0 158:0 159:0 160:0 161:0.12996545 162:0.51569908 163:0.51289165 164:0.12631156 165:0 166:0 167:0 168:0 169:0 170:0 171:0 172:0 173:0.042534702 174:0.42401147 175:0.76619868 176:0.64518553 177:0.66312625 178:0.39728375 179:0 180:0 181:0 182:0 183:0 184:0 185:0 186:0 187:0.38147677 188:0.74431796 189:0.95101603 190:0.72585543 191:0.29547187 192:0 193:0 194:0 195:0.0069494325 196:0.0069494325 197:0.003414427 198:0 199:0 200:0.23393998 201:0.44450026 202:0.57072718 203:0.35645627 204:0 205:0 206:0.038221198 207:0.086409521 208:0.33634142 209:0.28528593 210:0 211:0 212:0.025773684 213:0.052197221 214:0.1141346 215:0.062970956 216:0 217:0.097336862 218:0.27157378 219:0.21959632 220:0.47686866 221:0.85877812 222:0.4265078 223:0 224:0 225:0 226:0 227:0 228:0 229:0.31706306 230:0.62281473 231:0.45721024 232:0.34305589 233:0.76266917 234:1 235:0.4265078 236:0 237:0 238:0 239:0 240:0 241:0.21888278 242:0.43936739 243:0.55744373 244:0.57458185 245:0.41003543 246:0.7146573 247:0.89013034 248:0.31663814 249:0 250:0 251:0 252:0 253:0 254:0.16252761 255:0.24222422 256:0.46477528 257:0.47336361 258:0.155349 259:0.52785377 260:0.38096862 261:0 262:0 263:0 264:0 265:0 266:0 267:0 268:0.24101009 269:0.2527451 270:0.013847391 271:0.066474476 272:0.066474476 273:0 274:0 275:0 276:0 277:0 278:0 279:0 280:0 281:0 282:0 283:0 284:0 285:0 286:0 287:0 288:0 289:0 290:0 291:0 292:0 293:0.1889734 294:0.18709776 295:0 296:0 297:0 298:0 299:0 300:0 301:0 302:0 303:0 304:0 305:0.28369631 306:0.41669741 307:0.30029954 308:0.019495278 309:0 310:0 311:0 312:0 313:0 314:0 315:0 316:0.05526009 317:0.38298019 318:0.7440235 319:0.80413639 320:0.52478403 321:0.36420482 322:0.1301399 323:0 324:0 325:0 326:0 327:0.05526009 328:0.12833267 329:0.30328555 330:0.45887169 331:0.50489492 332:0.52439606 333:0.39930787 334:0.17585797 335:0.029900109 336:0 337:0 338:0.055444598 339:0.12815 340:0.12833267 341:0.090881411 342:0.0178161 343:0 344:0.019495278 345:0.034407958 346:0.045114044 347:0.029603338 348:0 349:0 350:0.28734642 351:0.53512253 352:0.53335609 353:0.24699271 354:0 355:0 356:0 357:0 358:0 359:0 360:0 361:0 362:0.22802788 363:0.45379249 364:0.46065069 365:0.22917661 366:0 367:0.11263179 368:0.12519875 369:0.02743835 370:0.013481136 371:0 372:0 373:0.084385985 374:0.37382183 375:0.55546236 376:0.49277292 377:0.44790026 378:0.39267023 379:0.35064831 380:0.23839511 381:0.11063039 382:0.040783319 383:0 384:0 385:0.084385985 386:0.37025539 387:0.54836488 388:0.73815561 389:0.95258556 390:0.89912913 391:0.65407898 392:0.51544152 393:0.21921306 394:0.040242699 395:0 396:0 397:0 398:0.16667597 399:0.18929345 400:0.34302617 401:0.79864386 402:0.9524436 403:0.77258182 404:0.40994177 405:0.10968937 406:0 407:0 408:0 409:0 410:0 411:0 412:0.11778162 413:0.43851243 414:0.72787761 415:0.53834017 416:0.13119997 417:0 418:0 419:0 420:0 421:0 422:0 423:0 424:0 425:0.065107993 426:0.19565033 427:0.12924665 428:0 429:0 430:0 431:0 432:0 433:0 434:0 435:0 436:0.092712343 437:0.18588941 438:0.091332036 439:0 440:0 441:0 442:0 443:0 444:0 445:0 446:0 447:0 448:0.37177882 449:0.46311085 450:0.27629894 451:0 452:0 453:0 454:0 455:0 456:0 457:0 458:0 459:0.12384888 460:0.79669356 461:0.84831629 462:0.59067728 463:0.054192983 464:0.054192983 465:0.040408656 466:0.01331284 467:0 468:0 469:0 470:0 471:0.42398297 472:0.91509163 473:1 474:0.41554958 475:0.053922695 476:0.053922695 477:0.040408656 478:0.01331284 479:0 480:0 481:0 482:0.3029874 483:0.73112525 484:0.76249012 485:0.556619 486:0.097359418 487:0 488:0.12761596 489:0.17731011 490:0.1549145 491:0.10148419 492:0 493:0.15153683 494:0.56258764 495:0.65116715 496:0.42813785 497:0.12757459 498:0 499:0 500:0.21107818 501:0.36212094 502:0.25690481 503:0.20450212 504:0 505:0.26620773 506:0.47374098 507:0.39443886 508:0.22504051 509:0 510:0 511:0.17671468 512:0.40681449 513:0.53941968 514:0.30803643 515:0.25257635 516:0 517:0.1139559 518:0.39801877 519:0.60351107 520:0.41347152 521:0.11223615 522:0.16960757 523:0.48153169 524:0.80700585 525:0.66318684 526:0.46516181 527:0.10047692 528:0 529:0.0040271575 530:0.2837375 531:0.48981283 532:0.52045704 533:0.16278625 534:0.33962874 535:0.57520698 536:0.76891204 537:0.79197526 538:0.3071487 539:0 540:0 541:0 542:0.093478783 543:0.18742613 544:0.10930082 545:0.1647882 546:0.46233491 547:0.5011926 548:0.5106768 549:0.3071487 550:0 551:0 552:0 553:0 554:0 555:0 556:0 557:0.11670207 558:0.3231254 559:0.37363978 560:0.11554375 561:0 562:0 563:0 564:0 565:0 566:0 567:0 568:0 569:0.057338594 570:0.17230319 571:0.11382353 572:0 573:0 574:0 575:0 576:0 577:0 578:0 579:0 580:0 581:0 582:0 583:0 584:0 585:0 586:0 587:0 588:0 589:0 590:0 591:0 592:0 593:0 594:0 595:0 596:0 597:0 598:0 599:0 600:0 601:0 602:0 603:0 604:0 605:0 606:0 607:0 608:0 609:0 610:0 611:0 612:0 613:0 614:0 615:0 616:0 617:0 618:0 619:0 620:0 621:0 622:0 623:0 624:0 625:0 626:0 627:0 628:0 629:0 630:0 631:0 632:0 633:0 634:0 635:0 636:0 637:0 638:0 639:0 640:0 641:0 642:0 643:0 644:0 645:0 646:0 647:0 648:0 649:0 650:0 651:0.99004983 652:0.99004983 653:0 654:0 655:0 656:0 657:0 658:0 659:0 660:0 661:0 662:0 663:0.99004983 664:1 665:0.98019867 666:0 667:0 668:0 669:0 670:0 671:0 672:0 673:0 674:0 675:0 676:0.98019867 677:0.96078944 678:0 679:0 680:0 681:0 682:0 683:0 684:0 685:0 686:0 687:0 688:0 689:0.99501248 690:0.97530991 691:0 692:0 693:0 694:0 695:0 696:0 697:0 698:0 699:0 700:0 701:0.99501248 702:0.99501248 703:0 704:0 705:0 706:0 707:0 708:0 709:0 710:0 711:0 712:0 713:0.97530991 714:0.97530991 715:0 716:0 717:0 718:0 719:0 
0 79.68300965296135 102.4401880782718 0:0 1:0 2:0 3:0 4:0 5:0 6:0 7:0 8:0 9:0 10:0 11:0 12:0 13:0 14:0 15:0 16:0 17:0 18:0 19:0 20:0.058090277 21:0.058090277 22:0 23:0 24:0 25:0 26:0 27:0 28:0 29:0 30:0.12054507 31:0.12054507 32:0.19990958 33:0.36804208 34:0.44571717 35:0.27535144 36:0 37:0 38:0 39:0 40:0.070907534 41:0.069503471 42:0.38991366 43:0.38936568 44:0.23809602 45:0.45420269 46:0.86461595 47:0.54796991 48:0 49:0 50:0 51:0.15605359 52:0.3400216 53:0.23553559 54:0.34999299 55:0.44458813 56:0.36847407 57:0.31594646 58:0.77636973 59:0.52874603 60:0 61:0 62:0 63:0.33156663 64:0.52658323 65:0.38669153 66:0.20749237 67:0.27558271 68:0.15690421 69:0.24371573 70:0.41344971 71:0.30421322 72:0 73:0 74:0.22110505 75:0.48516187 76:0.58376226 77:0.39550594 78:0.24648739 79:0.087205188 80:0.1544767 81:0.18600769 82:0.20951012 83:0.054980031 84:0 85:0 86:0.3297394 87:0.50747244 88:0.58376236 89:0.26699291 90:0.18958293 91:0.049417345 92:0.12286941 93:0.14727107 94:0.048198432 95:0 96:0 97:0 98:0.13597896 99:0.26105889 100:0.36658058 101:0.13631302 102:0.026722366 103:0.024279957 104:0.073452061 105:0.072478388 106:0 107:0 108:0 109:0.013638127 110:0.068193015 111:0.068193015 112:0.081272908 113:0.026722366 114:0 115:0 116:0 117:0 118:0 119:0 120:0.013638127 121:0.068464421 122:0.081491034 123:0.067784546 124:0.013235059 125:0 126:0 127:0 128:0 129:0 130:0 131:0 132:0.041119807 133:0.081491034 134:0.094926115 135:0.040105222 136:0 137:0 138:0 139:0 140:0 141:0 142:0 143:0 144:0 145:0 146:0 147:0 148:0 149:0 150:0 151:0 152:0 153:0 154:0 155:0 156:0 157:0 158:0 159:0 160:0 161:0 162:0 163:0 164:0.1208383 165:0.1208383 166:0 167:0 168:0 169:0 170:0 171:0 172:0 173:0 174:0.028786836 175:0.028786836 176:0.2422823 177:0.42010333 178:0.47077191 179:0.11015414 180:0 181:0 182:0 183:0 184:0 185:0 186:0.086504803 187:0.086504803 188:0.11903925 189:0.36191824 190:0.47038069 191:0.11213187 192:0 193:0 194:0 195:0.18394302 196:0.30648414 197:0.12011464 198:0.057145092 199:0.086507682 200:0.084794715 201:0 202:0.0029494374 203:0.0029494374 204:0 205:0 206:0 207:0.18211731 208:0.83327016 209:0.77318031 210:0.12884664 211:0.028500402 212:0.027936056 213:0 214:0.00097170739 215:0.00097170739 216:0 217:0 218:0 219:0 220:0.56246945 221:1 222:0.43582255 223:0 224:0 225:0 226:0 227:0 228:0 229:0 230:0.17792128 231:0.35584256 232:0.3471116 233:0.60593308 234:0.42978258 235:0 236:0 237:0 238:0 239:0 240:0 241:0 242:0.1743982 243:0.53024077 244:0.70727466 245:0.3514321 246:0 247:0 248:0 249:0 250:0 251:0 252:0 253:0 254:0 255:0.1743982 256:0.52935338 257:0.3514321 258:0 259:0 260:0 261:0 262:0 263:0 264:0 265:0 266:0 267:0 268:0 269:0 270:0 271:0 272:0 273:0 274:0 275:0 276:0 277:0 278:0 279:0 280:0 281:0 282:0 283:0 284:0 285:0 286:0 287:0 288:0 289:0 290:0 291:0 292:0 293:0 294:0 295:0 296:0 297:0 298:0 299:0 300:0 301:0 302:0 303:0 304:0 305:0 306:0 307:0 308:0.18206876 309:0.18087603 310:0 311:0 312:0 313:0 314:0 315:0 316:0 317:0.19135377 318:0.5600565 319:0.74004095 320:0.82578408 321:0.72919778 322:0.66504058 323:0.27048878 324:0 325:0 326:0 327:0 328:0.19231293 329:0.57736405 330:0.86674383 331:0.84686175 332:0.88388831 333:0.77261414 334:0.66265211 335:0.27048878 336:0 337:0 338:0 339:0.032959619 340:0.34152146 341:0.53975906 342:0.71325922 343:0.57028774 344:0.27361877 345:0.04611423 346:0 347:0 348:0 349:0 350:0 351:0.14051101 352:0.41015527 353:0.40463606 354:0.17922846 355:0.072407474 356:0 357:0 358:0 359:0 360:0 361:0 362:0.020619268 363:0.14757817 364:0.43194907 365:0.5344117 366:0.38705017 367:0.13192112 368:0 369:0 370:0 371:0 372:0 373:0 374:0.1760352 375:0.53546659 376:0.72758944 377:0.78876648 378:0.56033984 379:0.15887252 380:0.082936442 381:0.027415067 382:0 383:0 384:0 385:0 386:0.15273869 387:0.51236087 388:0.82813762 389:1 390:0.81679096 391:0.55067008 392:0.26509704 393:0.027415067 394:0 395:0 396:0 397:0 398:0 399:0.026161101 400:0.33448669 401:0.61359091 402:0.62286415 403:0.52173027 404:0.20819936 405:0 406:0 407:0 408:0 409:0 410:0 411:0 412:0 413:0 414:0 415:0 416:0 417:0 418:0 419:0 420:0 421:0 422:0 423:0 424:0 425:0 426:0 427:0 428:0 429:0 430:0 431:0 432:0 433:0 434:0 435:0 436:0 437:0 438:0 439:0 440:0 441:0 442:0 443:0 444:0 445:0 446:0 447:0 448:0 449:0 450:0 451:0 452:0.11814429 453:0.11697166 454:0 455:0 456:0 457:0 458:0 459:0 460:0 461:0.084962136 462:0.25059091 463:0.38306636 464:0.45216861 465:0.30432123 466:0.11611875 467:0 468:0 469:0 470:0 471:0 472:0.17365049 473:0.51983131 474:0.8022627 475:0.66836249 476:0.49693868 477:0.51528273 478:0.2665325 479:0.050960519 480:0 481:0 482:0 483:0.13686647 484:0.60743264 485:0.95212148 486:0.91023268 487:0.82950258 488:0.49633319 489:0.39038559 490:0.306412 491:0.15416647 492:0 493:0 494:0 495:0.44046132 496:0.88156306 497:0.87281184 498:0.80526177 499:0.7530511 500:0.56330196 501:0.46035753 502:0.42044676 503:0.20333881 504:0 505:0 506:0.11006059 507:0.4900574 508:0.73188907 509:0.79888727 510:0.7743769 511:0.68215849 512:0.51012938 513:0.51012938 514:0.40520102 515:0.050201816 516:0 517:0 518:0.14105868 519:0.45966447 520:0.59471882 521:0.69507937 522:0.62166407 523:0.43296013 524:0.50510175 525:0.42997746 526:0.13997657 527:0 528:0 529:0 530:0.18909614 531:0.50868497 532:0.61430259 533:0.46167254 534:0.19051303 535:0.38231254 536:0.50973585 537:0.2127666 538:0 539:0 540:0 541:0.078405505 542:0.39204121 543:0.39204121 544:0.4022294 545:0.11844929 546:0.11431363 547:0.24818912 548:0.2172864 549:0 550:0 551:0 552:0.078405505 553:0.39360153 554:0.46849144 555:0.38969293 556:0.076088272 557:0 558:0 559:0 560:0 561:0 562:0 563:0 564:0.23639751 565:0.46849144 566:0.54572964 567:0.23056467 568:0 569:0 570:0 571:0 572:0 573:0 574:0 575:0 576:0 577:0 578:0 579:0 580:0 581:0 582:0 583:0 584:0 585:0 586:0 587:0 588:0 589:0 590:0 591:0 592:0 593:0 594:0 595:0 596:0 597:0 598:0 599:0 600:0 601:0 602:0 603:0 604:0 605:0 606:0 607:0 608:0 609:0 610:0 611:0 612:0 613:0 614:0 615:0 616:0 617:0 618:0 619:0 620:0 621:0 622:0 623:0 624:0 625:0 626:0 627:0 628:0 629:0 630:0 631:0 632:0 633:0 634:0 635:0 636:0 637:0 638:0 639:0 640:0 641:0 642:0 643:0 644:0 645:0 646:0 647:0 648:0 649:0 650:0 651:0 652:0 653:1 654:0.99004983 655:0 656:0 657:0 658:0 659:0 660:0 661:0 662:0 663:0 664:0 665:0.99004983 666:0.99004983 667:0 668:0 669:0 670:0 671:0 672:0 673:0 674:0 675:0 676:0 677:0 678:0 679:0 680:0 681:0 682:0 683:0 684:0 685:0 686:0 687:0 688:0 689:0 690:0 691:0 692:0 693:0 694:0 695:0 696:0 697:0 698:0 699:0 700:0 701:0 702:0 703:0 704:0 705:0 706:0 707:0 708:1 709:0.99004983 710:0 711:0 712:0 713:0 714:0 715:0 716:0 717:0 718:0 719:0 
0 26.96496468984122 56.37951032910745 0:0 1:0 2:0 3:0 4:0 5:0 6:0 7:0 8:0 9:0 10:0 11:0 12:0 13:0 14:0.02025 15:0.030400312 16:0.0099493226 17:0 18:0 19:0 20:0 21:0 22:0 23:0 24:0 25:0.29152318 26:0.30579965 27:0.17585247 28:0.15540048 29:0.066550877 30:0.29598752 31:0.28844035 32:0.095345442 33:0 34:0 35:0 36:0 37:0.72482489 38:0.71621616 39:0.17256634 40:0.2599284 41:0.22209204 42:0.59129513 43:0.47578562 44:0.095345442 45:0 46:0 47:0 48:0.06953711 49:0.86311046 50:0.78929005 51:0.42826877 52:0.21341811 53:0.58261401 54:0.86033887 55:0.63642202 56:0.14569968 57:0 58:0 59:0 60:0.41876094 61:0.8495288 62:0.88899993 63:0.56551687 64:0.32417048 65:0.92297543 66:0.90135548 67:0.89550312 68:0.3367535 69:0.13276309 70:0 71:0 72:0.34575764 73:0.48832136 74:0.90477507 75:0.42928916 76:0.46767872 77:0.72582929 78:0.73094909 79:0.45618 80:0.58397614 81:0.52341569 82:0.13996422 83:0 84:0 85:0.17244231 86:0.30839765 87:0.62205521 88:0.63081341 89:0.6069277 90:0.18217632 91:0.17158225 92:0.39145022 93:0.80354024 94:0.42940924 95:0 96:0 97:0 98:0 99:0.37676562 100:0.49613236 101:0.34377639 102:0.0034385697 103:0 104:0 105:0.62903603 106:0.62816121 107:0 108:0 109:0 110:0 111:0.12128567 112:0.26047391 113:0.1455743 114:0.0086254727 115:0 116:0 117:0.60564008 118:0.60261944 119:0 120:0 121:0 122:0 123:0 124:0 125:0.0086254727 126:0.0084546769 127:0 128:0 129:0.60564008 130:0.60261944 131:0 132:0 133:0 134:0 135:0 136:0 137:0 138:0 139:0 140:0.01660926 141:0.6192287 142:0.61889982 143:0 144:0 145:0 146:0 147:0 148:0 149:0 150:0 151:0 152:0 153:0 154:0 155:0 156:0 157:0 158:0.22646729 159:0.33998403 160:0.11126895 161:0 162:0 163:0 164:0 165:0 166:0 167:0 168:0 169:0.040926473 170:0.26433559 171:0.63873559 172:0.56307966 173:0.11126895 174:0 175:0 176:0 177:0 178:0 179:0 180:0 181:0.10175701 182:0.10054844 183:0.35605409 184:0.62654962 185:0.37698639 186:0.1795936 187:0.10969848 188:0 189:0 190:0 191:0 192:0 193:0.1524104 194:0.15201223 195:0.060123966 196:0.44299098 197:0.64863735 198:0.51886944 199:0.61725469 200:0.51823109 201:0.28927891 202:0.11228759 203:0 204:0 205:0.16351059 206:0.3077326 207:0.2526561 208:0.12197646 209:0.46898423 210:0.51423178 211:0.70571682 212:1 213:0.58715838 214:0.18247259 215:0.043822184 216:0 217:0.070506404 218:0.55672991 219:0.59559461 220:0.11220991 221:0 222:0 223:0.20217406 224:0.66421446 225:0.87449026 226:0.35501216 227:0.042954446 228:0 229:0 230:0.33888802 231:0.79456464 232:0.56784142 233:0.11220991 234:0 235:0 236:0.18923419 237:0.56696061 238:0.37442693 239:0 240:0 241:0 242:0 243:0.33888802 244:0.79456464 245:0.45336472 246:0 247:0 248:0 249:0.22045345 250:0.21870507 251:0 252:0 253:0 254:0 255:0 256:0.33888802 257:0.55994386 258:0.43296158 259:0.10662691 260:0 261:0.021766016 262:0.021766016 263:0 264:0 265:0 266:0 267:0 268:0 269:0.32202666 270:0.63705995 271:0.50581582 272:0.18142782 273:0 274:0 275:0 276:0 277:0 278:0 279:0 280:0 281:0 282:0.30518254 283:0.48676533 284:0.45744533 285:0.32008437 286:0.047217827 287:0 288:0 289:0 290:0 291:0 292:0 293:0 294:0 295:0 296:0 297:0 298:0 299:0 300:0 301:0.057976358 302:0.23248665 303:0.17335652 304:0.057113202 305:0 306:0 307:0 308:0 309:0 310:0 311:0 312:0 313:0.17480235 314:0.34699933 315:0.28960565 316:0.11451269 317:0 318:0 319:0 320:0 321:0 322:0 323:0 324:0 325:0.11451269 326:0.341708 327:0.45439751 328:0.43644896 329:0.41867856 330:0.38865557 331:0.17827222 332:0 333:0 334:0 335:0 336:0 337:0.052084212 338:0.28041611 339:0.45439751 340:0.4571226 341:0.54946615 342:0.75955153 343:0.65233274 344:0.48410051 345:0.48403194 346:0.21366559 347:0 348:0 349:0.051052875 350:0.16426929 351:0.38817043 352:0.43881385 353:0.46268756 354:0.79658554 355:0.98247084 356:0.80509829 357:0.68085999 358:0.41413498 359:0.10656305 360:0 361:0 362:0 363:0 364:0 365:0.081058086 366:0.24358056 367:0.34680751 368:0.39363976 369:0.5176672 370:0.40788254 371:0.10445296 372:0 373:0 374:0 375:0 376:0 377:0 378:0 379:0 380:0.012236469 381:0.011994171 382:0 383:0 384:0 385:0 386:0 387:0 388:0.012278885 389:0.012278885 390:0 391:0 392:0 393:0 394:0 395:0 396:0 397:0 398:0 399:0 400:0.012278885 401:0.049300494 402:0.066936091 403:0.029562855 404:0 405:0 406:0 407:0 408:0 409:0 410:0 411:0 412:0 413:0.03653167 414:0.12692232 415:0.14960366 416:0.059572496 417:0 418:0 419:0 420:0 421:0 422:0 423:0 424:0 425:0 426:0.071729204 427:0.14901535 428:0.2423942 429:0.21117413 430:0.07463232 431:0 432:0 433:0 434:0 435:0 436:0 437:0 438:0 439:0 440:0 441:0 442:0 443:0 444:0 445:0.062658213 446:0.251261 447:0.18735586 448:0.061725354 449:0 450:0 451:0 452:0 453:0 454:0 455:0 456:0 457:0.18891844 458:0.37502111 459:0.31299262 460:0.12376011 461:0.11344148 462:0.45100812 463:0.33304022 464:0.1068171 465:0 466:0 467:0 468:0 469:0.12376011 470:0.24939061 471:0.24629185 472:0.060806383 473:0.43894372 474:0.87357728 475:0.61198524 476:0.1068171 477:0 478:0 479:0 480:0.069624699 481:0.41327401 482:0.41908404 483:0.20356536 484:0.119393 485:0.71665448 486:0.88461644 487:0.73475632 488:0.068221591 489:0.048514808 490:0.023836518 491:0 492:0.13959839 493:0.47870745 494:0.54731587 495:0.20175411 496:0.29661085 497:0.74456345 498:0.77898351 499:0.60730163 500:0.41737019 501:0.30090444 502:0.092003855 503:0 504:0.068588123 505:0.25099986 506:0.24824934 507:0.13258001 508:0.73817684 509:0.86788839 510:0.6792811 511:0.28641868 512:0.39409473 513:0.40344358 514:0.091047965 515:0 516:0 517:0 518:0 519:0.47301022 520:0.99038083 521:1 522:0.39411288 523:0 524:0.10350462 525:0.10145509 526:0.015172787 527:0 528:0 529:0 530:0 531:0.33948669 532:0.63373512 533:0.62620981 534:0.11018048 535:0 536:0 537:0.046515482 538:0.045594414 539:0 540:0 541:0 542:0 543:0.11184564 544:0.22425191 545:0.11018048 546:0 547:0 548:0 549:0.061764323 550:0.061456272 551:0 552:0 553:0 554:0 555:0 556:0 557:0 558:0 559:0 560:0 561:0.061764323 562:0.061456272 563:0 564:0 565:0 566:0 567:0 568:0 569:0 570:0 571:0 572:0.105423 573:0.25637437 574:0.25428685 575:0 576:0 577:0 578:0 579:0 580:0 581:0 582:0 583:0 584:0 585:0 586:0 587:0 588:0 589:0 590:0 591:0 592:0 593:0 594:0 595:0 596:0 597:0 598:0 599:0 600:0 601:0 602:0 603:0 604:0 605:0 606:0 607:0 608:0 609:0 610:0 611:0 612:0 613:0 614:0 615:0 616:0 617:0.50250626 618:0.49750624 619:0 620:0 621:0 622:0 623:0 624:0 625:0 626:0 627:0 628:0 629:0.99506223 630:0.99501248 631:0 632:0 633:0 634:0 635:0 636:0.49750624 637:0.49750624 638:0 639:0 640:0 641:0.49750624 642:0.49750624 643:0 644:0 645:0 646:0 647:0 648:0.49750624 649:0.50250626 650:0.49255597 651:0 652:0 653:0 654:0 655:0.5 656:0.5 657:0.49009934 658:0 659:0 660:0 661:0.49255597 662:0.48280271 663:0 664:0 665:0 666:0 667:0.49009934 668:0.5 669:0.49009934 670:0 671:0 672:0 673:0 674:0 675:0 676:0 677:0 678:0 679:0 680:0 681:0 682:0 683:0 684:0 685:0 686:0 687:0 688:0 689:0 690:0 691:0 692:0 693:0 694:0 695:0 696:0 697:0 698:0 699:0 700:0 701:0 702:0 703:0 704:0 705:0 706:0 707:0 708:0 709:0 710:0 711:0 712:0 713:0 714:0 715:0 716:0 717:0 718:0 719:0 
0 41.48499790946394 16.91280610370206 0:0 1:0 2:0 3:0 4:0 5:0 6:0 7:0 8:0 9:0 10:0 11:0 12:0 13:0 14:0 15:0 16:0 17:0 18:0 19:0 20:0.18641542 21:0.18272414 22:0 23:0 24:0 25:0 26:0 27:0 28:0 29:0 30:0 31:0 32:0.37098058 33:0.36363467 34:0 35:0 36:0.20888549 37:0.20474928 38:0 39:0 40:0 41:0 42:0.027920748 43:0.25112045 44:0.59159247 45:0.36913031 46:0 47:0 48:0.4156977 49:0.40746634 50:0 51:0 52:0 53:0 54:0.11224351 55:0.61552346 56:0.71307557 57:0.45934348 58:0.044500083 59:0 60:0.4156977 61:0.4136244 62:0 63:0 64:0 65:0.1893993 66:0.5538194 67:0.96766088 68:0.82890121 69:0.54534 70:0.19477979 71:0.044500083 72:0.4136244 73:0.4136244 74:0 75:0 76:0.13275242 77:0.37653391 78:0.60502046 79:0.87707491 80:0.72432598 81:0.45330737 82:0.32837363 83:0.16332091 84:0.20578073 85:0.20578073 86:0 87:0 88:0.34123005 89:0.39693369 90:0.54868018 91:0.40932661 92:0.41570058 93:0.25686453 94:0.24123917 95:0.17720043 96:0 97:0 98:0 99:0 100:0.4175082 101:0.44888799 102:0.4486168 103:0.10940286 104:0.077475878 105:0.074450012 106:0.11882083 107:0.058379595 108:0 109:0 110:0 111:0 112:0.4175082 113:0.48011361 114:0.48954839 115:0.077475878 116:0.015188122 117:0 118:0 119:0 120:0 121:0 122:0 123:0 124:0.31287282 125:0.45098076 126:0.45816704 127:0.015188122 128:0 129:0 130:0 131:0 132:0 133:0 134:0 135:0 136:0.10307756 137:0.22417177 138:0.22003817 139:0 140:0 141:0 142:0 143:0 144:0 145:0 146:0 147:0 148:0 149:0.096892141 150:0.38757098 151:0.38372418 152:0.094973548 153:0 154:0 155:0 156:0 157:0 158:0 159:0 160:0 161:0.094973548 162:0.38372418 163:0.57895342 164:0.48205166 165:0.19138244 166:0 167:0 168:0 169:0 170:0 171:0 172:0 173:0 174:0.094973548 175:0.38180559 176:0.47824304 177:0.19138244 178:0 179:0 180:0.0079811264 181:0.0078230895 182:0 183:0 184:0 185:0 186:0 187:0.13139504 188:0.12879324 189:0 190:0 191:0 192:0.015883037 193:0.015568532 194:0 195:0 196:0.020671661 197:0.041138148 198:0.030828157 199:0.20610915 200:0.31317861 201:0.21665818 202:0.09483826 203:0 204:0.015883037 205:0.01580382 206:0 207:0 208:0.020671661 209:0.041138148 210:0.041344354 211:0.15001113 212:0.19014648 213:0.50692296 214:0.38317758 215:0.09483826 216:0.43804945 217:0.57842093 218:0.14054218 219:0 220:0.010156495 221:0.030520396 222:0.040525681 223:0.02016178 224:0.059502396 225:0.31041287 226:0.44371956 227:0.1901519 228:0.42445503 229:0.70842079 230:0.71407104 231:0.42445503 232:0.0048612361 233:0.0048612361 234:0.0023884448 235:0 236:0 237:0 238:0.095313639 239:0.093426302 240:0 241:0.28178883 242:0.71121766 243:0.99518701 244:0.57751057 245:0.1502164 246:0.0071773065 247:0 248:0 249:0 250:0 251:0 252:0 253:0 254:0.14054218 255:0.71121766 256:1 257:0.57796151 258:0.14768393 259:0 260:0 261:0 262:0 263:0 264:0 265:0 266:0 267:0.14054218 268:0.56499721 269:0.71397661 270:0.28653016 271:0 272:0 273:0 274:0 275:0 276:0 277:0 278:0 279:0 280:0.0023884448 281:0.14368334 282:0.14083822 283:0 284:0 285:0 286:0 287:0 288:0 289:0 290:0 291:0 292:0.13849635 293:0.35454734 294:0.44937659 295:0.3098361 296:0.076685898 297:0 298:0 299:0 300:0 301:0 302:0.069075056 303:0.20791765 304:0.34573358 305:0.42000441 306:0.44491634 307:0.46747293 308:0.38923011 309:0.15453075 310:0 311:0 312:0.069075056 313:0.2769927 314:0.34538734 315:0.27631229 316:0.34435206 317:0.34160279 318:0.21176614 319:0.30828694 320:0.38615486 321:0.15453075 322:0 323:0 324:0.20826562 325:0.41342712 326:0.41412133 327:0.34194388 328:0.13508024 329:0 330:0 331:0 332:0 333:0 334:0 335:0 336:0.13643441 337:0.41807839 338:0.61031417 339:0.65605601 340:0.67132816 341:0.68644872 342:0.68526388 343:0.68288827 344:0.6281057 345:0.4033695 346:0.11549128 347:0 348:0 349:0.28299814 350:0.61031417 351:0.65934451 352:0.67132816 353:0.74182551 354:0.83715387 355:0.78511177 356:0.78081514 357:0.57709988 358:0.23389455 359:0 360:0.082128583 361:0.1708456 362:0.46782006 363:0.64628861 364:0.65379219 365:0.72366275 366:0.73105461 367:1 368:0.99348221 369:0.56567254 370:0.22926312 371:0 372:0.081041705 373:0.13525963 374:0.13633844 375:0.081041705 376:0.11453647 377:0.45814874 378:0.67983514 379:0.57097999 380:0.33906496 381:0.071992841 382:0.043008893 383:0 384:0 385:0.053802277 386:0.13579364 387:0.19001225 388:0.22068617 389:0.34077018 390:0.56360195 391:0.33569677 392:0.15389217 393:0.10054599 394:0.056963176 395:0 396:0 397:0 398:0.026833886 399:0.13579364 400:0.45141931 401:0.68743127 402:0.63206069 403:0.50013146 404:0.24164609 405:0.071203703 406:0.013958545 407:0 408:0 409:0 410:0 411:0.026833886 412:0.3398542 413:0.65063769 414:0.78495617 415:0.49984522 416:0.19806328 417:0.013958545 418:0 419:0 420:0 421:0 422:0 423:0 424:0 425:0.1560479 426:0.15295794 427:0 428:0 429:0 430:0 431:0 432:0 433:0 434:0 435:0 436:0.13707465 437:0.34218455 438:0.20374255 439:0.067348147 440:0 441:0 442:0 443:0 444:0 445:0 446:0.068365984 447:0.20578332 448:0.34218455 449:0.41055053 450:0.27346906 451:0.067348147 452:0.028442614 453:0.027879412 454:0 455:0 456:0.068365984 457:0.27414931 458:0.34184186 459:0.27347588 460:0.3408172 461:0.33809616 462:0.13369361 463:0 464:0.056602923 465:0.05548211 466:0 467:0 468:0.20612773 469:0.40918319 470:0.40987028 471:0.33843374 472:0.13369361 473:0 474:0.080853594 475:0.17663478 476:0.15076701 477:0.056320615 478:0 479:0 480:0.13503388 481:0.27210853 482:0.26872749 483:0.066345464 484:0.033812675 485:0.16531173 486:0.52926041 487:0.68912737 488:0.38852037 489:0.070085025 490:0 491:0 492:0 493:0.078386781 494:0.10028167 495:0.072857763 496:0.04534696 497:0.48634913 498:0.96507055 499:0.87837484 500:0.65736041 501:0.13732202 502:0.047544583 503:0 504:0 505:0.038513353 506:0.088359514 507:0.071415082 508:0.12235107 509:0.64466868 510:0.91898842 511:0.91960226 512:0.68132859 513:0.24447413 514:0.24246228 515:0.093908242 516:0 517:0 518:0 519:0 520:0.20278824 521:0.48768692 522:0.74760074 523:0.89320924 524:0.71787883 525:0.60038235 526:0.44516443 527:0.14004767 528:0 529:0 530:0 531:0 532:0.079649841 533:0.30827137 534:0.6427721 535:0.77606401 536:0.8075876 537:0.79745408 538:0.44743667 539:0.046139428 540:0 541:0 542:0 543:0 544:0.1089886 545:0.49858892 546:0.59560581 547:0.79784257 548:0.79745408 549:0.50045458 550:0.098107508 551:0 552:0 553:0 554:0 555:0 556:0.20268316 557:0.40443567 558:0.51086125 559:0.42358558 560:0.40036516 561:0.098107508 562:0 563:0 564:0 565:0 566:0 567:0 568:0.092139287 569:0.27874105 570:0.27504608 571:0 572:0 573:0 574:0 575:0 576:0 577:0 578:0 579:0 580:0 581:0 582:0 583:0 584:0 585:0 586:0 587:0 588:0 589:0 590:0 591:0 592:0 593:0 594:0 595:0 596:0 597:0 598:0 599:0 600:0 601:0 602:0 603:0 604:0 605:0 606:0 607:0 608:0 609:0 610:0 611:0 612:0 613:0 614:0 615:0 616:0 617:0 618:0 619:0 620:0 621:0 622:0 623:0 624:0 625:0.99501248 626:0.97530991 627:0 628:0 629:0 630:0.99501248 631:0.97530991 632:0 633:0 634:0 635:0 636:0 637:0.99501248 638:0.99501248 639:0 640:0 641:0 642:0.99501248 643:0.99501248 644:0 645:0 646:0 647:0 648:0 649:0.97530991 650:0.97530991 651:0 652:0 653:0 654:0.97530991 655:0.97530991 656:0 657:0 658:0 659:0 660:0 661:0 662:0 663:0 664:0 665:0 666:0 667:0 668:0 669:0 670:0 671:0 672:0 673:0 674:0 675:0 676:0 677:0 678:0 679:0 680:0 681:0 682:0 683:0 684:0 685:0 686:0 687:0 688:0 689:0 690:0 691:0 692:0 693:0 694:0 695:0 696:0 697:0 698:0 699:0 700:0 701:0 702:0 703:0 704:0 705:0 706:0 707:0 708:0 709:0 710:0 711:0 712:0 713:0 714:0 715:0 716:0 717:0 718:0 719:0 
0 48.00087356437456 40.52044904145291 0:0 1:0 2:0 3:0 4:0 5:0 6:0 7:0 8:0 9:0 10:0 11:0 12:0 13:0 14:0 15:0 16:0 17:0 18:0 19:0.058729585 20:0.088315349 21:0.11570202 22:0.08584154 23:0 24:0 25:0 26:0 27:0 28:0.040050769 29:0.040050769 30:0.029291381 31:0.14646202 32:0.18824448 33:0.20204772 34:0.13037936 35:0.042812398 36:0 37:0 38:0 39:0 40:0.16060459 41:0.15980755 42:0.11775355 43:0.17502293 44:0.20159345 45:0.24464659 46:0.21406521 47:0.041964656 48:0 49:0 50:0 51:0 52:0.11975679 53:0.16682624 54:0.17670342 55:0.14602301 56:0.15724516 57:0.15710482 58:0.084563526 59:0 60:0.096038768 61:0.09508792 62:0.047068536 63:0 64:0.14607591 65:0.29015525 66:0.2380959 67:0.24774955 68:0.4047704 69:0.24727068 70:0 71:0 72:0.19136739 73:0.18851008 74:0.047068536 75:0 76:0.29288403 77:0.67584908 78:0.63586069 79:0.61138284 80:0.79970416 81:0.58450117 82:0 83:0 84:0.35226605 85:0.34529071 86:0 87:0 88:0.14390113 89:0.4285096 90:0.71680756 91:0.5598037 92:1 93:0.87451392 94:0 95:0 96:0.51133414 97:0.50120904 98:0 99:0 100:0 101:0 102:0.1766904 103:0.24310121 104:0.4894534 105:0.41597831 106:0 107:0 108:0.51133414 109:0.50878385 110:0 111:0 112:0 113:0 114:0.068529472 115:0.091793289 116:0.067845334 117:0 118:0 119:0 120:0.50878385 121:0.50878385 122:0 123:0 124:0 125:0 126:0.022577388 127:0.045267946 128:0.022241255 129:0 130:0 131:0 132:0.25312315 133:0.25312315 134:0 135:0 136:0 137:0 138:0 139:0 140:0 141:0 142:0 143:0 144:0 145:0 146:0 147:0 148:0 149:0 150:0 151:0 152:0 153:0 154:0 155:0 156:0 157:0 158:0 159:0 160:0 161:0 162:0 163:0.18076573 164:0.36243755 165:0.35705049 166:0 167:0 168:0 169:0 170:0 171:0 172:0 173:0 174:0 175:0.17718633 176:0.56103432 177:0.37624729 178:0 179:0 180:0 181:0 182:0 183:0 184:0 185:0 186:0 187:0 188:0.61835199 189:0.61629425 190:0.20169893 191:0 192:0 193:0 194:0 195:0 196:0 197:0 198:0 199:0.068021483 200:0.5407928 201:0.61221966 202:0.20169893 203:0 204:0 205:0 206:0 207:0 208:0.026846647 209:0.23873181 210:0.38265256 211:0.24298449 212:0.30856606 213:0.1357071 214:0 215:0 216:0 217:0 218:0.1291305 219:0.15596269 220:0.15177846 221:0.75312967 222:0.82814986 223:0.41574667 224:0.32211189 225:0.13301992 226:0 227:0 228:0.10359721 229:0.10154585 230:0.1291305 231:0.41616875 232:0.44950218 233:0.5257375 234:0.90328597 235:0.69723752 236:0.1663931 237:0 238:0 239:0 240:0.20616617 241:0.20208381 242:0 243:0.27015945 244:0.44572817 245:0.24559005 246:0.45342096 247:0.76056594 248:0.45418488 249:0 250:0 251:0 252:0.20616617 253:0.20513791 254:0 255:0 256:0 257:0 258:0 259:0.30101884 260:0.2980311 261:0 262:0 263:0 264:0.2499777 265:0.34239908 266:0.19001358 267:0.094532948 268:0 269:0 270:0 271:0 272:0 273:0 274:0 275:0 276:0.1454328 277:0.2458763 278:0.23787801 279:0.14310636 280:0.047147129 281:0 282:0 283:0 284:0 285:0 286:0 287:0 288:0 289:0 290:0 291:0 292:0 293:0 294:0 295:0 296:0 297:0 298:0 299:0 300:0 301:0 302:0 303:0 304:0 305:0 306:0.090812489 307:0.32191013 308:0.41777869 309:0.35724157 310:0.16920729 311:0 312:0 313:0 314:0 315:0 316:0.077333625 317:0.24871491 318:0.3553877 319:0.46138343 320:0.52649623 321:0.41935167 322:0.25615026 323:0.084390026 324:0 325:0 326:0.030170011 327:0.090812489 328:0.32429093 329:0.58837699 330:0.5450281 331:0.46611998 332:0.61928234 333:0.49684519 334:0.25758978 335:0.082718991 336:0 337:0.090812489 338:0.15085532 339:0.12068531 340:0.33330813 341:0.65391232 342:0.70739495 343:0.70674524 344:0.50702042 345:0.21838232 346:0.0065116307 347:0 348:0.030321239 349:0.12053333 350:0.15100655 351:0.14935132 352:0.14052826 353:0.52473425 354:0.81396352 355:0.80135301 356:0.5500585 357:0.20718392 358:0 359:0 360:0.029720838 361:0.060042077 362:0.089311491 363:0.21723749 364:0.49541236 365:0.82139515 366:0.96929082 367:0.91418153 368:0.71300794 369:0.31307717 370:0 371:0 372:0 373:0 374:0.039104316 375:0.31579798 376:0.65689818 377:0.87084297 378:1 379:0.69705443 380:0.50611063 381:0.29638387 382:0 383:0 384:0 385:0 386:0 387:0.16534074 388:0.457887 389:0.58371449 390:0.47773045 391:0.31064703 392:0.32245609 393:0.19609877 394:0 395:0 396:0 397:0 398:0 399:0 400:0.019378536 401:0.077903173 402:0.077227087 403:0.13231073 404:0.1584306 405:0.063963975 406:0 407:0 408:0.22350923 409:0.37065992 410:0.29579141 411:0.29594267 412:0.26546986 413:0.20573656 414:0.14513735 415:0.038180055 416:0 417:0 418:0 419:0 420:0.22055134 421:0.36773138 422:0.37030128 423:0.32154895 424:0.27094792 425:0.18558481 426:0.086427572 427:0 428:0 429:0 430:0 431:0 432:0 433:0 434:0 435:0 436:0 437:0 438:0 439:0 440:0 441:0 442:0 443:0 444:0 445:0 446:0 447:0 448:0 449:0 450:0.17242382 451:0.41061016 452:0.32401571 453:0.20993105 454:0.12356686 455:0 456:0 457:0 458:0 459:0 460:0.12143083 461:0.33559818 462:0.53885848 463:0.70029623 464:0.54713523 465:0.36102151 466:0.19591459 467:0.061627431 468:0 469:0 470:0.057283183 471:0.17242382 472:0.48551213 473:0.61051558 474:0.66411885 475:0.76618954 476:0.67154731 477:0.46506826 478:0.33084721 479:0.060407126 480:0 481:0.17242382 482:0.28642592 483:0.22914274 484:0.42248282 485:0.5837943 486:0.66895163 487:0.89339528 488:0.83284298 489:0.46720651 490:0.13635911 491:0 492:0.1205069 493:0.29059765 494:0.28934306 495:0.28357029 496:0.17493031 497:0.53867851 498:0.83182143 499:0.95656275 500:0.95802224 501:0.47559262 502:0 503:0 504:0.24012272 505:0.23689018 506:0.17220391 507:0.13651274 508:0.10407943 509:0.48854652 510:0.91965973 511:1 512:0.87097955 513:0.36637535 514:0 515:0 516:0.23921967 517:0.23921967 518:0.06808573 519:0.16852719 520:0.1997045 521:0.37261417 522:0.68355664 523:0.70361821 524:0.60611158 525:0.27502345 526:0 527:0 528:0.11901329 529:0.11901329 530:0 531:0.13448033 532:0.19701479 533:0.20073113 534:0.24920624 535:0.45848101 536:0.41653632 537:0.19732523 538:0 539:0 540:0 541:0 542:0 543:0 544:0.066878416 545:0.26885626 546:0.41615902 547:0.35634674 548:0.23993433 549:0.024749513 550:0 551:0 552:0 553:0 554:0.040304715 555:0.16202798 556:0.29491692 557:0.37330507 558:0.40484364 559:0.20912533 560:0.070378611 561:0 562:0 563:0 564:0 565:0 566:0.040304715 567:0.16041979 568:0.22430924 569:0.27931871 570:0.19666731 571:0 572:0 573:0 574:0 575:0 576:0 577:0 578:0 579:0 580:0 581:0 582:0 583:0 584:0 585:0 586:0 587:0 588:0 589:0 590:0 591:0 592:0 593:0 594:0 595:0 596:0 597:0 598:0 599:0 600:0 601:0 602:0 603:0 604:0 605:0 606:0 607:0 608:0 609:0 610:0 611:0 612:0 613:0 614:0 615:0 616:0 617:0 618:0 619:0 620:0 621:0 622:0 623:0 624:0 625:0 626:0 627:0 628:0 629:0 630:0 631:0 632:0 633:0 634:0 635:0 636:0 637:0 638:0 639:0 640:0 641:0 642:0 643:0 644:1 645:0.99004983 646:0 647:0 648:0 649:0 650:0 651:0 652:0.99501248 653:0.97530991 654:0 655:0 656:0.99004983 657:0.99004983 658:0 659:0 660:0 661:0 662:0 663:0 664:0.99501248 665:0.99501248 666:0 667:0 668:0 669:0 670:0 671:0 672:0 673:0 674:0 675:0 676:0.97530991 677:0.97530991 678:0 679:0 680:0 681:0 682:0 683:0 684:0 685:0 686:0 687:0 688:0 689:0 690:0 691:0 692:0 693:0 694:0 695:0 696:0 697:0 698:0 699:0 700:0 701:0 702:0 703:0 704:0 705:0 706:0 707:0 708:0 709:0 710:0 711:0 712:0 713:0 714:0 715:0 716:0 717:0 718:0 719:0 
107.8086569780617 114.6028323081407 100.3875749074853 0:0 1:0 2:0 3:0 4:0 5:0 6:0 7:0 8:0 9:0 10:0 11:0 12:0 13:0 14:0 15:0 16:0 17:0.079315591 18:0.079315591 19:0 20:0 21:0 22:0 23:0 24:0 25:0 26:0 27:0 28:0 29:0.30378707 30:0.3623725 31:0.15666112 32:0 33:0 34:0 35:0 36:0 37:0 38:0 39:0 40:0.065116325 41:0.56471009 42:0.71546168 43:0.45092647 44:0 45:0 46:0 47:0 48:0 49:0 50:0 51:0 52:0.28544088 53:0.75119698 54:0.90667319 55:0.58381607 56:0 57:0 58:0 59:0 60:0 61:0 62:0 63:0.13960865 64:0.47148914 65:0.76912864 66:1 67:0.57275358 68:0 69:0 70:0 71:0.043751091 72:0 73:0 74:0 75:0.27783163 76:0.49152915 77:0.63028625 78:0.88740395 79:0.55615982 80:0 81:0 82:0 83:0.087721486 84:0 85:0 86:0 87:0.27998856 88:0.45338123 89:0.54105926 90:0.62672747 91:0.52823847 92:0 93:0 94:0 95:0.086417643 96:0 97:0 98:0 99:0.28431323 100:0.40517158 101:0.51054091 102:0.49449576 103:0.37837969 104:0 105:0 106:0 107:0 108:0 109:0 110:0 111:0.26629722 112:0.3868606 113:0.57721167 114:0.39895719 115:0.16147088 116:0 117:0 118:0 119:0 120:0 121:0 122:0 123:0.12236389 124:0.34519968 125:0.4573082 126:0.19170607 127:0.03819693 128:0 129:0 130:0 131:0 132:0 133:0 134:0 135:0 136:0.15468273 137:0.18316779 138:0.028913444 139:0 140:0 141:0 142:0 143:0 144:0 145:0 146:0 147:0 148:0 149:0 150:0 151:0 152:0 153:0 154:0 155:0 156:0 157:0 158:0 159:0 160:0 161:0.016357972 162:0.016357972 163:0 164:0 165:0 166:0 167:0 168:0 169:0 170:0 171:0 172:0 173:0.33382349 174:0.42258867 175:0.087007513 176:0 177:0 178:0 179:0 180:0 181:0 182:0 183:0 184:0 185:0.63527492 186:0.81325022 187:0.77836086 188:0 189:0 190:0 191:0 192:0 193:0 194:0 195:0 196:0.055359579 197:0.36851307 198:0.80890121 199:0.79718037 200:0 201:0 202:0 203:0 204:0 205:0 206:0 207:0 208:0.1548901 209:0.67486834 210:0.55091669 211:0.082067343 212:0 213:0 214:0 215:0.14759063 216:0 217:0 218:0 219:0 220:0.097559689 221:0.6717241 222:0.66866798 223:0 224:0 225:0 226:0 227:0.29592106 228:0 229:0 230:0 231:0.17242095 232:0.17242095 233:0.33891854 234:0.25420389 235:0 236:0 237:0 238:0 239:0.29152266 240:0 241:0 242:0 243:0.34313056 244:0.34313056 245:0.25456859 246:0 247:0 248:0 249:0 250:0 251:0 252:0 253:0 254:0 255:0.40583134 256:0.94207874 257:0.63561154 258:0 259:0 260:0 261:0 262:0 263:0 264:0 265:0 266:0 267:0.23278806 268:1 269:0.96858902 270:0.26412856 271:0 272:0 273:0 274:0 275:0 276:0 277:0 278:0 279:0 280:0.35122188 281:0.6130515 282:0.25889846 283:0 284:0 285:0 286:0 287:0 288:0 289:0 290:0 291:0 292:0 293:0 294:0 295:0 296:0 297:0 298:0 299:0 300:0 301:0 302:0 303:0 304:0 305:0 306:0 307:0 308:0 309:0 310:0 311:0 312:0 313:0 314:0 315:0 316:0 317:0.59362076 318:0.93358642 319:0.33755541 320:0 321:0 322:0 323:0 324:0 325:0 326:0 327:0 328:0 329:0.64780688 330:1 331:0.74526266 332:0 333:0 334:0 335:0 336:0 337:0 338:0 339:0 340:0 341:0.061734642 342:0.54821321 343:0.51835898 344:0 345:0 346:0 347:0 348:0 349:0 350:0 351:0 352:0.25139098 353:0.50404206 354:0.49655026 355:0 356:0 357:0 358:0 359:0 360:0 361:0 362:0 363:0 364:0.2464131 365:0.50152814 366:0.49655026 367:0 368:0 369:0 370:0 371:0 372:0 373:0 374:0 375:0 376:0 377:0 378:0 379:0 380:0 381:0 382:0 383:0 384:0 385:0 386:0 387:0 388:0 389:0 390:0 391:0 392:0 393:0 394:0 395:0 396:0 397:0 398:0 399:0 400:0.30942296 401:0.44043345 402:0.25933098 403:0 404:0 405:0 406:0 407:0 408:0 409:0 410:0 411:0 412:0.30588278 413:0.4409013 414:0.38866907 415:0 416:0 417:0 418:0 419:0 420:0 421:0 422:0 423:0 424:0 425:0.12933809 426:0.12677703 427:0 428:0 429:0 430:0 431:0 432:0 433:0 434:0 435:0 436:0 437:0 438:0 439:0 440:0 441:0 442:0 443:0 444:0 445:0 446:0 447:0 448:0 449:0.08142487 450:0.08142487 451:0 452:0 453:0 454:0 455:0 456:0 457:0 458:0 459:0 460:0 461:0.44735799 462:0.52243912 463:0.16082729 464:0 465:0 466:0 467:0 468:0 469:0 470:0 471:0 472:0.19510538 473:0.87303401 474:0.771475 475:0.4029201 476:0 477:0 478:0 479:0 480:0 481:0 482:0 483:0 484:0.46515212 485:1 486:0.98925789 487:0.38386292 488:0 489:0 490:0 491:0 492:0 493:0 494:0 495:0.083530713 496:0.45644855 497:0.80326537 498:0.83714105 499:0.23797526 500:0 501:0 502:0 503:0 504:0 505:0 506:0 507:0.12662246 508:0.33393283 509:0.6088828 510:0.60501053 511:0.21331814 512:0 513:0 514:0 515:0 516:0 517:0 518:0 519:0.084813047 520:0.24435433 521:0.35383366 522:0.36692548 523:0.25423107 524:0 525:0 526:0 527:0 528:0 529:0 530:0 531:0.078069116 532:0.18471992 533:0.43997071 534:0.41889643 535:0.23612006 536:0 537:0 538:0 539:0 540:0 541:0 542:0 543:0.056020488 544:0.22553749 545:0.52104559 546:0.51285015 547:0.16890016 548:0 549:0 550:0 551:0 552:0 553:0 554:0 555:0.018456239 556:0.35599741 557:0.45873528 558:0.4031169 559:0.06725326 560:0 561:0 562:0 563:0 564:0 565:0 566:0 567:0 568:0.16886028 569:0.25256563 570:0.082047875 571:0 572:0 573:0 574:0 575:0 576:0 577:0 578:0 579:0 580:0 581:0 582:0 583:0 584:0 585:0 586:0 587:0 588:0 589:0 590:0 591:0 592:0 593:0 594:0 595:0 596:0 597:0 598:0 599:0 600:0 601:0 602:0 603:0 604:0 605:0 606:0 607:0 608:0 609:0 610:0 611:0 612:0 613:0 614:0 615:0 616:0.49626248 617:0.99501248 618:0.48887409 619:0 620:0 621:0 622:0 623:0 624:0 625:0 626:0 627:0 628:0.49626248 629:1 630:0.99007459 631:0 632:0 633:0 634:0 635:0 636:0 637:0 638:0 639:0 640:0 641:0.98019867 642:0.97046979 643:0 644:0 645:0 646:0 647:0.49875 648:0 649:0 650:0 651:0 652:0 653:0 654:0 655:0 656:0 657:0 658:0 659:1 660:0 661:0 662:0 663:0 664:0 665:0 666:0 667:0 668:0 669:0 670:0 671:0.98513657 672:0 673:0 674:0 675:0 676:0 677:0 678:0 679:0 680:0 681:0 682:0 683:0 684:0 685:0 686:0 687:0 688:0 689:0 690:0 691:0 692:0 693:0 694:0 695:0 696:0 697:0 698:0 699:0 700:0 701:0 702:0 703:0 704:0 705:0 706:0 707:0 708:0 709:0 710:0 711:0 712:0 713:0 714:0 715:0 716:0 717:0 718:0 719:0 
10.258304447746 0 0 0:0 1:0 2:0 3:0 4:0 5:0 6:0 7:0 8:0 9:0 10:0 11:0 12:0 13:0 14:0 15:0 16:0 17:0 18:0 19:0.16276701 20:0.16115148 21:0 22:0 23:0 24:0 25:0.18090062 26:0.18090062 27:0 28:0 29:0 30:0 31:0.32553402 32:0.40550546 33:0.16034373 34:0 35:0 36:0 37:0.54360863 38:0.54360863 39:0.35730799 40:0 41:0 42:0 43:0.16985572 44:0.49603326 45:0.40189155 46:0 47:0 48:0 49:0.72181599 50:0.7946072 51:0.71106955 52:0 53:0 54:0 55:0.017452113 56:0.42301285 57:0.48510214 58:0.16034373 59:0 60:0 61:0.36210188 62:0.65770702 63:0.75526689 64:0.20164861 65:0.052473437 66:0 67:0.017192715 68:0.48336006 69:0.55407176 70:0.38433367 71:0 72:0 73:0.14888192 74:0.47398913 75:0.79565881 76:0.50344524 77:0.3450248 78:0 79:0.12949111 80:0.75613864 81:0.72836016 82:0.46756513 83:0 84:0 85:0.51405496 86:0.58905651 87:0.48176131 88:0.60801013 89:0.5873388 90:0 91:0.32325346 92:0.75580275 93:1 94:0.61208484 95:0 96:0 97:0.7354445 98:0.7354445 99:0.61920087 100:0.30367893 101:0.30378415 102:0.0058839471 103:0.19247066 104:0.31220815 105:0.74699156 106:0.61579042 107:0 108:0 109:0.36588825 110:0.55389086 111:0.54292309 112:0.0029346186 113:0.008877849 114:0.0058255465 115:0.063622165 116:0.063622165 117:0.58570716 118:0.58570716 119:0 120:0 121:0 122:0.1824822 123:0.17886881 124:0 125:0 126:0 127:0 128:0 129:0.33591376 130:0.33591376 131:0 132:0 133:0 134:0 135:0 136:0 137:0 138:0 139:0 140:0 141:0 142:0 143:0 144:0 145:0 146:0 147:0 148:0 149:0.21200054 150:0.42400108 151:0.20989635 152:0 153:0 154:0 155:0 156:0 157:0 158:0 159:0 160:0 161:0.20989635 162:0.52816216 163:0.63390801 164:0.31457954 165:0 166:0 167:0 168:0 169:0 170:0 171:0 172:0 173:0 174:0.20884427 175:0.6297204 176:0.58628238 177:0.16419351 178:0 179:0 180:0 181:0 182:0 183:0 184:0 185:0 186:0.32820121 187:0.61922839 188:0.62511967 189:0.4115408 190:0 191:0 192:0 193:0.13131776 194:0.13131776 195:0 196:0 197:0 198:0.57432023 199:0.95072876 200:0.90984906 201:0.49674925 202:0.16419351 203:0 204:0 205:0.26329376 206:0.65922505 207:0.43257438 208:0.04188279 209:0 210:0.24445982 211:0.84666626 212:0.92655886 213:0.65970961 214:0.32841166 215:0 216:0 217:0.1293627 218:0.65464358 219:1 220:0.47508804 221:0.082725285 222:0 223:0.1213132 224:0.53725771 225:0.64658754 226:0.27447342 227:0 228:0 229:0.039248511 230:0.16861121 231:0.69590282 232:0.99958326 233:0.47259579 234:0 235:0 236:0.1694158 237:0.40517909 238:0.27936688 239:0 240:0 241:0.078107464 242:0.095989337 243:0.18731063 244:0.65464358 245:0.78470672 246:0.25937383 247:0 248:0.055814909 249:0.28329646 250:0.28105818 251:0 252:0 253:0.038858953 254:0.076707536 255:0.11121727 256:0.20071359 257:0.44455217 258:0.27432722 259:0 260:0 261:0.1694158 262:0.1694158 263:0 264:0 265:0 266:0.036908206 267:0.072199006 268:0.070995031 269:0.053202345 270:0.017527787 271:0 272:0 273:0.055814909 274:0.055814909 275:0 276:0 277:0 278:0 279:0 280:0 281:0 282:0 283:0 284:0 285:0 286:0 287:0 288:0 289:0 290:0 291:0 292:0.064375322 293:0.23538066 294:0.25315146 295:0.082599174 296:0 297:0 298:0 299:0 300:0 301:0 302:0 303:0.19377133 304:0.38658586 305:0.36253234 306:0.34039309 307:0.27188484 308:0.12379448 309:0 310:0 311:0 312:0 313:0.064375322 314:0.25879364 315:0.38433991 316:0.32221054 317:0.38337668 318:0.2714917 319:0.24780986 320:0.16479666 321:0 322:0 323:0 324:0 325:0.064375322 326:0.256225 327:0.32092301 328:0.19056857 329:0.27812536 330:0.83243234 331:0.59820252 332:0.2220313 333:0 334:0 335:0 336:0 337:0 338:0.13871502 339:0.55764483 340:0.76696147 341:0.76829172 342:0.99303536 343:0.77105064 344:0.2904356 345:0 346:0 347:0 348:0 349:0 350:0.13871502 351:0.58922606 352:0.8303649 353:0.83787035 354:0.73774898 355:0.41046809 356:0.15323503 357:0.11309235 358:0.12413364 359:0.041444715 360:0 361:0 362:0 363:0.27398461 364:0.38169339 365:0.14625673 366:0.035839491 367:0.056404809 368:0.21145183 369:0.27858073 370:0.20723081 371:0.082477048 372:0 373:0 374:0 375:0 376:0 377:0.24842284 378:0.61890192 379:0.72981727 380:0.47943403 381:0.38548723 382:0.20516475 383:0.040219839 384:0 385:0.1750694 386:0.35101635 387:0.17246296 388:0.12452195 389:0.50905532 390:0.88798861 391:0.8250949 392:0.71010702 393:0.2441361 394:0.040219839 395:0 396:0 397:0.1750694 398:0.52696329 399:0.70118573 400:0.82410645 401:0.90616804 402:0.93386282 403:0.63515803 404:0.25398797 405:0.039719088 406:0.019760247 407:0 408:0 409:0 410:0.3457904 411:0.69337463 412:0.69854871 413:0.6582389 414:0.37443221 415:0.065878823 416:0.019760247 417:0.039719088 418:0.039323877 419:0 420:0 421:0 422:0 423:0 424:0 425:0 426:0 427:0 428:0 429:0.019563629 430:0.019176244 431:0 432:0 433:0 434:0 435:0 436:0.089294824 437:0.26877966 438:0.17770781 439:0.087965397 440:0 441:0 442:0 443:0 444:0 445:0 446:0 447:0.26877966 448:0.53623213 449:0.44693731 450:0.35585656 451:0.087965397 452:0 453:0 454:0 455:0 456:0 457:0.089294824 458:0.35897191 459:0.53311678 460:0.44693731 461:0.53178069 462:0.26258656 463:0 464:0 465:0 466:0 467:0 468:0 469:0.13207395 470:0.39818809 471:0.46616982 472:0.26433712 473:0.20315295 474:0.41723065 475:0.21205121 476:0.011686724 477:0 478:0 479:0 480:0 481:0.085133649 482:0.24080832 483:0.27886789 484:0.4862931 485:0.67221807 486:0.6199144 487:0.31539013 488:0.091875517 489:0.18421156 490:0.090507669 491:0 492:0 493:0.042354524 494:0.39169155 495:0.67468118 496:0.79625349 497:0.82448373 498:0.61855933 499:0.19814204 500:0.27654761 501:0.57590772 502:0.4024992 503:0.10416516 504:0 505:0.17423184 506:0.52097489 507:0.58128144 508:0.63035903 509:0.52187107 510:0.10392724 511:0.1965012 512:0.78568353 513:0.89750794 514:0.7910195 515:0.20729385 516:0 517:0.25983623 518:0.43494141 519:0.42974477 520:0.097756283 521:0.10163994 522:0.25321809 523:0.63607319 524:0.88325725 525:1 526:0.51565123 527:0.10108661 528:0 529:0.085604387 530:0.17336719 531:0.16993429 532:0.050947022 533:0.32706062 534:0.60029942 535:0.61008886 536:0.68049181 537:0.40944399 538:0.10108661 539:0 540:0 541:0 542:0 543:0 544:0.13739312 545:0.39976007 546:0.63511201 547:0.50045566 548:0.22542559 549:0.26620723 550:0.14679165 551:0 552:0 553:0 554:0 555:0 556:0.085723197 557:0.26019686 558:0.34461802 559:0.084446945 560:0.11822738 561:0.26564162 562:0.26327704 563:0 564:0 565:0 566:0 567:0 568:0 569:0 570:0 571:0 572:0 573:0.117051 574:0.11473323 575:0 576:0 577:0 578:0 579:0 580:0 581:0 582:0 583:0 584:0 585:0 586:0 587:0 588:0 589:0 590:0 591:0 592:0 593:0 594:0 595:0 596:0 597:0 598:0 599:0 600:0 601:0 602:0 603:0 604:0 605:0 606:0 607:0 608:0 609:0 610:0 611:0 612:0 613:0 614:0 615:0 616:0 617:0 618:0 619:0 620:0 621:0 622:0 623:0 624:0 625:0 626:0 627:0 628:0 629:0 630:0 631:1 632:0.99004983 633:0 634:0 635:0 636:0 637:0 638:0 639:0 640:0 641:0 642:0 643:0.99004983 644:0.99004983 645:0 646:1 647:0.99004983 648:0 649:0 650:0 651:0 652:0 653:0 654:0 655:0 656:0 657:0 658:0.99004983 659:0.99004983 660:0 661:0 662:0 663:0 664:1 665:0.99004983 666:0 667:0 668:0 669:0 670:0 671:0 672:0 673:0 674:0 675:0 676:0.99004983 677:0.99004983 678:0 679:0 680:0 681:0 682:0 683:0 684:0 685:0 686:0 687:0 688:0 689:0 690:0 691:0 692:0.99004983 693:0.99004983 694:0 695:0 696:0 697:0 698:0 699:0 700:0 701:0 702:0 703:0 704:0.99004983 705:1 706:0.98019867 707:0 708:0 709:0 710:0 711:0 712:0 713:0 714:0 715:0 716:0 717:0.98019867 718:0.96078944 719:0 
