svm_type c_svc
kernel_type sigmoid
gamma 0.000977
coef0 0
nr_class 4
total_sv 255
rho 1.75653 -0.84011 -1.62416 -1.14055 -1.84871 -1.45374
label 1 2 3 4
nr_sv 98 120 17 20
SV
32 5.566803409915545 0 0:0 1:0 2:0 3:0 4:0 5:0 6:0 7:0 8:0 9:0.0014761853 10:0.12759201 11:0.12361856 12:0 13:0 14:0 15:0 16:0 17:0 18:0 19:0 20:0 21:0.0029597701 22:0.12906649 23:0.12900759 24:0 25:0 26:0 27:0 28:0 29:0 30:0 31:0 32:0 33:0.0014542078 34:0.12420575 35:0.12414743 36:0 37:0 38:0 39:0 40:0 41:0 42:0 43:0.079256812 44:0.079256812 45:0.077687422 46:0 47:0 48:0 49:0 50:0 51:0 52:0 53:0 54:0 55:0.077687422 56:0.079256812 57:0.077687422 58:0 59:0 60:0 61:0 62:0 63:0 64:0 65:0.0023940306 66:0.035718623 67:0.033016533 68:0 69:0 70:0 71:0 72:0 73:0 74:0 75:0.099004216 76:0.19618517 77:0.098870226 78:0.035422563 79:0.034198675 80:0 81:0 82:0 83:0 84:0 85:0 86:0.21884391 87:0.6828906 88:0.55364084 89:0.18615236 90:0.0023583881 91:0.0011587341 92:0 93:0 94:0 95:0 96:0 97:0 98:0.37914197 99:0.89198769 100:1 101:0.11383242 102:0 103:0 104:0 105:0 106:0 107:0 108:0 109:0 110:0.15886784 111:0.56136033 112:0.55562212 113:0 114:0 115:0 116:0 117:0 118:0 119:0 120:0 121:0 122:0 123:0 124:0 125:0 126:0 127:0 128:0 129:0 130:0 131:0 132:0 133:0 134:0 135:0 136:0 137:0 138:0 139:0 140:0 141:0 142:0 143:0 144:0 145:0 146:0 147:0 148:0 149:0 150:0 151:0 152:0 153:0 154:0.96383106 155:0.94474593 156:0 157:0 158:0 159:0 160:0 161:0 162:0 163:0 164:0 165:0 166:0.95902394 167:0.95902394 168:0 169:0 170:0 171:0 172:0 173:0 174:0 175:0 176:0 177:0 178:0.47119203 179:0.47119203 180:0 181:0 182:0 183:0 184:0 185:0 186:0 187:0 188:0 189:0 190:0 191:0 192:0 193:0 194:0 195:0 196:0 197:0 198:0 199:0 200:0 201:0 202:0 203:0 204:0 205:0 206:0 207:0 208:0 209:0 210:0 211:0 212:0 213:0 214:0 215:0 216:0 217:0 218:0 219:0.32833888 220:0.32183733 221:0 222:0 223:0 224:0 225:0 226:0 227:0 228:0 229:0 230:0 231:0.65832356 232:0.65504015 233:0 234:0 235:0 236:0 237:0 238:0 239:0 240:0 241:0 242:0.17454055 243:0.99674919 244:0.99329305 245:0 246:0 247:0 248:0 249:0 250:0 251:0 252:0 253:0 254:0.17108442 255:0.34821058 256:0.34475444 257:0 258:0 259:0 260:0 261:0 262:0 263:0 264:0 265:0 266:0 267:0 268:0 269:0 270:0 271:0 272:0 273:0 274:0 275:0 276:0 277:0 278:0 279:0 280:0 281:0 282:0 283:0 284:0 285:0 286:0 287:0 288:0 289:0 290:0 291:0 292:0 293:0 294:0 295:0 296:0 297:0 298:0.033051005 299:0.032396551 300:0 301:0 302:0 303:0 304:0 305:0 306:0 307:0 308:0.027603473 309:0.093285247 310:0.097944821 311:0.058427006 312:0 313:0 314:0 315:0 316:0 317:0 318:0 319:0 320:0.05534531 321:0.11999926 322:0.15234076 323:0.057772552 324:0 325:0 326:0 327:0 328:0 329:0 330:0 331:0.15309997 332:0.17938173 333:0.12869815 334:0.067482165 335:0 336:0 337:0 338:0 339:0 340:0 341:0 342:0.023685917 343:0.17557127 344:0.17677682 345:0.10543536 346:0 347:0 348:0 349:0 350:0 351:0 352:0 353:0.063208179 354:0.11186579 355:0.12558229 356:0.11361062 357:0.044412654 358:0 359:0 360:0 361:0 362:0 363:0.096441259 364:0.094531594 365:0.062574124 366:0.088825259 367:0.075661678 368:0 369:0 370:0 371:0 372:0 373:0 374:0 375:0.3149902 376:0.77472621 377:0.45896384 378:0.030757354 379:0.01847593 380:0 381:0 382:0 383:0 384:0 385:0 386:0 387:0.44490878 388:0.90365905 389:0.66485309 390:0.22890249 391:0 392:0 393:0 394:0 395:0 396:0 397:0 398:0 399:0.22375884 400:0.57497996 401:0.65324352 402:0.22436992 403:0 404:0 405:0 406:0 407:0 408:0 409:0 410:0 411:0 412:0 413:0 414:0 415:0 416:0 417:0 418:0 419:0 420:0 421:0 422:0 423:0 424:0 425:0 426:0 427:0 428:0 429:0 430:0 431:0 432:0 433:0 434:0 435:0 436:0 437:0 438:0 439:0 440:0 441:0.094370242 442:0.18921352 443:0.092965252 444:0 445:0 446:0 447:0 448:0 449:0 450:0 451:0 452:0.091976278 453:0.465265 454:0.46448707 455:0.28123977 456:0 457:0 458:0 459:0 460:0 461:0 462:0 463:0 464:0.18255546 465:0.45778137 466:0.64424986 467:0.27751168 468:0 469:0 470:0 471:0 472:0 473:0 474:0 475:0.26755907 476:0.35457572 477:0.35981314 478:0.26865049 479:0 480:0 481:0 482:0 483:0 484:0 485:0 486:0.089334878 487:0.355125 488:0.35601835 489:0.17557078 490:0 491:0 492:0 493:0 494:0 495:0 496:0 497:0.28122216 498:0.45907341 499:0.35804081 500:0.26313671 501:0.086262242 502:0 503:0 504:0 505:0 506:0 507:0.1554222 508:0.34000754 509:0.46154176 510:0.37342138 511:0.27472037 512:0 513:0 514:0 515:0 516:0 517:0 518:0.14861521 519:0.61081565 520:0.71838752 521:0.44959883 522:0.18669399 523:0.091727347 524:0 525:0 526:0 527:0 528:0 529:0 530:0.22857312 531:0.69798299 532:1 533:0.4891232 534:0.020190798 535:0 536:0 537:0 538:0 539:0 540:0 541:0 542:0.079439436 543:0.34834015 544:0.5511042 545:0.22340348 546:0.019790994 547:0 548:0 549:0 550:0 551:0 552:0 553:0 554:0 555:0 556:0 557:0 558:0 559:0 560:0 561:0 562:0 563:0 564:0 565:0 566:0 567:0 568:0 569:0 570:0 571:0 572:0 573:0 574:0 575:0 576:0 577:0 578:0 579:0 580:0 581:0 582:0 583:0 584:0 585:0 586:0.3394942 587:0.33611618 588:0 589:0 590:0 591:0 592:0 593:0 594:0 595:0 596:0 597:0 598:0.33611618 599:0.33611618 600:0 601:0 602:0 603:0 604:0 605:0 606:0 607:0 608:0.33780097 609:0.33780097 610:0.33111206 611:0 612:0 613:0 614:0 615:0 616:0 617:0 618:0 619:0.33780097 620:0.66891302 621:0.66891302 622:0.33111206 623:0 624:0 625:0 626:0 627:0 628:0 629:0 630:0 631:0.33111206 632:0.33780097 633:0.33111206 634:0 635:0 636:0 637:0 638:0 639:0 640:0 641:0 642:0.3394942 643:0.33611618 644:0 645:0 646:0 647:0 648:0 649:0 650:0 651:0 652:0.3394942 653:0.33611618 654:0.33611618 655:0.33611618 656:0 657:0 658:0 659:0 660:0 661:0 662:0 663:0.33780097 664:1 665:0.66229862 666:0 667:0 668:0 669:0 670:0 671:0 672:0 673:0 674:0 675:0.33780097 676:0.66722824 677:0.3394942 678:0.33277176 679:0 680:0 681:0 682:0 683:0 684:0 685:0 686:0 687:0.33111206 688:0.33111206 689:0.33277176 690:0.32618244 691:0 692:0 693:0 694:0 695:0 696:0 697:0 698:0 699:0 700:0 701:0 702:0 703:0 704:0 705:0 706:0 707:0 708:0 709:0 710:0 711:0 712:0 713:0 714:0 715:0 716:0 717:0 718:0 719:0 
9.842163651161265 0 0 0:0 1:0 2:0 3:0 4:0 5:0 6:0 7:0 8:0 9:0 10:0 11:0 12:0 13:0 14:0 15:0 16:0 17:0 18:0 19:0 20:0 21:0 22:0 23:0 24:0 25:0 26:0 27:0 28:0 29:0 30:0 31:0 32:0.37332569 33:0.36593335 34:0 35:0 36:0 37:0 38:0 39:0 40:0 41:0 42:0 43:0.2208175 44:1 45:0.76387977 46:0 47:0 48:0 49:0 50:0 51:0 52:0 53:0 54:0.21836772 55:0.4367672 56:0.88457732 57:0.77322612 58:0 59:0 60:0 61:0 62:0 63:0 64:0 65:0.024786273 66:0.25708306 67:0.26586063 68:0.53344707 69:0.3233215 70:0 71:0 72:0 73:0 74:0 75:0 76:0.18154784 77:0.20404137 78:0.053956567 79:0.15455868 80:0.099091141 81:0 82:0 83:0 84:0 85:0 86:0 87:0.070628834 88:0.28378768 89:0.22626531 90:0.089646027 91:0 92:0 93:0 94:0 95:0 96:0 97:0.097850294 98:0.10365911 99:0.094216554 100:0.21580465 101:0.2226524 102:0.087870917 103:0 104:0 105:0 106:0 107:0 108:0 109:0.3479512 110:0.3507197 111:0.27873332 112:0.081399724 113:0 114:0 115:0 116:0 117:0 118:0 119:0 120:0 121:0.24629004 122:0.3460812 123:0.19530029 124:0 125:0 126:0 127:0 128:0 129:0 130:0 131:0 132:0 133:0.056504276 134:0.056504276 135:0 136:0 137:0 138:0 139:0 140:0 141:0 142:0 143:0 144:0 145:0 146:0 147:0 148:0 149:0 150:0 151:0 152:0 153:0 154:0 155:0 156:0 157:0 158:0 159:0 160:0 161:0 162:0 163:0 164:0 165:0 166:0 167:0 168:0 169:0 170:0 171:0 172:0 173:0 174:0 175:0.54956921 176:0.99948926 177:0.98413028 178:0 179:0 180:0 181:0 182:0 183:0 184:0 185:0 186:0 187:0.53868701 188:0.99501248 189:0.98413028 190:0 191:0 192:0 193:0 194:0 195:0 196:0 197:0 198:0 199:0 200:0 201:0 202:0 203:0 204:0 205:0 206:0 207:0 208:0 209:0 210:0 211:0 212:0 213:0 214:0 215:0 216:0 217:0 218:0 219:0 220:0 221:0 222:0 223:0 224:0 225:0 226:0 227:0 228:0 229:0 230:0 231:0 232:0 233:0 234:0 235:0 236:0 237:0 238:0 239:0 240:0 241:0 242:0.13736184 243:0.13736184 244:0.13464189 245:0 246:0 247:0 248:0 249:0 250:0 251:0 252:0.23344085 253:0.46805183 254:0.36460726 255:0.13736184 256:0.13464189 257:0 258:0 259:0 260:0 261:0 262:0 263:0 264:0.23344085 265:0.47039795 266:0.46572905 267:0 268:0 269:0 270:0 271:0 272:0 273:0 274:0 275:0 276:0 277:0.46108344 278:0.456507 279:0 280:0 281:0 282:0 283:0 284:0 285:0 286:0 287:0 288:0 289:0 290:0 291:0 292:0 293:0 294:0 295:0 296:0 297:0 298:0 299:0 300:0 301:0 302:0 303:0 304:0 305:0 306:0 307:0 308:0 309:0 310:0 311:0 312:0 313:0 314:0 315:0 316:0 317:0 318:0 319:0.44436088 320:0.58776136 321:0.57753556 322:0 323:0 324:0 325:0 326:0 327:0 328:0 329:0 330:0 331:0.60055751 332:0.73785133 333:0.57753556 334:0 335:0 336:0 337:0 338:0 339:0 340:0 341:0 342:0.13155764 343:0.29548019 344:0.23159842 345:0 346:0 347:0 348:0 349:0 350:0 351:0 352:0 353:0.25968262 354:0.3898948 355:0.35458209 356:0.23765799 357:0 358:0 359:0 360:0 361:0 362:0 363:0 364:0 365:0.25844628 366:0.31478084 367:0.31892623 368:0.0091420228 369:0 370:0 371:0 372:0 373:0 374:0 375:0.32331534 376:0.6482513 377:0.63861606 378:0.19528231 379:0.19141546 380:0 381:0 382:0 383:0 384:0 385:0 386:0.36215298 387:0.67906624 388:1 389:0.63861606 390:0 391:0 392:0 393:0 394:0 395:0 396:0.27628695 397:0.5539588 398:0.62715544 399:0.36215298 400:0.35498187 401:0 402:0 403:0 404:0 405:0 406:0 407:0 408:0.27628695 409:0.55673553 410:0.5512097 411:0 412:0 413:0 414:0 415:0 416:0 417:0 418:0 419:0 420:0 421:0.54571143 422:0.54029502 423:0 424:0 425:0 426:0 427:0 428:0 429:0 430:0 431:0 432:0 433:0 434:0 435:0 436:0 437:0 438:0 439:0 440:0 441:0 442:0 443:0 444:0 445:0 446:0 447:0 448:0 449:0 450:0 451:0 452:0 453:0 454:0 455:0 456:0 457:0 458:0 459:0 460:0 461:0 462:0 463:0.12384503 464:0.36048751 465:0.27549459 466:0 467:0 468:0 469:0 470:0 471:0 472:0 473:0 474:0 475:0.56013811 476:0.91121943 477:0.53236731 478:0 479:0 480:0 481:0 482:0 483:0 484:0 485:0 486:0.49538847 487:0.92879225 488:0.78811774 489:0.46342377 490:0 491:0 492:0 493:0 494:0 495:0 496:0 497:0.32023586 498:0.9793648 499:0.99205039 500:0.69331803 501:0.20403305 502:0 503:0 504:0 505:0 506:0 507:0 508:0.33401367 509:0.64766046 510:0.65599291 511:0.81959429 512:0.16660761 513:0 514:0 515:0 516:0 517:0 518:0 519:0.33015628 520:0.82921121 521:0.66638637 522:0.31829148 523:0.15032303 524:0 525:0 526:0 527:0 528:0 529:0.11378303 530:0.28548379 531:0.67110325 532:1 533:0.6597393 534:0.16166586 535:0 536:0 537:0 538:0 539:0 540:0 541:0.51002544 542:0.67265069 543:0.72214977 544:0.49865489 545:0 546:0 547:0 548:0 549:0 550:0 551:0 552:0 553:0.39141898 554:0.50756019 555:0.21786434 556:0 557:0 558:0 559:0 560:0 561:0 562:0 563:0 564:0 565:0.14962842 566:0.14962842 567:0 568:0 569:0 570:0 571:0 572:0 573:0 574:0 575:0 576:0 577:0 578:0 579:0 580:0 581:0 582:0 583:0 584:0 585:0 586:0 587:0 588:0 589:0 590:0 591:0 592:0 593:0 594:0 595:0 596:0 597:0 598:0 599:0 600:0 601:0 602:0 603:0 604:0 605:0 606:0 607:0.33388564 608:0.33388564 609:0.32727426 610:0 611:0 612:0 613:0 614:0 615:0 616:0 617:0 618:0 619:0.6611599 620:0.99504554 621:0.65454852 622:0 623:0 624:0 625:0 626:0 627:0 628:0 629:0 630:0 631:0.32727426 632:0.66777128 633:0.6611599 634:0 635:0 636:0 637:0 638:0 639:0 640:0 641:0.33222038 642:0.33222038 643:0 644:0.32727426 645:0.32727426 646:0 647:0 648:0 649:0 650:0 651:0 652:0 653:0.33222038 654:0.33555925 655:0.32891473 656:0 657:0 658:0 659:0 660:0 661:0 662:0 663:0.66777128 664:0.6611599 665:0.32727426 666:0.32891473 667:0.32240178 668:0 669:0 670:0 671:0 672:0 673:0.33222038 674:0.66610601 675:0.99504554 676:0.99504554 677:0.32727426 678:0 679:0 680:0 681:0 682:0 683:0 684:0.33222038 685:0.66444075 686:0.65949464 687:0.99007463 688:0.65454852 689:0 690:0 691:0 692:0 693:0 694:0 695:0 696:0.33222038 697:0.33555925 698:0.65782946 699:0.32240178 700:0 701:0 702:0 703:0 704:0 705:0 706:0 707:0 708:0 709:0.32891473 710:0.32240178 711:0 712:0 713:0 714:0 715:0 716:0 717:0 718:0 719:0 
32 0 0 0:0 1:0 2:0 3:0 4:0 5:0 6:0 7:0 8:0 9:0 10:0 11:0 12:0 13:0.3446764 14:0.38397298 15:0.038518456 16:0 17:0 18:0 19:0 20:0 21:0 22:0 23:0 24:0 25:0.3446764 26:0.5271309 27:0.41964398 28:0 29:0 30:0 31:0 32:0 33:0 34:0 35:0 36:0 37:0 38:0.41886586 39:0.56877965 40:0.15459761 41:0 42:0 43:0 44:0 45:0 46:0 47:0 48:0 49:0 50:0 51:0.15459761 52:0.25393522 53:0.10036375 54:0 55:0 56:0 57:0 58:0 59:0 60:0 61:0 62:0 63:0.049805517 64:0.12209584 65:0.13730828 66:0.036499822 67:0 68:0 69:0 70:0 71:0 72:0 73:0 74:0 75:0 76:0 77:0.036499822 78:0.04363904 79:0.08687507 80:0.056159318 81:0 82:0 83:0 84:0 85:0 86:0 87:0 88:0 89:0 90:0.029581259 91:0.15791738 92:0.54807034 93:0.41391382 94:0 95:0 96:0 97:0 98:0 99:0 100:0 101:0 102:0 103:0.15578167 104:1 105:0.92338168 106:0.25031408 107:0 108:0 109:0 110:0 111:0 112:0 113:0 114:0 115:0 116:0.50441118 117:0.9259354 118:0.50188287 119:0 120:0 121:0 122:0 123:0 124:0 125:0 126:0 127:0 128:0 129:0.25156879 130:0.24658739 131:0 132:0 133:0 134:0 135:0 136:0 137:0 138:0 139:0 140:0 141:0 142:0 143:0 144:0 145:0 146:0 147:0 148:0 149:0 150:0 151:0 152:0 153:0 154:0 155:0 156:0 157:0.1494134 158:0.29957575 159:0.14718893 160:0 161:0 162:0 163:0 164:0 165:0 166:0 167:0 168:0 169:0.1494134 170:0.60925202 171:0.45387688 172:0 173:0 174:0 175:0 176:0 177:0 178:0 179:0 180:0 181:0 182:0.44452905 183:0.76371793 184:0.32292568 185:0 186:0 187:0 188:0 189:0 190:0 191:0 192:0 193:0 194:0 195:0.48406165 196:0.9498045 197:0.47762563 198:0 199:0 200:0 201:0 202:0 203:0 204:0 205:0 206:0 207:0.15794527 208:0.63398945 209:0.9432678 210:0.45928629 211:0 212:0 213:0 214:0 215:0 216:0 217:0 218:0 219:0 220:0.15014009 221:0.61543667 222:0.61644451 223:0.30660165 224:0.15064093 225:0 226:0 227:0 228:0 229:0 230:0 231:0 232:0 233:0.14972431 234:0.30086976 235:0.62682842 236:0.62914207 237:0.1583406 238:0 239:0 240:0 241:0 242:0 243:0 244:0 245:0 246:0 247:0.54166873 248:1 249:0.61006711 250:0.15023819 251:0 252:0 253:0 254:0 255:0 256:0 257:0 258:0 259:0.14633125 260:0.59928061 261:0.74266845 262:0.21980977 263:0 264:0 265:0 266:0 267:0 268:0 269:0 270:0 271:0 272:0.066524526 273:0.1360961 274:0.068193966 275:0 276:0 277:0 278:0 279:0 280:0 281:0 282:0 283:0 284:0 285:0 286:0 287:0 288:0 289:0 290:0 291:0 292:0 293:0 294:0 295:0 296:0 297:0 298:0 299:0 300:0 301:0.071302278 302:0.071302278 303:0 304:0 305:0 306:0 307:0 308:0 309:0 310:0 311:0 312:0 313:0.071302278 314:0.14332116 315:0.14189509 316:0 317:0 318:0 319:0 320:0 321:0 322:0 323:0 324:0 325:0 326:0.14189509 327:0.15025356 328:0.015405916 329:0 330:0 331:0 332:0 333:0 334:0 335:0 336:0 337:0 338:0 339:0.02118141 340:0.12608955 341:0.10339158 342:0 343:0 344:0 345:0 346:0 347:0 348:0 349:0 350:0 351:0.0056611314 352:0.10990449 353:0.19326878 354:0.089732615 355:0 356:0 357:0 358:0 359:0 360:0 361:0 362:0 363:0 364:0.042164408 365:0.11030941 366:0.10922654 367:0.040630319 368:0 369:0 370:0 371:0 372:0 373:0 374:0 375:0 376:0 377:0.029338983 378:0.069969302 379:0.053824599 380:0.072314116 381:0.026884631 382:0 383:0 384:0 385:0 386:0 387:0 388:0 389:0 390:0 391:0.38519124 392:1 393:0.61102937 394:0 395:0 396:0 397:0 398:0 399:0 400:0 401:0 402:0 403:0.33356637 404:0.9181084 405:0.80401976 406:0.22951843 407:0 408:0 409:0 410:0 411:0 412:0 413:0 414:0 415:0 416:0.19466403 417:0.42418247 418:0.22497366 419:0 420:0 421:0 422:0 423:0 424:0 425:0 426:0 427:0 428:0 429:0 430:0 431:0 432:0 433:0 434:0 435:0 436:0 437:0 438:0 439:0 440:0 441:0 442:0 443:0 444:0 445:0.2567086 446:0.2567086 447:0 448:0 449:0 450:0 451:0 452:0 453:0 454:0 455:0 456:0 457:0.2567086 458:0.25928856 459:0.25415431 460:0 461:0 462:0 463:0 464:0 465:0 466:0 467:0 468:0 469:0 470:0.25415431 471:0.24912171 472:0 473:0 474:0 475:0 476:0 477:0 478:0 479:0 480:0 481:0 482:0 483:0 484:0 485:0 486:0 487:0 488:0 489:0 490:0 491:0 492:0 493:0 494:0 495:0 496:0 497:0 498:0 499:0 500:0 501:0 502:0 503:0 504:0 505:0 506:0 507:0 508:0 509:0 510:0 511:0 512:0 513:0 514:0 515:0 516:0 517:0 518:0 519:0 520:0 521:0 522:0 523:0 524:0.063841064 525:0.062576926 526:0 527:0 528:0 529:0 530:0 531:0 532:0 533:0 534:0 535:0 536:0.99193662 537:0.99067248 538:0 539:0 540:0 541:0 542:0 543:0 544:0 545:0 546:0 547:0 548:0.92809556 549:1 550:0.91886085 551:0 552:0 553:0 554:0 555:0 556:0 557:0 558:0 559:0 560:0 561:0.91886085 562:0.90066619 563:0 564:0 565:0 566:0 567:0 568:0 569:0 570:0 571:0 572:0 573:0 574:0 575:0 576:0 577:0 578:0 579:0 580:0 581:0 582:0 583:0 584:0 585:0 586:0 587:0 588:0 589:0.25090903 590:0.25090903 591:0 592:0 593:0 594:0 595:0 596:0 597:0 598:0 599:0 600:0 601:0.25090903 602:0.50181806 603:0.25090903 604:0 605:0 606:0 607:0 608:0 609:0 610:0 611:0 612:0 613:0 614:0.25090903 615:0.50181806 616:0.25090903 617:0 618:0 619:0 620:0 621:0 622:0 623:0 624:0 625:0 626:0 627:0.25090903 628:0.50181806 629:0.25090903 630:0 631:0 632:0 633:0 634:0 635:0 636:0 637:0 638:0 639:0 640:0.25090903 641:0.74783328 642:0.49932147 643:0 644:0 645:0 646:0 647:0 648:0 649:0 650:0 651:0 652:0 653:0.49932147 654:0.49440258 655:0.25090903 656:0 657:0 658:0 659:0 660:0 661:0 662:0 663:0 664:0 665:0 666:0.25090903 667:0.50181806 668:0.50307575 669:0.24717348 670:0 671:0 672:0 673:0 674:0 675:0 676:0 677:0 678:0 679:0.50433974 680:1 681:0.50057916 682:0 683:0 684:0 685:0 686:0 687:0 688:0 689:0 690:0 691:0.25090903 692:0.74649495 693:0.49066703 694:0 695:0 696:0 697:0 698:0 699:0 700:0 701:0 702:0 703:0 704:0 705:0 706:0 707:0 708:0 709:0 710:0 711:0 712:0 713:0 714:0 715:0 716:0 717:0 718:0 719:0 
29.58596119738899 0 0 0:0 1:0 2:0 3:0 4:0 5:0 6:0 7:0 8:0 9:0 10:0.15848357 11:0.15534538 12:0 13:0 14:0 15:0 16:0 17:0 18:0 19:0 20:0 21:0 22:0.15848357 23:0.15848357 24:0 25:0 26:0 27:0 28:0 29:0 30:0 31:0.0072826169 32:0.072379924 33:0.065097308 34:0.21915368 35:0.15534538 36:0 37:0 38:0 39:0 40:0 41:0 42:0 43:0.13030727 44:0.19167952 45:0.072307461 46:0.063808294 47:0 48:0 49:0 50:0 51:0 52:0 53:0 54:0.047951592 55:0.17972887 56:0.14893454 57:0.007067383 58:0 59:0 60:0 61:0 62:0 63:0 64:0 65:0.096964453 66:0.14280856 67:0.17796019 68:0.13928834 69:0 70:0 71:0 72:0 73:0 74:0 75:0 76:0.031496692 77:0.1360898 78:0.14254905 79:0.037722344 80:0 81:0 82:0 83:0 84:0 85:0 86:0.57634885 87:0.68576485 88:0.14847599 89:0.1380984 90:0.11845935 91:0 92:0 93:0 94:0 95:0 96:0 97:0 98:0.8807496 99:1 100:0.53941078 101:0.03456491 102:0.015244705 103:0 104:0 105:0 106:0 107:0 108:0 109:0 110:0.311839 111:0.73670096 112:0.41869473 113:0 114:0 115:0 116:0 117:0 118:0 119:0 120:0 121:0 122:0 123:0 124:0 125:0 126:0 127:0 128:0 129:0 130:0 131:0 132:0 133:0 134:0 135:0 136:0 137:0 138:0 139:0 140:0 141:0 142:0 143:0 144:0 145:0 146:0 147:0 148:0 149:0 150:0 151:0 152:0 153:0 154:0.0062401433 155:0.0061165802 156:0 157:0 158:0 159:0 160:0 161:0 162:0 163:0 164:0 165:0 166:0.0062401433 167:0.0062401433 168:0 169:0 170:0 171:0 172:0 173:0 174:0 175:0 176:0 177:0 178:0.0061165802 179:0.0061165802 180:0 181:0 182:0 183:0 184:0 185:0 186:0 187:0.061123283 188:0.059912961 189:0 190:0 191:0 192:0 193:0 194:0 195:0 196:0 197:0 198:0 199:0.061123283 200:0.061123283 201:0 202:0 203:0 204:0 205:0 206:0 207:0 208:0 209:0 210:0 211:0.059912961 212:0.059912961 213:0 214:0 215:0 216:0 217:0 218:0 219:0 220:0 221:0 222:0 223:0 224:0 225:0 226:0 227:0 228:0 229:0 230:0.57977305 231:0.57492067 232:0.23100689 233:0.0029142462 234:0 235:0 236:0 237:0 238:0 239:0 240:0 241:0 242:0.99411785 243:1 244:0.53917722 245:0.0029731179 246:0 247:0 248:0 249:0 250:0 251:0 252:0 253:0 254:0.41531163 255:0.52768505 256:0.30616973 257:0.0029142462 258:0 259:0 260:0 261:0 262:0 263:0 264:0 265:0 266:0 267:0 268:0 269:0 270:0 271:0 272:0 273:0 274:0 275:0 276:0 277:0 278:0 279:0 280:0 281:0 282:0 283:0 284:0 285:0 286:0 287:0 288:0 289:0 290:0 291:0 292:0 293:0 294:0 295:0 296:0 297:0 298:0.052400525 299:0.051362925 300:0 301:0 302:0 303:0 304:0 305:0 306:0 307:0 308:0.057239774 309:0.28408744 310:0.27640968 311:0.13424545 312:0 313:0 314:0 315:0 316:0 317:0 318:0 319:0.032555197 320:0.19171406 321:0.38157901 322:0.37312363 323:0.13320785 324:0 325:0 326:0 327:0 328:0 329:0 330:0 331:0.063911265 332:0.16442123 333:0.25488938 334:0.15863567 335:0 336:0 337:0 338:0 339:0 340:0 341:0 342:0.055936572 343:0.12702761 344:0.19991185 345:0.092475212 346:0 347:0 348:0 349:0 350:0 351:0 352:0 353:0.041151776 354:0.13431319 355:0.2011015 356:0.10617752 357:0 358:0 359:0 360:0 361:0 362:0 363:0 364:0.084333675 365:0.16419916 366:0.16052151 367:0.093816356 368:0 369:0 370:0 371:0 372:0 373:0 374:0.027649991 375:0.37256825 376:0.67159999 377:0.36303517 378:0.065890298 379:0 380:0 381:0 382:0 383:0 384:0 385:0 386:0.24153952 387:0.71139667 388:1 389:0.50568061 390:0 391:0 392:0 393:0 394:0 395:0 396:0 397:0 398:0.2101909 399:0.47817263 400:0.88599344 401:0.40810063 402:0 403:0 404:0 405:0 406:0 407:0 408:0 409:0 410:0 411:0 412:0 413:0 414:0 415:0 416:0 417:0 418:0 419:0 420:0 421:0 422:0 423:0 424:0 425:0 426:0 427:0 428:0 429:0 430:0 431:0 432:0 433:0 434:0 435:0 436:0 437:0 438:0 439:0 440:0 441:0 442:0.13066203 443:0.12807475 444:0 445:0 446:0 447:0 448:0 449:0 450:0 451:0 452:0.12600096 453:0.50437204 454:0.50412815 455:0.25873679 456:0 457:0 458:0 459:0 460:0 461:0 462:0 463:0.16329407 464:0.57598984 465:0.78318845 466:0.76776637 467:0.25614951 468:0 469:0 470:0 471:0 472:0 473:0 474:0 475:0.33030782 476:0.61091223 477:0.69723635 478:0.38418015 479:0 480:0 481:0 482:0 483:0 484:0 485:0 486:0.32871628 487:0.65507799 488:0.79159317 489:0.30170783 490:0 491:0 492:0 493:0 494:0 495:0 496:0 497:0.3361106 498:0.82598277 499:0.98307056 500:0.48337698 501:0 502:0 503:0 504:0 505:0 506:0 507:0 508:0.48398865 509:0.98370308 510:1 511:0.49318457 512:0 513:0 514:0 515:0 516:0 517:0 518:0.037303516 519:0.26363699 520:0.88492015 521:0.98707064 522:0.65300745 523:0 524:0 525:0 526:0 527:0 528:0 529:0 530:0.22034434 531:0.54603486 532:0.84798065 533:0.54797343 534:0.14982087 535:0 536:0 537:0 538:0 539:0 540:0 541:0 542:0.17941637 543:0.48241956 544:0.51836808 545:0.069277623 546:0 547:0 548:0 549:0 550:0 551:0 552:0 553:0 554:0 555:0 556:0 557:0 558:0 559:0 560:0 561:0 562:0 563:0 564:0 565:0 566:0 567:0 568:0 569:0 570:0 571:0 572:0 573:0 574:0 575:0 576:0 577:0 578:0 579:0 580:0 581:0 582:0 583:0 584:0 585:0 586:0.25155896 587:0.24657776 588:0 589:0 590:0 591:0 592:0 593:0 594:0 595:0 596:0.25030431 597:0.25030431 598:0.25155896 599:0.25155896 600:0 601:0 602:0 603:0 604:0 605:0 606:0 607:0.25030431 608:0.75216758 609:0.50437887 610:0.74096927 611:0.24657776 612:0 613:0 614:0 615:0 616:0 617:0 618:0 619:0.50186327 620:0.74345983 621:0.74718644 622:0.48948446 623:0 624:0 625:0 626:0 627:0 628:0 629:0 630:0.25155896 631:0.49813673 632:0.4993727 633:0.2429067 634:0 635:0 636:0 637:0 638:0 639:0 640:0 641:0.25155896 642:0.49813673 643:0.49813673 644:0.24657776 645:0 646:0 647:0 648:0 649:0 650:0 651:0 652:0.50186327 653:0.74844104 654:0.49813673 655:0.24657776 656:0 657:0 658:0 659:0 660:0 661:0 662:0 663:0.25155896 664:1 665:0.75095664 666:0.4943915 667:0 668:0 669:0 670:0 671:0 672:0 673:0 674:0 675:0.25155896 676:0.74969569 677:0.74595047 678:0.2429067 679:0 680:0 681:0 682:0 683:0 684:0 685:0 686:0 687:0.24657776 688:0.49315553 689:0.24657776 690:0 691:0 692:0 693:0 694:0 695:0 696:0 697:0 698:0 699:0 700:0 701:0 702:0 703:0 704:0 705:0 706:0 707:0 708:0 709:0 710:0 711:0 712:0 713:0 714:0 715:0 716:0 717:0 718:0 719:0 
32 0 0 0:0 1:0 2:0 3:0 4:0 5:0 6:0 7:0 8:0 9:0 10:0 11:0 12:0 13:0 14:0 15:0 16:0 17:0 18:0 19:0 20:0 21:0 22:0 23:0 24:0 25:0 26:0 27:0 28:0 29:0 30:0 31:0 32:0 33:0 34:0 35:0 36:0.40512784 37:0.39710577 38:0 39:0 40:0.23146915 41:0.22688575 42:0 43:0 44:0 45:0 46:0 47:0 48:0.40310725 49:0.40310725 50:0 51:0 52:0.46583449 53:0.46350251 54:0 55:0 56:0 57:0 58:0 59:0 60:0.1980565 61:0.1980565 62:0 63:0 64:0.61081568 65:0.75486282 66:0.29008362 67:0 68:0 69:0 70:0 71:0 72:0 73:0 74:0 75:0 76:0.375231 77:0.96385174 78:0.73023617 79:0 80:0 81:0 82:0 83:0 84:0 85:0 86:0 87:0 88:0 89:0.64453132 90:0.99539239 91:0.49708877 92:0 93:0 94:0 95:0 96:0 97:0 98:0 99:0 100:0 101:0.20199273 102:0.91227979 103:0.98136389 104:0.27194239 105:0 106:0 107:0 108:0 109:0 110:0 111:0 112:0 113:0 114:0.46461992 115:0.9910634 116:0.52581757 117:0 118:0 119:0 120:0 121:0 122:0 123:0 124:0 125:0 126:0 127:0.52032397 128:0.51971044 129:0.28277792 130:0.27996423 131:0 132:0 133:0 134:0 135:0 136:0 137:0 138:0 139:0 140:0 141:0.27996423 142:0.27996423 143:0 144:0 145:0 146:0 147:0 148:0 149:0 150:0 151:0 152:0 153:0 154:0 155:0 156:0 157:0 158:0 159:0 160:0 161:0 162:0 163:0 164:0 165:0 166:0 167:0 168:0 169:0 170:0 171:0.032427998 172:0.12590894 173:0.1694037 174:0.07505195 175:0 176:0 177:0 178:0 179:0 180:0 181:0 182:0 183:0.032427998 184:0.31848374 185:0.448011 186:0.34503948 187:0.36543178 188:0.29578192 189:0.16262815 190:0.052630708 191:0 192:0 193:0 194:0 195:0 196:0.46352098 197:0.66028887 198:0.38358126 199:0.35952895 200:0.33152086 201:0.28166185 202:0.10683417 203:0 204:0 205:0 206:0 207:0 208:0.63187885 209:0.78717448 210:0.274005 211:0 212:0.12191882 213:0.22636984 214:0.10471871 215:0 216:0 217:0 218:0 219:0 220:0.36218054 221:1 222:0.62923552 223:0 224:0 225:0 226:0 227:0 228:0 229:0 230:0 231:0 232:0 233:0.58645998 234:0.8496512 235:0.26220958 236:0 237:0 238:0 239:0 240:0 241:0 242:0 243:0 244:0 245:0.20127427 246:0.52371064 247:0.51582698 248:0.19586037 249:0 250:0 251:0 252:0 253:0 254:0 255:0 256:0 257:0 258:0.19882042 259:0.67936417 260:0.61635347 261:0.21454747 262:0.14339808 263:0 264:0 265:0 266:0 267:0 268:0 269:0 270:0 271:0.61239683 272:0.60849909 273:0.43368482 274:0.35962408 275:0 276:0 277:0 278:0 279:0 280:0 281:0 282:0 283:0 284:0 285:0.35653677 286:0.42803258 287:0.071391639 288:0 289:0 290:0 291:0 292:0 293:0 294:0 295:0 296:0 297:0 298:0 299:0 300:0 301:0 302:0 303:0 304:0 305:0 306:0 307:0 308:0 309:0 310:0 311:0 312:0.1552359 313:0.48756035 314:0.72856734 315:0.7947008 316:0.73823174 317:0.48556151 318:0.28096574 319:0.1350295 320:0 321:0 322:0 323:0 324:0.33547619 325:0.66614852 326:0.78284142 327:0.7947008 328:0.77037914 329:0.68786836 330:0.72630914 331:0.88189772 332:0.78707954 333:0.49715384 334:0.16675724 335:0 336:0.1766713 337:0.48602611 338:0.76921904 339:0.76068827 340:0.89116321 341:0.94700675 342:0.85134922 343:0.73504331 344:0.78099709 345:0.80203981 346:0.33771908 347:0 348:0 349:0 350:0 351:0 352:0.42815369 353:0.51883821 354:0.19926467 355:0 356:0.30595191 357:0.63736769 358:0.3310318 359:0 360:0 361:0 362:0 363:0 364:0.15813728 365:0.29680622 366:0.25056451 367:0 368:0 369:0 370:0 371:0 372:0 373:0 374:0 375:0 376:0 377:0.18346461 378:0.22741657 379:0.044866561 380:0 381:0 382:0 383:0 384:0 385:0 386:0 387:0 388:0 389:0 390:0.044866561 391:0.043978143 392:0 393:0 394:0 395:0 396:0 397:0 398:0 399:0 400:0 401:0 402:0 403:0 404:0.1387432 405:0.27818185 406:0.13667758 407:0 408:0 409:0 410:0 411:0 412:0 413:0 414:0 415:0 416:0.1387432 417:0.5500821 418:0.41207172 419:0 420:0 421:0 422:0 423:0 424:0 425:0 426:0 427:0 428:0 429:0.40931065 430:0.54322055 431:0.13392442 432:0 433:0 434:0 435:0 436:0 437:0 438:0 439:0 440:0 441:0 442:0 443:0 444:0 445:0 446:0 447:0 448:0 449:0 450:0 451:0 452:0 453:0 454:0 455:0 456:0.18962198 457:0.35420055 458:0.20867184 459:0.048655027 460:0.0037585196 461:0 462:0.11582024 463:0.11352684 464:0 465:0 466:0 467:0 468:0.84410926 469:1 470:0.60843829 471:0.12891547 472:0.085252694 473:0.19570072 474:0.23164048 475:0.22934708 476:0 477:0 478:0 479:0 480:0.6438603 481:0.91989055 482:0.60057771 483:0.12636278 484:0.16815897 485:0.27368821 486:0.22934708 487:0.22705369 488:0 489:0 490:0 491:0 492:0.11547453 493:0.11547453 494:0 495:0 496:0.22197706 497:0.30266438 498:0.1388904 499:0 500:0 501:0 502:0 503:0 504:0 505:0 506:0 507:0 508:0.1388904 509:0.29558506 510:0.29277929 511:0 512:0 513:0 514:0 515:0 516:0 517:0 518:0 519:0 520:0 521:0.15388889 522:0.29129544 523:0.13914376 524:0 525:0 526:0 527:0 528:0 529:0 530:0 531:0 532:0 533:0 534:0.28462086 535:0.30372616 536:0.024251267 537:0 538:0 539:0 540:0 541:0 542:0 543:0 544:0 545:0 546:0.28039042 547:0.30513159 548:0.024741175 549:0 550:0 551:0 552:0 553:0 554:0 555:0 556:0 557:0 558:0 559:0.024251267 560:0.024251267 561:0.30321421 562:0.30019718 563:0 564:0 565:0 566:0 567:0 568:0 569:0 570:0 571:0 572:0 573:0.30019718 574:0.30019718 575:0 576:0 577:0 578:0 579:0 580:0 581:0 582:0 583:0 584:0 585:0 586:0 587:0 588:0 589:0 590:0 591:0 592:0 593:0 594:0 595:0 596:0 597:0 598:0 599:0 600:0 601:0 602:0 603:0 604:0 605:0 606:0.25155738 607:0.24657621 608:0 609:0 610:0 611:0 612:0.25155738 613:0.24657621 614:0 615:0 616:0 617:0 618:0.25155738 619:0.25155738 620:0 621:0 622:0 623:0 624:0.25155738 625:0.25155738 626:0 627:0 628:0.5043757 629:0.50186012 630:0.49315242 631:0.24657621 632:0 633:0 634:0 635:0 636:0.24657621 637:0.24657621 638:0 639:0 640:0.49438839 641:0.74103877 642:0.24657621 643:0 644:0 645:0 646:0 647:0 648:0 649:0 650:0 651:0 652:0 653:0.75467844 654:0.74469113 655:0 656:0 657:0 658:0 659:0 660:0 661:0 662:0 663:0 664:0 665:0.49811492 666:1 667:0.49811492 668:0 669:0 670:0 671:0 672:0 673:0 674:0 675:0 676:0 677:0 678:0.75093323 679:0.74351064 680:0 681:0 682:0 683:0 684:0 685:0 686:0 687:0 688:0 689:0 690:0.49811492 691:0.75342379 692:0.49811492 693:0.25030273 694:0 695:0 696:0 697:0 698:0 699:0 700:0 701:0 702:0 703:0.49811492 704:0.49320791 705:0.50060547 706:0.25030273 707:0 708:0 709:0 710:0 711:0 712:0 713:0 714:0 715:0 716:0 717:0.25030273 718:0.49572349 719:0.24781218 
14.35210634004811 8.01051849486103 0 0:0 1:0 2:0 3:0 4:0 5:0 6:0 7:0 8:0 9:0 10:0 11:0 12:0 13:0 14:0 15:0.27946506 16:0.27946506 17:0.27393128 18:0 19:0 20:0 21:0 22:0 23:0 24:0 25:0 26:0 27:0.45294763 28:0.44940287 29:0.27393128 30:0 31:0 32:0 33:0 34:0 35:0 36:0 37:0 38:0 39:0.55679339 40:0.55180549 41:0 42:0 43:0 44:0 45:0 46:0 47:0 48:0 49:0 50:0 51:0.68275827 52:0.87769002 53:0.60221905 54:0 55:0 56:0 57:0 58:0 59:0 60:0 61:0 62:0 63:0.30035675 64:1 65:0.98795512 66:0 67:0 68:0 69:0 70:0 71:0 72:0 73:0 74:0 75:0 76:0.38782542 77:0.58933051 78:0.39850476 79:0.27038865 80:0 81:0 82:0 83:0 84:0 85:0 86:0 87:0 88:0 89:0.27038865 90:0.39607605 91:0.45391029 92:0.18352164 93:0 94:0 95:0 96:0 97:0 98:0 99:0 100:0 101:0 102:0 103:0.18352164 104:0.18352164 105:0 106:0 107:0 108:0 109:0 110:0 111:0 112:0 113:0 114:0 115:0 116:0 117:0 118:0 119:0 120:0 121:0 122:0 123:0 124:0 125:0 126:0 127:0 128:0 129:0 130:0 131:0 132:0 133:0 134:0 135:0 136:0 137:0 138:0 139:0 140:0 141:0 142:0 143:0 144:0 145:0 146:0 147:0 148:0 149:0 150:0 151:0 152:0 153:0 154:0 155:0 156:0 157:0 158:0 159:0.26291421 160:0.50662709 161:0.2418519 162:0 163:0 164:0 165:0 166:0 167:0 168:0 169:0 170:0 171:0.39646476 172:0.63748149 173:0.50421763 174:0.14824052 175:0 176:0 177:0 178:0 179:0 180:0 181:0 182:0 183:0.62459799 184:0.67478052 185:0.52320539 186:0.14530516 187:0 188:0 189:0 190:0 191:0 192:0 193:0 194:0 195:0.65316427 196:0.99692332 197:0.66188958 198:0 199:0 200:0 201:0 202:0 203:0 204:0 205:0 206:0 207:0.1676418 208:0.85875264 209:0.85202988 210:0 211:0 212:0 213:0 214:0 215:0 216:0 217:0 218:0 219:0 220:0.34560213 221:0.34560213 222:0.1281361 223:0.12559884 224:0 225:0 226:0 227:0 228:0 229:0.028829328 230:0.08663249 231:0.095240471 232:0.037633753 233:0.12559884 234:0.1281361 235:0.40026911 236:0.39556028 237:0 238:0 239:0 240:0 241:0.028829328 242:0.08663249 243:0.1056884 244:0.10130336 245:0.12942539 246:0.13125861 247:0.49236 248:0.57176358 249:0.27334084 250:0.0021765535 251:0 252:0 253:0 254:0.056942586 255:0.10359563 256:0.09351141 257:0.1268626 258:0.13125861 259:0.25762318 260:0.46725034 261:0.27015582 262:0.0021765535 263:0 264:0 265:0 266:0 267:0 268:0 269:0 270:0 271:0 272:0 273:0 274:0 275:0 276:0 277:0 278:0 279:0 280:0 281:0 282:0 283:0 284:0 285:0 286:0 287:0 288:0 289:0 290:0 291:0 292:0 293:0 294:0 295:0 296:0 297:0 298:0 299:0 300:0 301:0 302:0 303:0.23750171 304:0.55998137 305:0.31775323 306:0 307:0 308:0 309:0 310:0 311:0 312:0 313:0 314:0 315:0.54382398 316:0.99337701 317:0.81344312 318:0.082953758 319:0 320:0 321:0 322:0 323:0 324:0 325:0 326:0 327:0.64011948 328:0.92150425 329:0.79769354 330:0.081311163 331:0 332:0 333:0 334:0 335:0 336:0 337:0 338:0 339:0.43656337 340:0.72356917 341:0.51938541 342:0 343:0 344:0 345:0 346:0 347:0 348:0 349:0 350:0 351:0.10510448 352:0.39353634 353:0.38958572 354:0 355:0 356:0 357:0 358:0 359:0 360:0 361:0 362:0 363:0 364:0.08560101 365:0.08560101 366:0 367:0 368:0 369:0 370:0 371:0 372:0 373:0.14540535 374:0.44696488 375:0.60967897 376:0.30792004 377:0 378:0 379:0.24883507 380:0.24568237 381:0 382:0 383:0.13830782 384:0 385:0.14540535 386:0.44696488 387:0.60967897 388:0.62125646 389:0.59855431 390:0.57636477 391:0.87828607 392:0.92891534 393:0.74794297 394:0.6085282 395:0.69719 396:0 397:0 398:0.2871991 399:0.59133868 400:0.61202018 401:0.59551939 402:0.57555817 403:0.67845783 404:0.82157102 405:0.74618606 406:0.6085282 407:0.69445133 408:0 409:0 410:0 411:0 412:0 413:0 414:0 415:0 416:0 417:0 418:0 419:0 420:0 421:0 422:0 423:0 424:0 425:0 426:0 427:0 428:0 429:0 430:0 431:0 432:0 433:0 434:0 435:0 436:0 437:0 438:0 439:0 440:0 441:0 442:0 443:0 444:0 445:0 446:0 447:0.22920905 448:0.32878811 449:0.32325864 450:0 451:0 452:0 453:0 454:0 455:0 456:0 457:0 458:0 459:0.66757672 460:0.8353192 461:0.51542699 462:0 463:0 464:0 465:0 466:0 467:0 468:0 469:0 470:0 471:0.92790306 472:0.99172377 473:0.35063123 474:0 475:0 476:0 477:0 478:0 479:0 480:0 481:0 482:0 483:0.4825497 484:0.80353483 485:0.39475793 486:0 487:0 488:0 489:0 490:0 491:0 492:0 493:0 494:0 495:0 496:0.38437445 497:0.37963336 498:0 499:0 500:0 501:0 502:0 503:0 504:0 505:0 506:0 507:0 508:0.17555894 509:0.37142793 510:0.36968109 511:0.19199052 512:0 513:0 514:0 515:0 516:0 517:0.089459607 518:0.17936763 519:0.088127727 520:0 521:0.19199052 522:0.36623938 523:0.41425986 524:0.22226934 525:0 526:0 527:0.070032944 528:0 529:0.089459607 530:0.18026672 531:0.1784775 532:0 533:0 534:0 535:0.22226934 536:0.2565917 537:0.13346039 538:0.22340662 539:0.32397486 540:0 541:0 542:0.1766972 543:0.1749434 544:0 545:0 546:0 547:0 548:0.040081704 549:0.1308177 550:0.21898288 551:0.32258812 552:0 553:0 554:0 555:0 556:0 557:0 558:0 559:0 560:0 561:0 562:0 563:0 564:0 565:0 566:0 567:0 568:0 569:0 570:0 571:0 572:0 573:0 574:0 575:0 576:0 577:0 578:0 579:0 580:0 581:0 582:0 583:0 584:0 585:0 586:0 587:0 588:0 589:0 590:0 591:0 592:0.50312422 593:0.49811805 594:0 595:0 596:0 597:0 598:0 599:0 600:0 601:0 602:0 603:0.25155896 604:0.99751572 605:0.75342853 606:0.24781374 607:0 608:0 609:0 610:0 611:0 612:0 613:0 614:0 615:0.75468318 616:0.99250955 617:0.49811805 618:0.2429067 619:0 620:0 621:0 622:0 623:0 624:0 625:0 626:0 627:0.49811805 628:0.74970198 629:0.24781374 630:0 631:0 632:0 633:0 634:0 635:0 636:0 637:0 638:0 639:0 640:0.50186327 641:0.49688207 642:0 643:0 644:0 645:0 646:0 647:0 648:0 649:0 650:0 651:0 652:0.25030431 653:0.50186327 654:0.4993727 655:0.24657776 656:0 657:0 658:0 659:0 660:0 661:0 662:0.25155896 663:0.24657776 664:0 665:0.24781374 666:0.49446566 667:0.49688207 668:0.25030431 669:0 670:0 671:0.25155896 672:0 673:0 674:0.25155896 675:0.25155896 676:0 677:0 678:0 679:0.25030431 680:0.50060862 681:0.25030431 682:0 683:0.25155896 684:0 685:0 686:0.24657776 687:0.24657776 688:0 689:0 690:0 691:0 692:0.25030431 693:0.25030431 694:0 695:0.24657776 696:0 697:0 698:0 699:0 700:0 701:0 702:0 703:0 704:0 705:0 706:0 707:0 708:0 709:0 710:0 711:0 712:0 713:0 714:0 715:0 716:0 717:0 718:0 719:0 
19.32689282608747 0 0 0:0 1:0 2:0 3:0 4:0 5:0 6:0 7:0 8:0 9:0 10:0 11:0 12:0 13:0 14:0 15:0 16:0 17:0 18:0 19:0 20:0 21:0 22:0 23:0 24:0 25:0 26:0 27:0 28:0 29:0 30:0 31:0 32:0 33:0 34:0 35:0 36:0 37:0 38:0 39:0 40:0 41:0.28825556 42:0.28254772 43:0 44:0 45:0 46:0 47:0 48:0 49:0 50:0 51:0 52:0.22565013 53:0.81972124 54:0.58230772 55:0 56:0 57:0 58:0 59:0 60:0 61:0 62:0 63:0 64:0.33884655 65:0.99840662 66:0.99165211 67:0 68:0 69:0 70:0 71:0 72:0 73:0 74:0 75:0 76:0.11095499 77:0.96850633 78:0.95125358 79:0 80:0 81:0 82:0 83:0 84:0 85:0 86:0 87:0 88:0 89:0.65696685 90:0.91449883 91:0.2644991 92:0 93:0 94:0 95:0 96:0 97:0 98:0 99:0 100:0 101:0.581529 102:0.57930177 103:0.26187384 104:0 105:0 106:0 107:0 108:0 109:0 110:0 111:0 112:0 113:0.58918267 114:0.58918267 115:0 116:0 117:0 118:0 119:0 120:0 121:0 122:0 123:0 124:0 125:0.38587785 126:0.38587785 127:0 128:0 129:0 130:0 131:0 132:0 133:0 134:0 135:0 136:0 137:0 138:0.2959498 139:0.29300505 140:0 141:0 142:0 143:0 144:0 145:0 146:0 147:0 148:0 149:0 150:0 151:0 152:0 153:0 154:0 155:0 156:0 157:0 158:0 159:0 160:0 161:0 162:0 163:0 164:0 165:0 166:0 167:0 168:0 169:0 170:0 171:0 172:0 173:0.10915438 174:0.21885589 175:0.10752928 176:0 177:0 178:0 179:0 180:0 181:0 182:0 183:0 184:0 185:0.4132091 186:0.84520994 187:0.75762552 188:0.43131996 189:0.10771611 190:0 191:0 192:0 193:0 194:0 195:0 196:0.13472186 197:0.59406757 198:0.77678021 199:0.84627693 200:0.74592452 201:0.51892607 202:0.4747137 203:0.26720213 204:0 205:0 206:0 207:0 208:0.30607862 209:0.86656187 210:0.8604743 211:0.20939033 212:0.51459904 213:0.51457457 214:0.47065774 215:0.3754797 216:0 217:0 218:0 219:0 220:0.16796367 221:1 222:0.81867252 223:0 224:0 225:0 226:0.13259907 227:0.2658628 228:0 229:0 230:0 231:0 232:0 233:0.58636789 234:0.7520533 235:0.27136756 236:0 237:0 238:0 239:0 240:0 241:0 242:0 243:0 244:0 245:0.23096291 246:0.42733962 247:0.26831391 248:0 249:0 250:0 251:0 252:0 253:0 254:0 255:0 256:0 257:0.32338589 258:0.32130057 259:0 260:0 261:0 262:0 263:0 264:0 265:0 266:0 267:0 268:0 269:0.31904699 270:0.31904699 271:0 272:0 273:0 274:0 275:0 276:0 277:0 278:0 279:0 280:0 281:0 282:0.27483623 283:0.2729802 284:0.086555122 285:0 286:0 287:0 288:0 289:0 290:0 291:0 292:0 293:0 294:0 295:0 296:0 297:0 298:0 299:0 300:0 301:0 302:0 303:0 304:0 305:0 306:0 307:0 308:0 309:0 310:0 311:0 312:0 313:0 314:0 315:0 316:0.17449012 317:0.52434501 318:0.4691206 319:0.12030779 320:0 321:0 322:0 323:0 324:0 325:0 326:0.090564364 327:0.32046307 328:0.54163132 329:0.79200851 330:0.9511902 331:0.81851098 332:0.46741342 333:0.11953497 334:0 335:0 336:0 337:0.19744257 338:0.44654533 339:0.47770036 340:0.54719783 341:0.61918143 342:0.88778519 343:0.99445083 344:0.82062326 345:0.64574413 346:0.55257674 347:0.27550655 348:0.068151181 349:0.31813303 350:0.40456704 351:0.46702464 352:0.34105082 353:0.19357345 354:0.11931678 355:0.23143017 356:0.59560565 357:0.61761557 358:0.54714838 359:0.42473075 360:0.067085188 361:0.18692759 362:0.23708219 363:0.06423961 364:0 365:0.11831632 366:0.11733076 367:0 368:0 369:0 370:0.14498356 371:0.27420783 372:0.014033251 373:0.014033251 374:0 375:0 376:0 377:0 378:0 379:0 380:0 381:0 382:0 383:0 384:0 385:0 386:0 387:0 388:0 389:0 390:0 391:0 392:0 393:0 394:0 395:0 396:0 397:0 398:0 399:0 400:0 401:0 402:0 403:0 404:0 405:0 406:0 407:0 408:0 409:0 410:0 411:0 412:0 413:0 414:0 415:0 416:0 417:0 418:0 419:0 420:0 421:0 422:0 423:0 424:0 425:0 426:0.24820532 427:0.24696739 428:0.12134115 429:0 430:0 431:0 432:0 433:0 434:0 435:0 436:0 437:0 438:0 439:0 440:0 441:0 442:0 443:0 444:0 445:0 446:0 447:0 448:0 449:0 450:0 451:0 452:0 453:0 454:0 455:0 456:0 457:0 458:0 459:0 460:0.062897158 461:0.12116729 462:0.057691777 463:0 464:0 465:0 466:0 467:0 468:0 469:0 470:0.10616538 471:0.6037464 472:0.69082387 473:0.40935928 474:0.12083353 475:0.028773055 476:0 477:0 478:0 479:0 480:0 481:0.40192418 482:0.76420612 483:0.85630651 484:0.86086121 485:0.77270315 486:0.35363929 487:0.02820331 488:0 489:0 490:0 491:0 492:0.35502016 493:0.89239603 494:0.84725102 495:0.73811971 496:0.53226764 497:0.6860557 498:0.50074079 499:0 500:0 501:0 502:0 503:0 504:0.35151208 505:0.63324566 506:0.58079209 507:0.12635827 508:0 509:0.33034702 510:0.32754004 511:0 512:0 513:0 514:0 515:0 516:0.17433458 517:0.17433458 518:0 519:0 520:0 521:0.012212497 522:0.012212497 523:0 524:0 525:0 526:0 527:0 528:0 529:0 530:0 531:0 532:0 533:0.2628254 534:0.25762111 535:0 536:0 537:0 538:0 539:0 540:0 541:0 542:0 543:0 544:0 545:0.26116164 546:0.26116164 547:0 548:0 549:0 550:0 551:0 552:0 553:0 554:0 555:0 556:0 557:0.093722625 558:0.093722625 559:0 560:0 561:0 562:0 563:0 564:0 565:0 566:0 567:0 568:0 569:0 570:0.0033603169 571:0.0033268812 572:0 573:0 574:0 575:0 576:0 577:0 578:0 579:0 580:0 581:0 582:0 583:0 584:0 585:0 586:0 587:0 588:0 589:0 590:0 591:0 592:0 593:0 594:0 595:0 596:0 597:0 598:0 599:0 600:0 601:0 602:0 603:0 604:0 605:0 606:0 607:0 608:0 609:0 610:0 611:0 612:0 613:0 614:0 615:0 616:0 617:0.67111292 618:0.66446846 619:0.328912 620:0 621:0 622:0 623:0 624:0 625:0 626:0 627:0 628:0 629:0.66446846 630:0.67111292 631:0.328912 632:0 633:0 634:0 635:0 636:0.33555646 637:0.328912 638:0 639:0 640:0 641:0.33555646 642:0.328912 643:0 644:0 645:0 646:0 647:0 648:0.33555646 649:0.33555646 650:0 651:0 652:0 653:0.6727949 654:0.66943932 655:0 656:0 657:0 658:0 659:0 660:0.328912 661:0.328912 662:0 663:0 664:0 665:0.66611713 666:0.99835132 667:0.328912 668:0 669:0 670:0 671:0 672:0 673:0 674:0 675:0 676:0 677:0.66615044 678:0.66943932 679:0.328912 680:0 681:0 682:0 683:0 684:0 685:0 686:0 687:0 688:0 689:0.66779912 690:0.66776573 691:0 692:0 693:0 694:0 695:0 696:0 697:0 698:0 699:0 700:0 701:0.33388287 702:0.33388287 703:0 704:0 705:0 706:0 707:0 708:0 709:0 710:0 711:0 712:0 713:0 714:0.6727949 715:0.66943932 716:0.328912 717:0 718:0 719:0 
32 0 0 0:0 1:0 2:0 3:0 4:0 5:0 6:0 7:0 8:0 9:0 10:0 11:0 12:0 13:0.55909268 14:0.54983269 15:0.044930503 16:0 17:0 18:0 19:0 20:0 21:0 22:0 23:0 24:0 25:0.55026198 26:0.80252722 27:0.26136834 28:0 29:0 30:0 31:0 32:0 33:0 34:0 35:0 36:0 37:0.066181086 38:0.26136834 39:0.46408335 40:0.2881918 41:0 42:0 43:0 44:0 45:0 46:0 47:0 48:0 49:0 50:0 51:0.37598883 52:0.71519975 53:0.42522922 54:0 55:0 56:0 57:0 58:0 59:0 60:0 61:0 62:0 63:0.17041961 64:0.42867193 65:0.48130668 66:0.058291345 67:0 68:0 69:0 70:0 71:0 72:0 73:0 74:0 75:0 76:0 77:0.058291345 78:0.30466861 79:0.30248096 80:0 81:0 82:0 83:0 84:0 85:0 86:0 87:0 88:0 89:0 90:0.4976433 91:0.59787662 92:0.75065563 93:0.59440661 94:0 95:0 96:0 97:0 98:0 99:0 100:0 101:0 102:0.19129786 103:0.48461242 104:1 105:0.89604766 106:0.38475538 107:0 108:0 109:0 110:0 111:0 112:0 113:0 114:0 115:0 116:0.30140666 117:0.63327929 118:0.410149 119:0 120:0 121:0 122:0 123:0 124:0 125:0 126:0 127:0 128:0 129:0.02759596 130:0.027049523 131:0 132:0 133:0 134:0 135:0 136:0 137:0 138:0 139:0 140:0 141:0 142:0 143:0 144:0 145:0 146:0 147:0 148:0 149:0 150:0 151:0 152:0 153:0 154:0 155:0 156:0 157:0.42902282 158:0.42476633 159:0.10517434 160:0 161:0 162:0 163:0 164:0 165:0 166:0 167:0 168:0 169:0.42476284 170:0.53594802 171:0.21087588 172:0 173:0 174:0 175:0 176:0 177:0 178:0 179:0 180:0 181:0.10500193 182:0.21070347 183:0.33152214 184:0.22560561 185:0 186:0 187:0 188:0 189:0 190:0 191:0 192:0 193:0 194:0 195:0.2938315 196:0.52798875 197:0.29954884 198:0 199:0 200:0 201:0 202:0 203:0 204:0 205:0 206:0 207:0.11071455 208:0.34467671 209:0.5318165 210:0.2313275 211:0 212:0 213:0 214:0 215:0 216:0 217:0 218:0 219:0 220:0 221:0.2313275 222:0.34627581 223:0.23114006 224:0 225:0 226:0 227:0 228:0 229:0 230:0 231:0 232:0 233:0 234:0.3237352 235:0.65593161 236:0.57250069 237:0.23938364 238:0 239:0 240:0 241:0 242:0 243:0 244:0 245:0 246:0.090761631 247:0.59781894 248:1 249:0.66063059 250:0.18879823 251:0 252:0 253:0 254:0 255:0 256:0 257:0 258:0 259:0.18605216 260:0.63774016 261:0.63833623 262:0.18692433 263:0 264:0 265:0 266:0 267:0 268:0 269:0 270:0 271:0 272:0.040718575 273:0.040718575 274:0 275:0 276:0 277:0 278:0 279:0 280:0 281:0 282:0 283:0 284:0 285:0 286:0 287:0 288:0 289:0 290:0 291:0 292:0 293:0 294:0 295:0 296:0 297:0 298:0 299:0 300:0 301:0.11159384 302:0.11104594 303:0 304:0 305:0 306:0 307:0 308:0 309:0 310:0 311:0 312:0 313:0.11159384 314:0.1617144 315:0.083088832 316:0 317:0 318:0 319:0 320:0 321:0 322:0 323:0 324:0 325:0.027122051 326:0.11021088 327:0.18328972 328:0.10083277 329:0 330:0 331:0 332:0 333:0 334:0 335:0 336:0 337:0 338:0 339:0.10083277 340:0.13349111 341:0.065002949 342:0 343:0 344:0 345:0 346:0 347:0 348:0 349:0 350:0 351:0 352:0.065002949 353:0.13774593 354:0.10346054 355:0 356:0 357:0 358:0 359:0 360:0 361:0 362:0 363:0 364:0 365:0.10346054 366:0.11796127 367:0.03009337 368:0 369:0 370:0 371:0 372:0 373:0 374:0 375:0 376:0 377:0 378:0.03009337 379:0.15793669 380:0.12646429 381:0 382:0 383:0 384:0 385:0 386:0 387:0 388:0 389:0 390:0 391:0.35628023 392:1 393:0.6392108 394:0 395:0 396:0 397:0 398:0 399:0 400:0 401:0 402:0 403:0.22441625 404:0.86654178 405:0.82075557 406:0.23754255 407:0 408:0 409:0 410:0 411:0 412:0 413:0 414:0 415:0 416:0.2363578 417:0.47390036 418:0.2328389 419:0 420:0 421:0 422:0 423:0 424:0 425:0 426:0 427:0 428:0 429:0 430:0 431:0 432:0 433:0 434:0 435:0 436:0 437:0 438:0 439:0 440:0 441:0 442:0 443:0 444:0 445:0.032141173 446:0.031821363 447:0 448:0 449:0 450:0 451:0 452:0 453:0 454:0 455:0 456:0 457:0.031821363 458:0.031821363 459:0 460:0 461:0 462:0 463:0 464:0 465:0 466:0 467:0 468:0 469:0 470:0 471:0 472:0 473:0 474:0 475:0 476:0 477:0 478:0 479:0 480:0 481:0 482:0 483:0 484:0 485:0 486:0 487:0 488:0 489:0 490:0 491:0 492:0 493:0 494:0 495:0 496:0 497:0 498:0 499:0 500:0 501:0 502:0 503:0 504:0 505:0 506:0 507:0 508:0 509:0 510:0 511:0 512:0 513:0 514:0 515:0 516:0 517:0 518:0 519:0 520:0 521:0 522:0 523:0 524:0 525:0 526:0 527:0 528:0 529:0 530:0 531:0 532:0 533:0 534:0 535:0 536:0.9951307 537:0.99466135 538:0.47728626 539:0 540:0 541:0 542:0 543:0 544:0 545:0 546:0 547:0 548:0.98548888 549:1 550:0.95696492 551:0 552:0 553:0 554:0 555:0 556:0 557:0 558:0 559:0 560:0.023233756 561:0.50291242 562:0.47018039 563:0 564:0 565:0 566:0 567:0 568:0 569:0 570:0 571:0 572:0 573:0 574:0 575:0 576:0 577:0 578:0 579:0 580:0 581:0 582:0 583:0 584:0 585:0 586:0 587:0 588:0 589:0.25439215 590:0.2518609 591:0 592:0 593:0 594:0 595:0 596:0 597:0 598:0 599:0 600:0 601:0.2518609 602:0.49627819 603:0.2518609 604:0 605:0 606:0 607:0 608:0 609:0 610:0 611:0 612:0 613:0 614:0.2518609 615:0.50372181 616:0.2518609 617:0 618:0 619:0 620:0 621:0 622:0 623:0 624:0 625:0 626:0 627:0.50498427 628:0.75684517 629:0.49746603 630:0 631:0 632:0 633:0 634:0 635:0 636:0 637:0 638:0 639:0.24811118 640:0.50247821 641:0.74692062 642:0.24935485 643:0 644:0 645:0 646:0 647:0 648:0 649:0 650:0 651:0 652:0 653:0.24935485 654:0.50625305 655:0.50121575 656:0 657:0 658:0 659:0 660:0 661:0 662:0 663:0 664:0 665:0 666:0.50121575 667:0.50625305 668:0.50121575 669:0.2518609 670:0 671:0 672:0 673:0 674:0 675:0 676:0 677:0 678:0 679:0.50121575 680:1 681:0.50372181 682:0 683:0 684:0 685:0 686:0 687:0 688:0 689:0 690:0 691:0.2518609 692:0.50372181 693:0.2518609 694:0 695:0 696:0 697:0 698:0 699:0 700:0 701:0 702:0 703:0 704:0 705:0 706:0 707:0 708:0 709:0 710:0 711:0 712:0 713:0 714:0 715:0 716:0 717:0 718:0 719:0 
0.7618166498078915 0 0 0:0 1:0 2:0 3:0 4:0 5:0 6:0 7:0.24515205 8:0.24246969 9:0 10:0 11:0 12:0 13:0 14:0 15:0 16:0 17:0 18:0 19:0.42675339 20:0.42412415 21:0.18275829 22:0 23:0 24:0 25:0 26:0 27:0 28:0 29:0 30:0 31:0.18278554 32:0.42098343 33:0.40636005 34:0 35:0 36:0 37:0.13324235 38:0.13060398 39:0 40:0 41:0 42:0 43:0 44:0.50085157 45:0.49093405 46:0 47:0 48:0 49:0.487626 50:0.51899977 51:0.077242796 52:0 53:0 54:0 55:0.082231315 56:0.62173899 57:0.52882471 58:0 59:0 60:0 61:0.49268179 62:0.61930757 63:0.33229938 64:0.50960584 65:0.30274031 66:0.084140689 67:0.33090786 68:0.89133094 69:0.71186089 70:0 71:0 72:0 73:0.22686164 74:0.27450776 75:0.37250801 76:0.58481887 77:0.43254799 78:0.5627245 79:0.63591692 80:1 81:0.79921256 82:0 83:0 84:0 85:0 86:0 87:0.17676361 88:0.34821838 89:0.36167612 90:0.63521323 91:0.73318373 92:0.96010525 93:0.60245145 94:0 95:0 96:0 97:0 98:0 99:0 100:0 101:0 102:0.18263046 103:0.34595108 104:0.64702498 105:0.48693833 106:0 107:0 108:0 109:0 110:0 111:0 112:0 113:0 114:0 115:0.36312431 116:0.47920126 117:0.47079155 118:0 119:0 120:0 121:0 122:0 123:0 124:0 125:0 126:0 127:0.49677242 128:0.49677242 129:0.47763371 130:0 131:0 132:0 133:0 134:0 135:0 136:0 137:0 138:0 139:0.37998203 140:0.50594232 141:0.49592399 142:0 143:0 144:0 145:0 146:0 147:0 148:0 149:0 150:0 151:0.24935388 152:0.24831889 153:0 154:0 155:0 156:0 157:0 158:0 159:0 160:0 161:0 162:0 163:0.47466561 164:0.47365112 165:0.31698478 166:0 167:0 168:0 169:0 170:0 171:0 172:0 173:0 174:0 175:0.22388498 176:0.47579985 177:0.46743386 178:0 179:0 180:0 181:0.018393568 182:0.018029351 183:0 184:0 185:0 186:0 187:0 188:0.23310681 189:0.23110669 190:0 191:0 192:0 193:0.10861121 194:0.10646057 195:0 196:0 197:0 198:0 199:0 200:0.11781106 201:0.11781106 202:0 203:0 204:0 205:0.31904581 206:0.31904581 207:0.16476849 208:0.26435536 209:0.40414575 210:0.3007858 211:0 212:0.06160712 213:0.06160712 214:0 215:0 216:0 217:0.28129424 218:0.28129424 219:0.26075592 220:0.36330606 221:0.70899901 222:0.79866954 223:0.45106797 224:0.025341081 225:0.025341081 226:0 227:0 228:0 229:0 230:0 231:0.1912931 232:0.29210606 233:0.35487953 234:1 235:0.73903171 236:0.0034169876 237:0.0034169876 238:0 239:0 240:0 241:0 242:0 243:0 244:0 245:0 246:0.28963574 247:0.28963574 248:0 249:0 250:0 251:0 252:0 253:0 254:0 255:0 256:0 257:0 258:0 259:0 260:0 261:0 262:0 263:0 264:0 265:0 266:0 267:0 268:0 269:0 270:0 271:0 272:0 273:0 274:0 275:0 276:0 277:0 278:0 279:0 280:0 281:0 282:0 283:0 284:0 285:0 286:0 287:0 288:0 289:0 290:0 291:0 292:0 293:0 294:0 295:0 296:0 297:0 298:0 299:0 300:0 301:0 302:0 303:0 304:0 305:0 306:0 307:0 308:0 309:0 310:0 311:0 312:0 313:0 314:0 315:0 316:0 317:0 318:0 319:0 320:0 321:0 322:0 323:0 324:0 325:0 326:0 327:0 328:0 329:0 330:0 331:0 332:0 333:0 334:0 335:0 336:0 337:0.1599931 338:0.58590241 339:0.50027998 340:0 341:0 342:0 343:0 344:0 345:0 346:0 347:0 348:0 349:0.37378289 350:0.79570125 351:0.57928255 352:0.23312241 353:0.57051196 354:0.35034625 355:0 356:0 357:0 358:0 359:0 360:0 361:0.21323474 362:0.29223731 363:0.7880882 364:1 365:0.76918327 366:0.64914922 367:0.34686025 368:0 369:0 370:0 371:0 372:0 373:0 374:0 375:0.7621899 376:0.90514216 377:0.65908014 378:0.62272495 379:0.49485329 380:0.076087182 381:0 382:0 383:0 384:0 385:0 386:0 387:0 388:0 389:0 390:0.15255575 391:0.15486134 392:0.076087182 393:0 394:0 395:0 396:0 397:0 398:0 399:0 400:0 401:0 402:0 403:0 404:0 405:0 406:0 407:0 408:0 409:0 410:0 411:0 412:0 413:0 414:0 415:0 416:0 417:0 418:0 419:0 420:0 421:0 422:0 423:0 424:0 425:0 426:0 427:0 428:0 429:0 430:0 431:0 432:0 433:0 434:0 435:0 436:0 437:0 438:0 439:0 440:0 441:0 442:0 443:0 444:0 445:0 446:0 447:0 448:0 449:0 450:0 451:0 452:0 453:0 454:0 455:0 456:0 457:0 458:0 459:0 460:0 461:0 462:0 463:0 464:0 465:0 466:0 467:0 468:0 469:0 470:0 471:0 472:0 473:0 474:0 475:0 476:0 477:0 478:0 479:0 480:0 481:0.32647508 482:0.52293358 483:0.35490894 484:0 485:0 486:0 487:0.086478204 488:0.086478204 489:0 490:0 491:0 492:0 493:0.47670065 494:0.67455421 495:0.51611821 496:0.61983258 497:0.58418791 498:0.16557391 499:0.44680031 500:0.4654644 501:0.19482668 502:0 503:0 504:0 505:0.15193896 506:0.31314822 507:0.44183375 508:0.86539366 509:1 510:0.6308503 511:0.69911755 512:0.72647788 513:0.34557621 514:0 515:0 516:0 517:0 518:0 519:0.24508909 520:0.58180827 521:0.82216772 522:0.71684163 523:0.95889571 524:0.85118241 525:0.21562611 526:0 527:0 528:0 529:0 530:0 531:0 532:0 533:0 534:0.32372753 535:0.42849451 536:0.40225728 537:0.14290136 538:0 539:0 540:0 541:0 542:0 543:0 544:0 545:0 546:0 547:0.10923313 548:0.15734166 549:0.15575047 550:0 551:0 552:0 553:0 554:0 555:0 556:0 557:0 558:0 559:0.12726038 560:0.1385536 561:0.13581006 562:0 563:0 564:0 565:0 566:0 567:0 568:0 569:0 570:0 571:0.081839224 572:0.11170106 573:0.10948923 574:0 575:0 576:0 577:0 578:0 579:0 580:0 581:0 582:0 583:0.25219179 584:0.24968244 585:0 586:0 587:0 588:0 589:0 590:0 591:0 592:0 593:0 594:0 595:0.24968244 596:0.24968244 597:0 598:0 599:0 600:0 601:0 602:0 603:0 604:0 605:0 606:0 607:0 608:0 609:0 610:0 611:0 612:0 613:0.25093398 614:0.24596515 615:0 616:0 617:0 618:0 619:0 620:0 621:0 622:0 623:0 624:0 625:0.25093398 626:0.50061642 627:0.24968244 628:0 629:0 630:0 631:0.24968244 632:0.24968244 633:0 634:0 635:0 636:0 637:0.24596515 638:0.4956476 639:0.74417744 640:0.99874846 641:0.74783311 642:0.24596515 643:0.24968244 644:0.25219179 645:0.24719806 646:0 647:0 648:0 649:0 650:0 651:0.4968805 652:0.98888479 653:1 654:0.49689913 655:0.50312577 656:0.74284566 657:0.24230321 658:0 659:0 660:0 661:0 662:0 663:0 664:0.49316321 665:0.73423352 666:0.24596515 667:0.50061642 668:0.4956476 669:0 670:0 671:0 672:0 673:0 674:0 675:0 676:0 677:0 678:0 679:0 680:0 681:0 682:0 683:0 684:0 685:0 686:0 687:0 688:0 689:0 690:0 691:0 692:0 693:0 694:0 695:0 696:0 697:0 698:0 699:0 700:0 701:0 702:0 703:0 704:0 705:0 706:0 707:0 708:0 709:0 710:0 711:0 712:0 713:0 714:0 715:0.25093398 716:0.25093398 717:0.24596515 718:0 719:0 
32 0 0 0:0 1:0 2:0 3:0 4:0 5:0 6:0 7:0 8:0 9:0 10:0 11:0 12:0 13:0 14:0 15:0 16:0 17:0 18:0 19:0 20:0 21:0.31644817 22:0.31575991 23:0.18955035 24:0 25:0 26:0 27:0 28:0 29:0 30:0 31:0.0074547769 32:0.078329578 33:0.38209038 34:0.31733571 35:0.27698223 36:0 37:0 38:0 39:0 40:0 41:0 42:0 43:0.032136456 44:0.17396606 45:0.19341378 46:0.12150168 47:0.085700606 48:0 49:0 50:0 51:0 52:0 53:0 54:0.19134561 55:0.21541475 56:0.33985731 57:0.15779441 58:0 59:0 60:0 61:0 62:0 63:0 64:0 65:0.30187617 66:0.48385439 67:0.2049713 68:0.18142803 69:0 70:0 71:0 72:0 73:0 74:0 75:0 76:0.15566238 77:0.50295333 78:0.37110591 79:0.019754375 80:0 81:0 82:0 83:0 84:0 85:0 86:0.44404444 87:0.49451233 88:0.40200705 89:0.38182425 90:0.19856042 91:0 92:0 93:0 94:0 95:0 96:0 97:0 98:0.95620633 99:1 100:0.76833362 101:0.10447712 102:0 103:0 104:0 105:0 106:0 107:0 108:0 109:0 110:0.50829293 111:0.75483888 112:0.4403455 113:0 114:0 115:0 116:0 117:0 118:0 119:0 120:0 121:0 122:0.096650365 123:0.096650365 124:0 125:0 126:0 127:0 128:0 129:0 130:0 131:0 132:0 133:0 134:0 135:0 136:0 137:0 138:0 139:0 140:0 141:0 142:0 143:0 144:0 145:0 146:0 147:0 148:0 149:0 150:0 151:0 152:0 153:0 154:0 155:0 156:0 157:0 158:0 159:0 160:0 161:0 162:0 163:0 164:0 165:0.22869673 166:0.22869673 167:0.22416823 168:0 169:0 170:0 171:0 172:0 173:0 174:0 175:0 176:0 177:0.22416823 178:0.22869673 179:0.22416823 180:0 181:0 182:0 183:0 184:0 185:0 186:0 187:0 188:0 189:0 190:0 191:0 192:0 193:0 194:0 195:0 196:0 197:0 198:0 199:0 200:0 201:0 202:0 203:0 204:0 205:0 206:0 207:0 208:0 209:0.41254709 210:0.40437811 211:0 212:0 213:0 214:0 215:0 216:0 217:0 218:0 219:0 220:0 221:0.41048951 222:0.41048951 223:0 224:0 225:0 226:0 227:0 228:0 229:0 230:0.46553663 231:0.46553663 232:0.22872959 233:0.20168358 234:0.20168358 235:0 236:0 237:0 238:0 239:0 240:0 241:0 242:0.99571316 243:1 244:0.72005417 245:0 246:0 247:0 248:0 249:0 250:0 251:0 252:0 253:0 254:0.52420748 255:0.76200596 256:0.48677273 257:0 258:0 259:0 260:0 261:0 262:0 263:0 264:0 265:0 266:0 267:0 268:0 269:0 270:0 271:0 272:0 273:0 274:0 275:0 276:0 277:0 278:0 279:0 280:0 281:0 282:0 283:0 284:0 285:0 286:0 287:0 288:0 289:0 290:0 291:0 292:0 293:0 294:0 295:0 296:0 297:0 298:0 299:0 300:0 301:0 302:0 303:0 304:0 305:0 306:0 307:0 308:0 309:0.033551454 310:0.03288709 311:0 312:0 313:0 314:0 315:0 316:0 317:0 318:0 319:0 320:0.10745164 321:0.17363055 322:0.11819506 323:0 324:0 325:0 326:0 327:0 328:0 329:0 330:0 331:0.031355058 332:0.1667863 333:0.23359122 334:0.1175307 335:0 336:0 337:0 338:0 339:0 340:0 341:0 342:0.065985424 343:0.096339162 344:0.096551778 345:0.072950621 346:0 347:0 348:0 349:0 350:0 351:0 352:0 353:0.010501559 354:0.075814806 355:0.066219871 356:0.046075759 357:0 358:0 359:0 360:0 361:0 362:0 363:0.093415767 364:0.24691973 365:0.20403468 366:0.13011372 367:0.041928345 368:0.022638153 369:0 370:0 371:0 372:0 373:0 374:0 375:0.22606878 376:0.3775865 377:0.38975239 378:0.11107291 379:0 380:0 381:0 382:0 383:0 384:0 385:0 386:0.36723958 387:0.80744683 388:1 389:0.63956022 390:0 391:0 392:0 393:0 394:0 395:0 396:0 397:0 398:0.36360366 399:0.66681814 400:0.72271873 401:0.366737 402:0 403:0 404:0 405:0 406:0 407:0 408:0 409:0 410:0.17998387 411:0.17998387 412:0 413:0 414:0 415:0 416:0 417:0 418:0 419:0 420:0 421:0 422:0 423:0 424:0 425:0 426:0 427:0 428:0 429:0 430:0 431:0 432:0 433:0 434:0 435:0 436:0 437:0 438:0 439:0 440:0 441:0 442:0 443:0 444:0 445:0 446:0 447:0 448:0 449:0 450:0 451:0 452:0 453:0.3302406 454:0.32762377 455:0.081076776 456:0 457:0 458:0 459:0 460:0 461:0 462:0 463:0.13207054 464:0.51184273 465:0.81857417 466:0.55829043 467:0.1953003 468:0 469:0 470:0 471:0 472:0 473:0 474:0 475:0.39828671 476:0.88781828 477:1 478:0.47065149 479:0.11196175 480:0 481:0 482:0 483:0 484:0 485:0 486:0.38689684 487:0.64776029 488:0.76565455 489:0.50522442 490:0 491:0 492:0 493:0 494:0 495:0 496:0 497:0.13622675 498:0.51795215 499:0.51825857 500:0.3764446 501:0 502:0 503:0 504:0 505:0 506:0 507:0.073043093 508:0.48050301 509:0.64724785 510:0.51213061 511:0.25800306 512:0.12142216 513:0 514:0 515:0 516:0 517:0 518:0.041778682 519:0.36233505 520:0.72005699 521:0.83693639 522:0.37530514 523:0 524:0 525:0 526:0 527:0 528:0 529:0 530:0.35010434 531:0.70121782 532:0.74653412 533:0.37797979 534:0 535:0 536:0 537:0 538:0 539:0 540:0 541:0 542:0.30374487 543:0.53669855 544:0.42016224 545:0.059089616 546:0 547:0 548:0 549:0 550:0 551:0 552:0 553:0 554:0.075134192 555:0.075134192 556:0 557:0 558:0 559:0 560:0 561:0 562:0 563:0 564:0 565:0 566:0 567:0 568:0 569:0 570:0 571:0 572:0 573:0 574:0 575:0 576:0 577:0 578:0 579:0 580:0 581:0 582:0 583:0 584:0 585:0 586:0 587:0 588:0 589:0 590:0 591:0 592:0 593:0 594:0 595:0 596:0 597:0.33388843 598:0.33388843 599:0.32727699 600:0 601:0 602:0 603:0 604:0 605:0 606:0 607:0 608:0.33388843 609:0.65455398 610:0.33388843 611:0.32727699 612:0 613:0 614:0 615:0 616:0 617:0 618:0 619:0 620:0.33388843 621:0.33388843 622:0 623:0 624:0 625:0 626:0 627:0 628:0 629:0 630:0.33388843 631:0.33388843 632:0.65455398 633:0.32727699 634:0 635:0 636:0 637:0 638:0 639:0 640:0 641:0.33556205 642:0.65619447 643:0.33388843 644:0.32727699 645:0 646:0 647:0 648:0 649:0 650:0 651:0 652:0 653:0.33222315 654:0.33222315 655:0 656:0 657:0 658:0 659:0 660:0 661:0 662:0 663:0.66777685 664:0.66116542 665:0.32727699 666:0 667:0 668:0 669:0 670:0 671:0 672:0 673:0 674:0 675:0.66116542 676:1 677:0.65950014 678:0 679:0 680:0 681:0 682:0 683:0 684:0 685:0 686:0 687:0.32727699 688:0.65950014 689:0.33222315 690:0 691:0 692:0 693:0 694:0 695:0 696:0 697:0 698:0 699:0 700:0 701:0 702:0 703:0 704:0 705:0 706:0 707:0 708:0 709:0 710:0 711:0 712:0 713:0 714:0 715:0 716:0 717:0 718:0 719:0 
32 5.75389411136012 4.129769568691187 0:0 1:0 2:0 3:0 4:0 5:0 6:0 7:0 8:0 9:0 10:0 11:0 12:0 13:0 14:0 15:0.32491447 16:0.31848074 17:0 18:0 19:0 20:0 21:0 22:0 23:0 24:0 25:0 26:0 27:0.65422198 28:0.64126751 29:0 30:0 31:0 32:0 33:0 34:0 35:0 36:0 37:0 38:0.30850007 39:0.96760554 40:0.78198932 41:0.0027727972 42:0.0027178921 43:0 44:0 45:0 46:0 47:0 48:0 49:0 50:0.67164518 51:0.99826237 52:0.97513869 53:0.067932288 54:0.24739654 55:0.17890227 56:0 57:0 58:0 59:0 60:0 61:0 62:0.71375345 63:0.88387439 64:0.8695316 65:0.067229036 66:0.32764016 67:0.26622986 68:0.23546458 69:0.1832396 70:0.40085349 71:0.28017597 72:0 73:0 74:0.67478256 75:0.71036231 76:0.6962962 77:0 78:0.083238247 79:0.22864886 80:0.23380809 81:0.1805841 82:0.40008756 83:0.38145501 84:0 85:0 86:0.32304272 87:0.64908756 88:0.63915267 89:0 90:0 91:0 92:0 93:0 94:0.18838143 95:0.18741822 96:0 97:0 98:0 99:0.60708341 100:0.59831187 101:0 102:0 103:0 104:0 105:0 106:0 107:0 108:0 109:0 110:0 111:0.61729403 112:0.61035397 113:0 114:0 115:0 116:0 117:0 118:0 119:0 120:0 121:0 122:0 123:0.62054273 124:0.61884795 125:0.15374043 126:0 127:0 128:0 129:0 130:0 131:0 132:0 133:0 134:0 135:0.46527679 136:0.77804821 137:0.6150024 138:0 139:0 140:0 141:0 142:0 143:0 144:0 145:0 146:0 147:0 148:0 149:0 150:0 151:0 152:0 153:0 154:0 155:0 156:0 157:0 158:0 159:0 160:0 161:0 162:0 163:0 164:0 165:0 166:0 167:0 168:0 169:0 170:0 171:0 172:0 173:0 174:0 175:0 176:0 177:0 178:0 179:0 180:0 181:0 182:0.0087302505 183:0.0087302505 184:0.099334364 185:0.29278822 186:0.18962321 187:0 188:0 189:0 190:0 191:0 192:0 193:0 194:0.039973941 195:0.039973941 196:0.18230183 197:0.57017923 198:0.89418356 199:0.50644102 200:0 201:0 202:0 203:0 204:0 205:0 206:0.087955764 207:0.087955764 208:0.081324604 209:0.56342565 210:0.93906334 211:0.62289109 212:0.2388383 213:0.64864243 214:0.53382159 215:0.17560025 216:0 217:0 218:0.14280564 219:0.14280564 220:0.11889691 221:0 222:0.19239378 223:0.43339849 224:0.2362325 225:0.63932691 226:0.64643881 227:0.35202072 228:0 229:0 230:0.085538853 231:0.17529956 232:0.16293017 233:0 234:0 235:0 236:0 237:0 238:0.17642047 239:0.17292711 240:0 241:0 242:0 243:0.17300411 244:0.17213084 245:0 246:0 247:0 248:0 249:0 250:0 251:0 252:0 253:0 254:0 255:0.16129386 256:0.16129386 257:0 258:0 259:0 260:0 261:0 262:0 263:0 264:0 265:0 266:0 267:0.15022271 268:0.15252371 269:0.036525476 270:0 271:0 272:0 273:0 274:0 275:0 276:0 277:0 278:0 279:0.11116134 280:0.18711146 281:0.14741975 282:0 283:0 284:0 285:0 286:0 287:0 288:0 289:0 290:0 291:0 292:0 293:0 294:0 295:0 296:0 297:0 298:0 299:0 300:0 301:0 302:0 303:0 304:0 305:0 306:0 307:0 308:0 309:0 310:0 311:0 312:0 313:0 314:0 315:0 316:0 317:0 318:0 319:0 320:0 321:0 322:0 323:0 324:0 325:0 326:0 327:0 328:0.3890745 329:0.44979243 330:0.063498624 331:0 332:0 333:0 334:0 335:0 336:0 337:0 338:0 339:0 340:0.5186083 341:1 342:0.95622843 343:0.36952497 344:0 345:0 346:0 347:0 348:0 349:0 350:0 351:0.27067431 352:0.47072669 353:0.94241217 354:0.95135231 355:0.57320784 356:0.9256052 357:0.75024594 358:0.35156673 359:0.11083708 360:0 361:0 362:0 363:0.2653146 364:0.26957919 365:0.15743356 366:1.0930698e-05 367:0.41417149 368:0.91856659 369:0.84571167 370:0.54575025 371:0.22446878 372:0 373:0 374:0 375:0 376:0 377:0 378:0 379:0.20349264 380:0.56491823 381:0.35737597 382:0.22222972 383:0.220024 384:0 385:0 386:0 387:0 388:0 389:0 390:0 391:0 392:0 393:0 394:0 395:0 396:0 397:0 398:0 399:0 400:0 401:0 402:0 403:0 404:0 405:0 406:0 407:0 408:0 409:0 410:0 411:0 412:0 413:0 414:0 415:0 416:0 417:0 418:0 419:0 420:0 421:0 422:0 423:0 424:0 425:0 426:0 427:0 428:0 429:0 430:0 431:0 432:0 433:0 434:0 435:0 436:0 437:0 438:0 439:0 440:0 441:0 442:0 443:0 444:0 445:0 446:0 447:0.16874943 448:0.16540796 449:0 450:0 451:0 452:0 453:0 454:0 455:0 456:0 457:0 458:0 459:0.40239248 460:0.39442458 461:0 462:0 463:0 464:0 465:0 466:0 467:0 468:0 469:0 470:0.33667149 471:0.68092922 472:0.53175531 473:0.32065216 474:0.23235856 475:0 476:0 477:0 478:0 479:0 480:0 481:0 482:0.4372626 483:0.61637444 484:0.65096726 485:0.68418024 486:0.71446335 487:0.19736548 488:0 489:0 490:0 491:0 492:0 493:0 494:0.22660421 495:0.72155102 496:0.93505961 497:0.79337605 498:0.70894379 499:0.19736548 500:0.94286939 501:1 502:0.40493512 503:0.24214938 504:0 505:0 506:0.18510321 507:0.67024941 508:0.72583418 509:0.24196667 510:0 511:0.087295085 512:0.93269544 513:0.98996077 514:0.57248224 515:0.40248489 516:0 517:0 518:0.06098321 519:0.12350404 520:0.1210585 521:0 522:0 523:0.0051926648 524:0.42148253 525:0.41468237 526:0.31186619 527:0.30877079 528:0 529:0 530:0 531:0 532:0 533:0 534:0 535:0 536:0 537:0 538:0 539:0 540:0 541:0 542:0 543:0 544:0 545:0 546:0 547:0 548:0 549:0 550:0 551:0 552:0 553:0 554:0 555:0 556:0 557:0 558:0 559:0 560:0 561:0 562:0 563:0 564:0 565:0 566:0 567:0 568:0 569:0 570:0 571:0 572:0 573:0 574:0 575:0 576:0 577:0 578:0 579:0 580:0 581:0 582:0 583:0 584:0 585:0 586:0 587:0 588:0 589:0 590:0 591:0 592:0 593:0 594:0 595:0 596:0 597:0 598:0 599:0 600:0 601:0 602:0 603:0 604:0 605:0 606:0 607:0 608:0 609:0 610:0 611:0 612:0 613:0 614:0 615:0 616:0.33779249 617:0.33110375 618:0 619:0 620:0 621:0 622:0 623:0 624:0 625:0 626:0 627:0 628:0.33779249 629:0.33779249 630:0 631:0 632:0 633:0 634:0 635:0 636:0 637:0 638:0.33779249 639:0.67558499 640:1 641:0.66220751 642:0.33779249 643:0.67558499 644:0.33110375 645:0 646:0.33948568 647:0.33610775 648:0 649:0 650:0.33110375 651:0.66220751 652:0.66889625 653:0.33110375 654:0.33110375 655:0.67558499 656:0.66889625 657:0 658:0.33610775 659:0.33610775 660:0 661:0 662:0 663:0 664:0 665:0 666:0 667:0.33110375 668:0.33110375 669:0 670:0 671:0 672:0 673:0 674:0 675:0 676:0 677:0 678:0 679:0 680:0 681:0 682:0 683:0 684:0 685:0 686:0 687:0 688:0 689:0 690:0 691:0 692:0 693:0 694:0 695:0 696:0 697:0 698:0 699:0 700:0 701:0 702:0 703:0 704:0 705:0 706:0 707:0 708:0 709:0 710:0 711:0 712:0.33948568 713:0.33610775 714:0 715:0 716:0 717:0 718:0 719:0 
32 0.08876724775166951 0.2516345514156292 0:0 1:0 2:0 3:0 4:0 5:0 6:0 7:0.19818672 8:0.34084112 9:0.19426236 10:0 11:0 12:0 13:0 14:0 15:0 16:0 17:0 18:0 19:0.19426236 20:0.64988795 21:0.48058438 22:0 23:0 24:0 25:0 26:0 27:0 28:0 29:0 30:0 31:0 32:0.70195271 33:0.69581236 34:0.18010436 35:0 36:0 37:0 38:0 39:0 40:0 41:0 42:0 43:0 44:0.80548413 45:0.80548413 46:0.59115963 47:0 48:0 49:0 50:0 51:0 52:0 53:0 54:0.27521222 55:0.35296195 56:0.86411171 57:0.81101177 58:0.79495266 59:0 60:0 61:0.030158926 62:0.030158926 63:0 64:0 65:0 66:0.5700013 67:0.81035893 68:0.96783984 69:0.9143939 70:0.56674519 71:0 72:0 73:0.21432295 74:0.43248364 75:0.24819518 76:0.30277802 77:0.47861721 78:0.62127446 79:0.7727033 80:0.89137424 81:0.86152759 82:0.17922717 83:0 84:0 85:0.18247104 86:0.3984586 87:0.29085198 88:0.51980297 89:0.60245716 90:0.59908597 91:0.38863384 92:0.69630386 93:0.68760044 94:0 95:0 96:0 97:0.096711853 98:0.096711853 99:0.12248938 100:0.26925868 101:0.35497948 102:0.33031803 103:0.37162685 104:0.7275166 105:0.70658035 106:0 107:0 108:0 109:0 110:0 111:0 112:0 113:0 114:0 115:0.75241288 116:0.75241288 117:0.72795357 118:0 119:0 120:0 121:0 122:0 123:0 124:0 125:0 126:0 127:0.77301284 128:0.77301284 129:0.75139531 130:0 131:0 132:0 133:0 134:0 135:0 136:0 137:0 138:0 139:0.38838375 140:0.58794512 141:0.57630303 142:0 143:0 144:0 145:0 146:0 147:0 148:0 149:0 150:0 151:0.086083107 152:0.17216621 153:0.084378548 154:0 155:0 156:0 157:0 158:0 159:0 160:0 161:0 162:0 163:0.084378548 164:0.31366703 165:0.24240949 166:0 167:0 168:0 169:0 170:0 171:0 172:0 173:0 174:0 175:0 176:0.22686083 177:0.27337268 178:0.045590852 179:0 180:0 181:0 182:0 183:0 184:0 185:0 186:0 187:0 188:0.084169654 189:0.15030482 190:0.079559837 191:0 192:0 193:0 194:0 195:0 196:0 197:0 198:0 199:0 200:0.0083894026 201:0.038321723 202:0.037562902 203:0 204:0 205:0 206:0 207:0 208:0 209:0 210:0 211:0.13000299 212:0.12870944 213:0.00418411 214:0.004101259 215:0 216:0.15291702 217:0.30660054 218:0.44625331 219:0.64911966 220:0.35060253 221:0.13367739 222:0.1310304 223:0.12870944 224:0.12870944 225:0 226:0 227:0 228:0.15291702 229:0.30813739 230:0.44417839 231:0.79444714 232:1 233:0.67830901 234:0.26668806 235:0 236:0 237:0 238:0 239:0 240:0 241:0.30203586 242:0.29903803 243:0.47862624 244:0.88650618 245:0.67160708 246:0.26404107 247:0 248:0 249:0 250:0 251:0 252:0 253:0 254:0 255:0 256:0 257:0 258:0 259:0 260:0 261:0 262:0 263:0 264:0 265:0 266:0 267:0 268:0 269:0 270:0 271:0 272:0 273:0 274:0 275:0 276:0 277:0 278:0 279:0 280:0 281:0 282:0 283:0 284:0 285:0 286:0 287:0 288:0 289:0 290:0 291:0 292:0 293:0 294:0 295:0 296:0 297:0 298:0 299:0 300:0 301:0 302:0 303:0 304:0 305:0 306:0 307:0 308:0 309:0 310:0 311:0 312:0 313:0 314:0 315:0 316:0 317:0 318:0 319:0 320:0 321:0 322:0 323:0 324:0 325:0 326:0 327:0 328:0 329:0 330:0 331:0 332:0 333:0 334:0 335:0 336:0 337:0 338:0 339:0 340:0 341:0 342:0 343:0.072756166 344:0.072756166 345:0 346:0 347:0 348:0 349:0.070413478 350:0.13080483 351:0.059195525 352:0 353:0 354:0 355:0.39520101 356:0.39272384 357:0.07203223 358:0 359:0 360:0.11575816 361:0.30251005 362:0.37316533 363:0.34527654 364:0.16472686 365:0.0095327328 366:0 367:0.31923646 368:0.39126869 369:0.070605897 370:0 371:0 372:0.11575816 373:0.23325996 374:0.35985313 375:0.75876803 376:0.99794497 377:0.68029746 378:0.31139977 379:0 380:0 381:0 382:0 383:0 384:0 385:0.2286411 386:0.22637174 387:0.62591979 388:0.99210917 389:0.67973852 390:0.31139977 391:0 392:0 393:0 394:0 395:0 396:0 397:0 398:0 399:0 400:0 401:0 402:0 403:0 404:0 405:0 406:0 407:0 408:0 409:0 410:0 411:0 412:0 413:0 414:0 415:0 416:0 417:0 418:0 419:0 420:0 421:0 422:0 423:0 424:0 425:0 426:0 427:0 428:0 429:0 430:0 431:0 432:0 433:0 434:0 435:0 436:0 437:0 438:0 439:0 440:0 441:0 442:0 443:0 444:0 445:0 446:0 447:0 448:0 449:0 450:0 451:0 452:0 453:0 454:0 455:0 456:0 457:0 458:0 459:0 460:0 461:0 462:0 463:0 464:0 465:0 466:0 467:0 468:0 469:0 470:0 471:0 472:0 473:0 474:0 475:0 476:0.024989983 477:0.024989983 478:0 479:0 480:0 481:0 482:0 483:0 484:0 485:0 486:0.16425964 487:0.31929421 488:0.23888792 489:0.082223003 490:0.04935926 491:0 492:0 493:0.17632258 494:0.34003856 495:0.16047418 496:0 497:0 498:0.36827413 499:0.80731803 500:0.57309334 501:0.39326017 502:0.080667545 503:0 504:0 505:0.6717404 506:0.82900603 507:0.52199214 508:0.68388525 509:0.67397823 510:0.67520923 511:0.64814666 512:0.63554624 513:0.4198362 514:0.031168549 515:0 516:0 517:0.48868181 518:0.82876349 519:0.80346802 520:1 521:0.99400767 522:0.72129074 523:0.41456354 524:0.15824824 525:0.15824824 526:0 527:0 528:0 529:0.15216425 530:0.15216425 531:0.30198914 532:0.85313566 533:0.84728462 534:0.4747092 535:0.17157035 536:0.13984368 537:0.13925177 538:0 539:0 540:0 541:0 542:0 543:0 544:0 545:0 546:0 547:0.10028838 548:0.11024291 549:0.10867788 550:0 551:0 552:0 553:0 554:0 555:0 556:0 557:0 558:0 559:0.076285492 560:0.086090465 561:0.08438576 562:0 563:0 564:0 565:0 566:0 567:0 568:0 569:0 570:0 571:0.029871995 572:0.052191716 573:0.051158251 574:0 575:0 576:0 577:0 578:0 579:0 580:0 581:0 582:0 583:0.33498467 584:0.33498467 585:0.32835153 586:0 587:0 588:0 589:0 590:0 591:0 592:0 593:0 594:0 595:0.32835153 596:0.33498467 597:0.32835153 598:0 599:0 600:0 601:0 602:0 603:0 604:0 605:0 606:0 607:0 608:0 609:0 610:0 611:0 612:0 613:0 614:0 615:0 616:0 617:0 618:0 619:0 620:0 621:0 622:0 623:0 624:0 625:0 626:0 627:0 628:0 629:0 630:0 631:0.33331393 632:0.33331393 633:0 634:0 635:0 636:0 637:0 638:0.33498467 639:0.32835153 640:0 641:0 642:0 643:0.66997772 644:0.66997772 645:0.3299974 646:0 647:0 648:0.33331393 649:0.33331393 650:0.66996935 651:0.99665014 652:0.66829861 653:0.66333621 654:0.66501533 655:0.66662786 656:0.66331133 657:0.32346302 658:0 659:0 660:0.33331393 661:0.33666379 662:0.65834894 663:0.66333621 664:1 665:0.99996675 666:0.66829861 667:0.33331393 668:0 669:0 670:0 671:0 672:0 673:0.3299974 674:0.32346302 675:0 676:0.65834894 677:0.98016608 678:0.32835153 679:0 680:0 681:0 682:0 683:0 684:0 685:0 686:0 687:0 688:0 689:0 690:0 691:0 692:0 693:0 694:0 695:0 696:0 697:0 698:0 699:0 700:0 701:0 702:0 703:0.33331393 704:0.33331393 705:0 706:0 707:0 708:0 709:0 710:0 711:0 712:0 713:0 714:0 715:0.33331393 716:0.33666379 717:0.3299974 718:0 719:0 
32 0 0 0:0 1:0 2:0 3:0 4:0 5:0 6:0 7:0 8:0 9:0 10:0 11:0 12:0 13:0 14:0 15:0 16:0 17:0 18:0 19:0 20:0 21:0 22:0 23:0 24:0 25:0 26:0 27:0 28:0 29:0 30:0 31:0 32:0 33:0 34:0 35:0 36:0 37:0 38:0 39:0 40:0 41:0.2562619 42:0.2562619 43:0.25118757 44:0 45:0 46:0 47:0 48:0 49:0 50:0 51:0 52:0.53433164 53:0.77493874 54:0.2562619 55:0.25118757 56:0 57:0 58:0 59:0 60:0 61:0 62:0 63:0 64:1 65:0.98608531 66:0.2458845 67:0 68:0 69:0 70:0 71:0 72:0 73:0 74:0 75:0 76:0.46230224 77:0.84454338 78:0.40101084 79:0.10699346 80:0 81:0 82:0 83:0 84:0 85:0 86:0 87:0 88:0 89:0.6282517 90:0.67825267 91:0.62065347 92:0 93:0 94:0 95:0 96:0 97:0 98:0 99:0 100:0 101:0.57945982 102:0.59041852 103:0.57872745 104:0 105:0 106:0 107:0 108:0 109:0 110:0 111:0 112:0 113:0.35074162 114:0.35485488 115:0.34782829 116:0 117:0 118:0 119:0 120:0 121:0 122:0 123:0 124:0 125:0.012413525 126:0.47660652 127:0.49389879 128:0.21741152 129:0 130:0 131:0 132:0 133:0 134:0 135:0 136:0 137:0 138:0.45980099 139:0.46662905 140:0.45738918 141:0 142:0 143:0 144:0 145:0 146:0 147:0 148:0 149:0 150:0 151:0 152:0 153:0 154:0 155:0 156:0 157:0 158:0 159:0 160:0 161:0 162:0 163:0 164:0 165:0 166:0 167:0 168:0 169:0 170:0 171:0 172:0 173:0 174:0.094874183 175:0.20091645 176:0.10598185 177:0 178:0 179:0 180:0 181:0 182:0 183:0 184:0 185:0 186:0.094874183 187:0.2752671 188:0.2795656 189:0.26948623 190:0.29736842 191:0.17362745 192:0 193:0 194:0 195:0 196:0.14016436 197:0.13738892 198:0.046363684 199:0.16008393 200:0.2734056 201:0.26837608 202:0.29622083 203:0.23965491 204:0 205:0 206:0 207:0 208:0.58748039 209:0.71817901 210:0.15150166 211:0 212:0 213:0 214:0.14957046 215:0.23490943 216:0 217:0 218:0 219:0 220:0.44146614 221:0.95809745 222:0.7219161 223:0.12901597 224:0 225:0 226:0 227:0 228:0 229:0 230:0 231:0 232:0 233:0.51904632 234:0.94600015 235:0.50551778 236:0 237:0 238:0 239:0 240:0 241:0 242:0 243:0 244:0 245:0.28718089 246:0.55065081 247:0.49856882 248:0 249:0 250:0 251:0 252:0 253:0 254:0 255:0 256:0 257:0.29752564 258:0.48551739 259:0.47959646 260:0 261:0 262:0 263:0 264:0 265:0 266:0 267:0 268:0 269:0.14618166 270:0.40078657 271:0.41160634 272:0.10123925 273:0.020739519 274:0 275:0 276:0 277:0 278:0 279:0 280:0 281:0 282:0.18916244 283:0.27043565 284:0.29047407 285:0.042001961 286:0 287:0 288:0 289:0 290:0 291:0 292:0 293:0 294:0 295:0 296:0 297:0 298:0 299:0 300:0 301:0 302:0 303:0 304:0 305:0 306:0 307:0 308:0 309:0 310:0 311:0 312:0 313:0 314:0 315:0.089592707 316:0.34513421 317:0.52920972 318:0.50927588 319:0.42588683 320:0.19067899 321:0 322:0 323:0 324:0 325:0.13881438 326:0.38148759 327:0.40591882 328:0.4190443 329:0.6623823 330:0.90946113 331:0.99969875 332:0.79279005 333:0.55721185 334:0.38721126 335:0.17543045 336:0.086960632 337:0.22505036 338:0.37823183 339:0.38474873 340:0.4058271 341:0.51862361 342:0.80676901 343:0.99037284 344:0.78704248 345:0.555351 346:0.42138826 347:0.27671555 348:0.085600114 349:0.15670179 350:0.26418464 351:0.14357065 352:0.061386422 353:0.078199548 354:0.017330217 355:0 356:0 357:0 358:0.19352032 359:0.27123621 360:0.017890784 361:0.017890784 362:0 363:0 364:0.017592129 365:0.079139464 366:0.078745632 367:0.021445452 368:0 369:0 370:0 371:0 372:0 373:0 374:0 375:0 376:0 377:0.064155457 378:0.12785213 379:0.070827991 380:0 381:0 382:0 383:0 384:0 385:0 386:0 387:0 388:0 389:0.02073812 390:0.078589476 391:0.078170538 392:0 393:0 394:0 395:0 396:0 397:0 398:0 399:0 400:0 401:0.081876473 402:0.19156255 403:0.18994128 404:0 405:0 406:0 407:0 408:0 409:0 410:0 411:0 412:0 413:0.080255211 414:0.2469502 415:0.40809825 416:0.36239245 417:0.11939206 418:0 419:0 420:0 421:0 422:0 423:0 424:0 425:0 426:0.086037497 427:0.32903788 428:0.45120378 429:0.24179446 430:0 431:0 432:0 433:0 434:0 435:0 436:0 437:0 438:0 439:0 440:0 441:0 442:0 443:0 444:0 445:0 446:0 447:0 448:0 449:0 450:0 451:0 452:0 453:0 454:0 455:0 456:0 457:0 458:0 459:0.12058969 460:0.25636185 461:0.14344704 462:0.014209415 463:0.0046813652 464:0 465:0 466:0 467:0 468:0 469:0.3144354 470:0.68001666 471:0.60636578 472:0.45477389 473:0.26036185 474:0.10487312 475:0.086059188 476:0.028222269 477:0 478:0 479:0 480:0.69468747 481:1 482:0.79181433 483:0.63476755 484:0.62702576 485:0.43172322 486:0.10376195 487:0.085871456 488:0.028222269 489:0 490:0 491:0 492:0.68539852 493:0.8555883 494:0.67078996 495:0.27531559 496:0.25143564 497:0.25319201 498:0.03850409 499:0 500:0 501:0 502:0 503:0 504:0.22111332 505:0.22111332 506:0 507:0 508:0.03850409 509:0.17616623 510:0.13766214 511:0 512:0 513:0 514:0 515:0 516:0 517:0 518:0 519:0 520:0 521:0.26916903 522:0.27055255 523:0.26519525 524:0 525:0 526:0 527:0 528:0 529:0 530:0 531:0 532:0 533:0.52015027 534:0.52015027 535:0.45472595 536:0 537:0 538:0 539:0 540:0 541:0 542:0 543:0 544:0 545:0.3873641 546:0.39320853 547:0.38542248 548:0 549:0 550:0 551:0 552:0 553:0 554:0 555:0 556:0 557:0 558:0.19319302 559:0.18936754 560:0 561:0 562:0 563:0 564:0 565:0 566:0 567:0 568:0 569:0 570:0.045406097 571:0.045862436 572:0.044954298 573:0 574:0 575:0 576:0 577:0 578:0 579:0 580:0 581:0 582:0 583:0 584:0 585:0 586:0 587:0 588:0 589:0 590:0 591:0 592:0 593:0 594:0 595:0 596:0 597:0 598:0 599:0 600:0 601:0 602:0 603:0 604:0 605:0 606:0 607:0 608:0 609:0 610:0 611:0 612:0 613:0 614:0 615:0 616:0 617:0.33555646 618:0.33555646 619:0.328912 620:0 621:0 622:0 623:0 624:0.33555646 625:0.328912 626:0 627:0 628:0.33723844 629:0.65947267 630:0.33555646 631:0.328912 632:0 633:0 634:0 635:0 636:0.33555646 637:0.33555646 638:0 639:0 640:0.33388287 641:0.33388287 642:0 643:0 644:0 645:0 646:0 647:0 648:0.328912 649:0.328912 650:0 651:0 652:0 653:0 654:0 655:0 656:0 657:0 658:0 659:0 660:0 661:0 662:0 663:0 664:0 665:0 666:0.33555646 667:0.328912 668:0 669:0 670:0 671:0 672:0 673:0 674:0 675:0 676:0 677:0.33555646 678:0.67111292 679:0.66446846 680:0 681:0 682:0 683:0 684:0 685:0 686:0 687:0 688:0 689:0.328912 690:0.99835132 691:0.99170686 692:0 693:0 694:0 695:0 696:0 697:0 698:0 699:0 700:0 701:0 702:0.66611713 703:0.66943932 704:0.33555646 705:0.328912 706:0 707:0 708:0 709:0 710:0 711:0 712:0 713:0 714:0.328912 715:0.33555646 716:0.66446846 717:0.33555646 718:0 719:0 
0 1.236870079187759 0 0:0 1:0 2:0 3:0 4:0 5:0 6:0 7:0.16644553 8:0.16314969 9:0 10:0 11:0 12:0 13:0 14:0 15:0 16:0 17:0 18:0 19:0.52336432 20:0.51300101 21:0 22:0 23:0 24:0 25:0.18131627 26:0.18131627 27:0.059553441 28:0 29:0 30:0 31:0.68530997 32:0.68530997 33:0 34:0 35:0 36:0 37:0.42200318 38:0.7253965 39:0.45095263 40:0.15023912 41:0 42:0 43:0.58884879 44:0.6151639 45:0.2682352 46:0 47:0 48:0.29485857 49:0.72487426 50:0.77883569 51:0.59531251 52:0.35243137 53:0.0029567068 54:0 55:0.29078397 56:0.61677171 57:0.57494665 58:0 59:0 60:0.29193197 61:0.6040937 62:0.59822584 63:0.20322656 64:0.30702843 65:0.17519973 66:0.069449074 67:0 68:0.68435756 69:0.67080638 70:0 71:0 72:0 73:0.22367764 74:0.22079462 75:0 76:0.10569092 77:0.17310572 78:0.17958658 79:0.30671686 80:0.95310121 81:0.82700948 82:0 83:0 84:0 85:0 86:0 87:0 88:0 89:0 90:0.11013751 91:0.30064346 92:1 93:0.89313151 94:0 95:0 96:0 97:0 98:0 99:0 100:0 101:0 102:0 103:0 104:0.77946273 105:0.77946273 106:0 107:0 108:0 109:0 110:0 111:0 112:0 113:0 114:0 115:0.14546511 116:0.77434315 117:0.68461281 118:0 119:0 120:0 121:0 122:0 123:0 124:0 125:0 126:0 127:0.44142797 128:0.74548605 129:0.73968186 130:0 131:0 132:0 133:0 134:0 135:0 136:0 137:0 138:0 139:0.58703834 140:0.8773656 141:0.71592876 142:0 143:0 144:0 145:0 146:0 147:0 148:0 149:0 150:0 151:0.042222598 152:0.041386535 153:0 154:0 155:0 156:0 157:0 158:0 159:0 160:0 161:0 162:0 163:0.12557251 164:0.12308601 165:0 166:0 167:0 168:0 169:0 170:0 171:0 172:0 173:0 174:0 175:0.25251945 176:0.24938455 177:0 178:0 179:0 180:0 181:0 182:0.20150241 183:0.20150241 184:0.053325332 185:0 186:0 187:0.32725998 188:0.32578861 189:0.18606352 190:0 191:0 192:0.11863676 193:0.11863676 194:0.39598063 195:0.81338236 196:0.61370471 197:0.1895219 198:0 199:0.15687662 200:0.30805701 201:0.30305401 202:0 203:0 204:0.11745924 205:0.11923143 206:0.19168321 207:0.60462933 208:0.94516576 209:0.54267827 210:0.34583593 211:0.063844461 212:0.2101914 213:0.20893521 214:0 215:0 216:0 217:0.058581334 218:0.057421345 219:0 220:0.37999378 221:0.59515991 222:0.57892076 223:0.70992884 224:0.64676862 225:0.33666839 226:0 227:0 228:0 229:0 230:0 231:0 232:0 233:0.086255306 234:0.26800499 235:0.69768352 236:0.67221619 237:0.36028553 238:0 239:0 240:0 241:0 242:0 243:0 244:0 245:0 246:0 247:0 248:0.11449336 249:0.11269918 250:0 251:0 252:0 253:0 254:0 255:0 256:0 257:0 258:0 259:0 260:0 261:0 262:0 263:0 264:0 265:0 266:0 267:0 268:0 269:0 270:0 271:0 272:0 273:0 274:0 275:0 276:0 277:0 278:0 279:0 280:0 281:0 282:0 283:0 284:0 285:0 286:0 287:0 288:0 289:0 290:0 291:0 292:0 293:0 294:0 295:0 296:0 297:0 298:0 299:0 300:0 301:0 302:0 303:0 304:0 305:0 306:0 307:0 308:0 309:0 310:0 311:0 312:0 313:0 314:0 315:0 316:0 317:0 318:0 319:0 320:0 321:0 322:0 323:0 324:0 325:0 326:0 327:0 328:0 329:0 330:0 331:0 332:0 333:0 334:0 335:0 336:0.14910835 337:0.2989641 338:0.147477 339:0.5389709 340:0.86039386 341:0.32151104 342:0 343:0 344:0 345:0 346:0 347:0 348:0.14910835 349:0.30046266 350:0.29748045 351:0.5319396 352:0.85344076 353:0.96179811 354:0.63401119 355:0.12932819 356:0 357:0 358:0 359:0 360:0 361:0.2945131 362:0.29158994 363:0 364:0.37316771 365:0.8142808 366:0.99396625 367:0.68686789 368:0.28813299 369:0.10282757 370:0 371:0 372:0 373:0 374:0 375:0 376:0 377:0.18068997 378:0.55139541 379:0.5662409 380:0.39356365 381:0.20617056 382:0 383:0 384:0 385:0 386:0 387:0 388:0 389:0 390:0 391:0 392:0.10334299 393:0.10129667 394:0 395:0 396:0 397:0 398:0 399:0 400:0 401:0 402:0 403:0 404:0 405:0 406:0 407:0 408:0 409:0 410:0 411:0 412:0 413:0 414:0 415:0 416:0 417:0 418:0 419:0 420:0 421:0 422:0 423:0 424:0 425:0 426:0 427:0 428:0 429:0 430:0 431:0 432:0 433:0 434:0 435:0 436:0 437:0 438:0 439:0 440:0 441:0 442:0 443:0 444:0 445:0 446:0 447:0 448:0 449:0 450:0 451:0 452:0 453:0 454:0 455:0 456:0 457:0.58781652 458:0.58781652 459:0.2888087 460:0 461:0 462:0 463:0 464:0 465:0 466:0 467:0 468:0 469:0.96934047 470:0.96519282 471:0.75343789 472:0 473:0 474:0 475:0 476:0 477:0 478:0 479:0 480:0.099178345 481:1 482:0.93417536 483:0.45888173 484:0.27729462 485:0.27454236 486:0 487:0 488:0 489:0 490:0 491:0 492:0.099178345 493:0.81989781 494:0.81791421 495:0 496:0.27729462 497:0.27868457 498:0.13692458 499:0 500:0 501:0 502:0 503:0 504:0 505:0.35093254 506:0.34898822 507:0 508:0.13624167 509:0.27316625 510:0.43059989 511:0.86686511 512:0.63060896 513:0.23554187 514:0 515:0 516:0 517:0 518:0 519:0 520:0 521:0 522:0.42207344 523:0.85359311 524:0.84119371 525:0.44219441 526:0 527:0 528:0 529:0 530:0 531:0 532:0 533:0 534:0 535:0 536:0.38313735 537:0.37928301 538:0 539:0 540:0 541:0 542:0 543:0 544:0 545:0 546:0 547:0.1358612 548:0.62202251 549:0.47653467 550:0 551:0 552:0 553:0 554:0 555:0 556:0 557:0 558:0 559:0.39882541 560:0.6615436 561:0.64065148 562:0 563:0 564:0 565:0 566:0 567:0 568:0 569:0 570:0 571:0.53175218 572:0.80264082 573:0.65741361 574:0 575:0 576:0 577:0 578:0 579:0 580:0 581:0 582:0 583:0.33443424 584:0.327812 585:0 586:0 587:0 588:0 589:0 590:0 591:0 592:0 593:0 594:0 595:0.33443424 596:0.33443424 597:0 598:0 599:0 600:0 601:0.33443424 602:0.33443424 603:0.327812 604:0 605:0 606:0 607:0.327812 608:0.327812 609:0 610:0 611:0 612:0 613:0.327812 614:0.66224624 615:0.66224624 616:0.327812 617:0 618:0 619:0 620:0 621:0 622:0 623:0 624:0.33443424 625:0.33443424 626:0.327812 627:0.66057824 628:0.66553248 629:0.33276624 630:0 631:0 632:0 633:0 634:0 635:0 636:0.327812 637:0.33443424 638:0.327812 639:0.33276624 640:0.66553248 641:0.998332 642:0.6622214 643:0 644:0 645:0 646:0 647:0 648:0 649:0 650:0 651:0 652:0.32945516 653:0.98515292 654:0.988464 655:1 656:0.66720048 657:0.327812 658:0 659:0 660:0 661:0 662:0 663:0 664:0 665:0 666:0.33276624 667:0.98019867 668:0.66720048 669:0.327812 670:0 671:0 672:0 673:0 674:0 675:0 676:0 677:0 678:0 679:0 680:0 681:0 682:0 683:0 684:0 685:0 686:0 687:0 688:0 689:0 690:0 691:0 692:0 693:0 694:0 695:0 696:0 697:0 698:0 699:0 700:0 701:0 702:0 703:0 704:0 705:0 706:0 707:0 708:0 709:0 710:0 711:0 712:0 713:0 714:0 715:0.3361106 716:0.33276624 717:0 718:0 719:0 
0 0 6.353279498549571 0:0 1:0 2:0 3:0 4:0 5:0 6:0 7:0.27356483 8:0.26814789 9:0 10:0 11:0 12:0 13:0 14:0 15:0 16:0 17:0 18:0 19:0.53129403 20:0.52592972 21:0.13655174 22:0 23:0 24:0 25:0 26:0 27:0 28:0 29:0 30:0 31:0.45852424 32:0.56892978 33:0.35465275 34:0 35:0 36:0 37:0 38:0.077965739 39:0.077965739 40:0 41:0 42:0 43:0.19891081 44:0.54924099 45:0.54126569 46:0 47:0 48:0 49:0.19991331 50:0.33195338 51:0.23012988 52:0.26976834 53:0.4600003 54:0.19204905 55:0.09435842 56:0.58886578 57:0.58689197 58:0 59:0 60:0.10332171 61:0.4781555 62:0.42626508 63:0.4237623 64:0.34654757 65:0.59899869 66:0.43406872 67:0.30627355 68:0.70446967 69:0.60264878 70:0 71:0 72:0.15175194 73:0.38467475 74:0.48368116 75:0.19321876 76:0.16766353 77:0.25806308 78:0.2707264 79:0.54499322 80:1 81:0.61646145 82:0 83:0 84:0.047471246 85:0.2859458 86:0.28296126 87:0 88:0 89:0 90:0.076001172 91:0.33160187 92:0.8912864 93:0.56273232 94:0 95:0 96:0 97:0 98:0 99:0 100:0 101:0 102:0 103:0.11797092 104:0.49710023 105:0.49710023 106:0 107:0 108:0 109:0 110:0 111:0 112:0 113:0 114:0 115:0.34849959 116:0.47470792 117:0.46998861 118:0 119:0 120:0 121:0 122:0 123:0 124:0 125:0 126:0 127:0.45478498 128:0.46175295 129:0.45260963 130:0 131:0 132:0 133:0 134:0 135:0 136:0 137:0 138:0 139:0.34535472 140:0.45663898 141:0.21912585 142:0 143:0 144:0 145:0 146:0 147:0 148:0 149:0 150:0 151:0.077616558 152:0.076079647 153:0 154:0 155:0 156:0 157:0 158:0 159:0 160:0 161:0 162:0 163:0.22679183 164:0.22527017 165:0.055783039 166:0 167:0 168:0 169:0 170:0 171:0 172:0 173:0 174:0 175:0.36500095 176:0.45325531 177:0.26245391 178:0 179:0 180:0 181:0 182:0.15950002 183:0.15950002 184:0 185:0 186:0 187:0.21386792 188:0.47133215 189:0.4652078 190:0 191:0 192:0 193:0 194:0.35239421 195:0.4775262 196:0.47051658 197:0.32072429 198:0.31949264 199:0.11437186 200:0.37831747 201:0.37637063 202:0 203:0 204:0.168088 205:0.168088 206:0.18907462 207:0.47433614 208:0.76307897 209:0.70398788 210:1 211:0.77201885 212:0.30378065 213:0.14460218 214:0 215:0 216:0.33701854 217:0.43979449 218:0.43308763 219:0.071869529 220:0.29568928 221:0.37914644 222:0.8432189 223:0.98761321 224:0.51280861 225:0.027472061 226:0 227:0 228:0.16558549 229:0.43643268 230:0.42979238 231:0 232:0 233:0 234:0.16618174 235:0.32951518 236:0.32471553 237:0.0017251869 238:0 239:0 240:0 241:0 242:0 243:0 244:0 245:0 246:0 247:0 248:0 249:0 250:0 251:0 252:0 253:0 254:0 255:0 256:0 257:0 258:0 259:0 260:0 261:0 262:0 263:0 264:0 265:0 266:0 267:0 268:0 269:0 270:0 271:0 272:0 273:0 274:0 275:0 276:0 277:0 278:0 279:0 280:0 281:0 282:0 283:0 284:0 285:0 286:0 287:0 288:0 289:0 290:0 291:0 292:0 293:0 294:0 295:0 296:0 297:0 298:0 299:0 300:0 301:0 302:0 303:0 304:0 305:0 306:0 307:0 308:0 309:0 310:0 311:0 312:0 313:0 314:0 315:0 316:0 317:0 318:0 319:0 320:0 321:0 322:0 323:0 324:0 325:0 326:0 327:0 328:0 329:0 330:0 331:0 332:0 333:0 334:0 335:0 336:0 337:0 338:0.14749379 339:0.44353593 340:0.43766969 341:0.5153629 342:0.51247136 343:0.220311 344:0 345:0 346:0 347:0 348:0 349:0 350:0.14457322 351:0.64532769 352:0.94402212 353:0.8927378 354:0.99492159 355:0.71184055 356:0.19587189 357:0 358:0 359:0 360:0.17548635 361:0.35185232 362:0.34662259 363:0.20640471 364:0.50635243 365:0.50218278 366:0.71783765 367:0.95485801 368:0.65460162 369:0 370:0 371:0 372:0.17201148 373:0.35009745 374:0.34662259 375:0 376:0 377:0 378:0.22764466 379:0.46332846 380:0.45872973 381:0 382:0 383:0 384:0 385:0 386:0 387:0 388:0 389:0 390:0 391:0 392:0 393:0 394:0 395:0 396:0 397:0 398:0 399:0 400:0 401:0 402:0 403:0 404:0 405:0 406:0 407:0 408:0 409:0 410:0 411:0 412:0 413:0 414:0 415:0 416:0 417:0 418:0 419:0 420:0 421:0 422:0 423:0 424:0 425:0 426:0 427:0 428:0 429:0 430:0 431:0 432:0 433:0 434:0 435:0 436:0 437:0 438:0 439:0 440:0 441:0 442:0 443:0 444:0 445:0 446:0 447:0 448:0 449:0 450:0 451:0 452:0 453:0 454:0 455:0 456:0 457:0 458:0 459:0 460:0 461:0 462:0 463:0 464:0 465:0 466:0 467:0 468:0 469:0 470:0 471:0 472:0 473:0 474:0 475:0 476:0 477:0 478:0 479:0 480:0 481:0.33067842 482:0.33067842 483:0.28539485 484:0.72107892 485:0.78475027 486:0.38235754 487:0 488:0 489:0 490:0 491:0 492:0 493:0.80217871 494:0.79691493 495:0.6623842 496:0.92798676 497:1 498:0.56915992 499:0.1849418 500:0.21026262 501:0.028409013 502:0 503:0 504:0 505:0.80409386 506:0.9772599 507:0.37357655 508:0.41911004 509:0.60591243 510:0.18310345 511:0.52159878 512:0.61205207 513:0.17335256 514:0 515:0 516:0 517:0.59087282 518:0.59087282 519:0 520:0 521:0 522:0.094035311 523:0.51554146 524:0.78883005 525:0.34606863 526:0 527:0 528:0 529:0 530:0 531:0 532:0 533:0 534:0 535:0.10966202 536:0.42063919 537:0.39074124 538:0 539:0 540:0 541:0 542:0 543:0 544:0 545:0 546:0 547:0.35585247 548:0.46020948 549:0.43877264 550:0 551:0 552:0 553:0 554:0 555:0 556:0 557:0 558:0 559:0.49771815 560:0.49534728 561:0.4805266 562:0 563:0 564:0 565:0 566:0 567:0 568:0 569:0 570:0 571:0.37164601 572:0.49467251 573:0.250739 574:0 575:0 576:0 577:0 578:0 579:0 580:0 581:0 582:0 583:0.33667499 584:0.33332501 585:0 586:0 587:0 588:0 589:0 590:0 591:0 592:0 593:0 594:0 595:0.33332501 596:0.33332501 597:0 598:0 599:0 600:0 601:0 602:0 603:0 604:0 605:0 606:0 607:0 608:0 609:0 610:0 611:0 612:0 613:0 614:0.33332501 615:0.33332501 616:0 617:0 618:0 619:0 620:0 621:0 622:0 623:0 624:0 625:0.33499581 626:0.66832083 627:0.99836245 628:0.66500419 629:0.6716708 630:0.66168747 631:0 632:0 633:0 634:0 635:0 636:0.33332501 637:0.66168747 638:0.33499581 639:0.99169584 640:0.9917946 641:0.99668328 642:0.66168747 643:0.33499581 644:0.32836245 645:0 646:0 647:0 648:0.33332501 649:0.33667499 650:0.33000837 651:0.32836245 652:0.33499581 653:0.32836245 654:0 655:0.33499581 656:0.33499581 657:0 658:0 659:0 660:0 661:0.33000837 662:0.32347377 663:0 664:0 665:0 666:0 667:0.32836245 668:0.32836245 669:0 670:0 671:0 672:0 673:0 674:0 675:0 676:0 677:0 678:0 679:0 680:0 681:0 682:0 683:0 684:0 685:0 686:0 687:0 688:0 689:0 690:0 691:0 692:0 693:0 694:0 695:0 696:0 697:0 698:0 699:0 700:0 701:0 702:0 703:0 704:0 705:0 706:0 707:0 708:0 709:0 710:0 711:0 712:0 713:0 714:0 715:0.33667499 716:0.33332501 717:0 718:0 719:0 
3.190833773866232 0 0 0:0 1:0 2:0 3:0.36765133 4:0.3651938 5:0.11965806 6:0 7:0 8:0 9:0 10:0 11:0 12:0 13:0 14:0 15:0.61204106 16:0.60469642 17:0.2399159 18:0 19:0 20:0 21:0 22:0 23:0 24:0 25:0 26:0 27:0.488895 28:0.60847477 29:0.11787658 30:0 31:0 32:0 33:0 34:0 35:0 36:0 37:0 38:0 39:0.52272599 40:0.51237532 41:0 42:0 43:0 44:0 45:0 46:0 47:0 48:0 49:0 50:0.13462221 51:0.70200299 52:0.65388289 53:0.095801689 54:0.017109496 55:0.024566551 56:0.007641478 57:0 58:0 59:0 60:0 61:0 62:0.26991923 63:0.84620022 64:0.99577634 65:0.16086361 66:0.017109496 67:0.16744141 68:0.14961466 69:0.047824762 70:0 71:0 72:0 73:0 74:0.13261795 75:0.8275234 76:0.98113345 77:0.15892829 78:0.016770705 79:0.14100705 80:0.15055115 81:0.095889247 82:0 83:0 84:0 85:0 86:0 87:0.51803745 88:0.51803745 89:0 90:0 91:0 92:0.048064485 93:0.24991999 94:0.34174208 95:0.093965816 96:0 97:0 98:0 99:0.46559706 100:0.46559706 101:0 102:0 103:0 104:0 105:0.24837208 106:0.34405236 107:0.18699666 108:0 109:0 110:0 111:0.43321183 112:0.43679539 113:0.21372872 114:0 115:0 116:0 117:0.076241957 118:0.1692728 119:0.091188706 120:0 121:0 122:0 123:0.44599079 124:0.44599079 125:0.43273789 126:0 127:0 128:0 129:0 130:0 131:0 132:0 133:0 134:0 135:0.23186143 136:0.45826807 137:0.45150655 138:0 139:0 140:0 141:0 142:0 143:0 144:0 145:0 146:0 147:0 148:0 149:0 150:0 151:0 152:0 153:0 154:0 155:0 156:0 157:0 158:0 159:0 160:0 161:0 162:0 163:0 164:0 165:0 166:0 167:0 168:0 169:0 170:0 171:0 172:0 173:0 174:0 175:0 176:0 177:0 178:0 179:0 180:0 181:0 182:0 183:0 184:0 185:0 186:0 187:0 188:0 189:0 190:0 191:0 192:0 193:0 194:0 195:0.0059135265 196:0.21974456 197:0.42896867 198:0.42259272 199:0.3242181 200:0.24778893 201:0 202:0 203:0 204:0 205:0 206:0.23227785 207:0.50618565 208:0.56151131 209:0.51419699 210:0.49545908 211:1 212:0.91854007 213:0.1929859 214:0 215:0 216:0 217:0 218:0.22767844 219:0.57209848 220:0.60806861 221:0.087367812 222:0.071423507 223:0.66685257 224:0.9233025 225:0.41558444 226:0 227:0 228:0 229:0 230:0 231:0.21352566 232:0.20929757 233:0 234:0 235:0 236:0.22259854 237:0.41882895 238:0.41219982 239:0 240:0 241:0 242:0 243:0.27762797 244:0.27373577 245:0 246:0 247:0 248:0 249:0.41634503 250:0.41842547 251:0.083210614 252:0 253:0 254:0 255:0.2979669 256:0.29670801 257:0.16046615 258:0 259:0 260:0 261:0.2051945 262:0.28840511 263:0.081562934 264:0 265:0 266:0 267:0.27392858 268:0.30439016 269:0.29836283 270:0 271:0 272:0 273:0 274:0 275:0 276:0 277:0 278:0 279:0.12083499 280:0.2456695 281:0.24183727 282:0 283:0 284:0 285:0 286:0 287:0 288:0 289:0 290:0 291:0 292:0 293:0 294:0 295:0 296:0 297:0 298:0 299:0 300:0 301:0 302:0 303:0 304:0 305:0 306:0 307:0 308:0 309:0 310:0 311:0 312:0 313:0 314:0 315:0 316:0 317:0 318:0 319:0 320:0 321:0 322:0 323:0 324:0 325:0 326:0 327:0 328:0 329:0 330:0 331:0 332:0 333:0 334:0 335:0 336:0 337:0 338:0 339:0 340:0.42654098 341:0.46686559 342:0.19853274 343:0.25245857 344:0.097192159 345:0 346:0 347:0 348:0 349:0 350:0 351:0.36675369 352:0.99917909 353:0.88998877 354:0.81937426 355:0.60957769 356:0.3112075 357:0 358:0 359:0 360:0 361:0 362:0 363:0.35949148 364:0.70681695 365:0.6834919 366:0.61563338 367:0.57941892 368:0.31335839 369:0.21188585 370:0 371:0 372:0 373:0 374:0 375:0 376:0 377:0 378:0 379:0 380:0.21188585 381:0.51695011 382:0.51083205 383:0 384:0 385:0 386:0 387:0 388:0 389:0 390:0 391:0 392:0 393:0.51402362 394:0.51756976 395:0.20590843 396:0 397:0 398:0 399:0 400:0 401:0 402:0 403:0 404:0 405:0.15798801 406:0.36389644 407:0.20183117 408:0 409:0 410:0 411:0 412:0 413:0 414:0 415:0 416:0 417:0 418:0 419:0 420:0 421:0 422:0 423:0 424:0 425:0 426:0 427:0 428:0 429:0 430:0 431:0 432:0 433:0 434:0 435:0.21010775 436:0.20896336 437:0.096872973 438:0 439:0 440:0 441:0 442:0 443:0 444:0 445:0 446:0 447:0.33753165 448:0.33382535 449:0.14982531 450:0 451:0 452:0 453:0 454:0 455:0 456:0 457:0 458:0 459:0.28233672 460:0.31374019 461:0.051903807 462:0 463:0 464:0 465:0 466:0 467:0 468:0 469:0 470:0 471:0.30371286 472:0.30371286 473:0 474:0 475:0 476:0 477:0 478:0 479:0 480:0 481:0 482:0.02397591 483:0.26341787 484:0.7515936 485:0.56486837 486:0.28919279 487:0.28346639 488:0 489:0 490:0 491:0 492:0 493:0 494:0.048072 495:0.17306938 496:0.94254027 497:0.95254386 498:0.95107884 499:0.57130278 500:0 501:0 502:0 503:0 504:0 505:0 506:0.023618955 507:0.09319836 508:0.552043 509:0.63134902 510:0.69347235 511:0.56557638 512:0 513:0 514:0 515:0 516:0 517:0 518:0 519:0 520:0 521:0 522:0 523:0 524:0 525:0.2752383 526:0.39156471 527:0.11516894 528:0 529:0 530:0 531:0 532:0 533:0 534:0 535:0 536:0 537:0.2752383 538:0.39317343 539:0.38766857 540:0 541:0 542:0 543:0 544:0 545:0 546:0 547:0 548:0 549:0 550:0.27249964 551:0.26710378 552:0 553:0 554:0 555:0 556:0 557:0 558:0 559:0 560:0 561:0 562:0 563:0 564:0 565:0 566:0 567:0 568:0 569:0 570:0 571:0 572:0 573:0 574:0 575:0 576:0 577:0 578:0 579:0 580:0 581:0 582:0 583:0 584:0 585:0 586:0 587:0 588:0 589:0 590:0 591:0 592:0 593:0 594:0 595:0 596:0 597:0 598:0 599:0 600:0 601:0 602:0 603:0 604:0 605:0 606:0 607:0 608:0 609:0 610:0 611:0 612:0 613:0 614:0 615:0 616:0 617:0 618:0 619:0 620:0 621:0 622:0 623:0 624:0 625:0 626:0 627:0 628:0 629:0.33779536 630:0.66721716 631:0.66556576 632:0.32945516 633:0 634:0 635:0 636:0 637:0 638:0 639:0.67390596 640:0.67054484 641:0.6638894 642:0.67054484 643:1 644:0.6638894 645:0 646:0 647:0 648:0 649:0 650:0 651:0.66056173 652:0.67054484 653:0.32945516 654:0.32945516 655:0.65891032 656:0.66725052 657:0.33110656 658:0 659:0 660:0 661:0 662:0 663:0 664:0 665:0 666:0 667:0 668:0.33110656 669:0.33443424 670:0.6722296 671:0.33443424 672:0 673:0 674:0 675:0 676:0 677:0 678:0 679:0 680:0 681:0.33443424 682:0.6722296 683:0.6655408 684:0 685:0 686:0 687:0 688:0 689:0 690:0 691:0 692:0 693:0 694:0.33110656 695:0.32455021 696:0 697:0 698:0 699:0 700:0 701:0 702:0 703:0 704:0 705:0 706:0 707:0 708:0 709:0 710:0 711:0 712:0.33779536 713:0.33443424 714:0 715:0 716:0 717:0 718:0 719:0 
