svm_type c_svc
kernel_type sigmoid
gamma 0.003906
coef0 0
nr_class 4
total_sv 359
rho -2.65801 -1.32628 0.0794565 3.89185 2.85292 1.64323
label 1 4 3 2
nr_sv 103 67 73 116
SV
2.031666628538107 0 8 0:0 1:0 2:0 3:0 4:0 5:0 6:0 7:0 8:0 9:0 10:0 11:0 12:0 13:0 14:0 15:0 16:0 17:0 18:0 19:0 20:0 21:0 22:0 23:0 24:0 25:0 26:0 27:0 28:0 29:0 30:0 31:0 32:0 33:0 34:0 35:0 36:0 37:0 38:0 39:0 40:0 41:0.10394241 42:0.10188421 43:0 44:0 45:0 46:0.3283878 47:0.32188529 48:0 49:0 50:0 51:0 52:0.16441086 53:0.61958086 54:0.44615703 55:0 56:0 57:0 58:0.57058783 59:0.56900533 60:0 61:0 62:0 63:0 64:0.59095199 65:0.9386935 66:0.80146027 67:0 68:0 69:0 70:0.47934563 71:0.47934563 72:0 73:0 74:0 75:0 76:0.85174492 77:1 78:0.98359868 79:0 80:0 81:0 82:0 83:0 84:0 85:0 86:0 87:0 88:0.42430278 89:0.75184983 90:0.73870155 91:0 92:0 93:0 94:0 95:0 96:0 97:0 98:0 99:0 100:0 101:0.27830147 102:0.27453007 103:0 104:0 105:0 106:0 107:0 108:0 109:0 110:0 111:0 112:0 113:0 114:0 115:0 116:0 117:0 118:0 119:0 120:0 121:0 122:0 123:0 124:0 125:0 126:0 127:0 128:0 129:0 130:0 131:0 132:0 133:0 134:0 135:0.18559518 136:0.18559518 137:0.18192014 138:0 139:0 140:0 141:0 142:0 143:0 144:0 145:0 146:0 147:0 148:0 149:0 150:0 151:0 152:0 153:0 154:0 155:0 156:0 157:0 158:0 159:0 160:0 161:0 162:0 163:0 164:0 165:0 166:0 167:0 168:0 169:0 170:0 171:0 172:0 173:0 174:0 175:0 176:0 177:0 178:0 179:0 180:0 181:0 182:0 183:0 184:0 185:0 186:0 187:0 188:0 189:0.18431169 190:0.69785778 191:0.50517034 192:0 193:0 194:0 195:0 196:0 197:0 198:0 199:0 200:0 201:0.18066207 202:0.69619744 203:0.60291022 204:0 205:0 206:0 207:0 208:0 209:0 210:0 211:0 212:0 213:0 214:0.25195371 215:0.25195371 216:0 217:0 218:0 219:0 220:0.26137445 221:0.26137445 222:0.12841969 223:0 224:0 225:0 226:0 227:0 228:0 229:0 230:0 231:0.027964534 232:0.58539133 233:0.55687028 234:0.25748309 235:0 236:0 237:0 238:0 239:0 240:0 241:0 242:0 243:0.0274108 244:0.59739886 245:1 246:0.93141364 247:0 248:0 249:0 250:0 251:0 252:0 253:0 254:0 255:0 256:0.26651404 257:0.81028981 258:0.79960209 259:0 260:0 261:0 262:0 263:0 264:0 265:0 266:0 267:0 268:0 269:0 270:0 271:0 272:0 273:0 274:0 275:0 276:0 277:0 278:0 279:0 280:0 281:0 282:0 283:0 284:0 285:0 286:0 287:0 288:0 289:0 290:0 291:0 292:0 293:0 294:0 295:0 296:0 297:0 298:0 299:0 300:0 301:0 302:0 303:0 304:0 305:0 306:0 307:0 308:0 309:0 310:0 311:0 312:0 313:0 314:0 315:0 316:0 317:0 318:0 319:0 320:0 321:0 322:0 323:0 324:0 325:0 326:0.11796157 327:0.36221977 328:0.49395149 329:0.51036871 330:0.64521876 331:0.6746298 332:0.57723462 333:0.57435565 334:0.53336019 335:0.24515697 336:0 337:0.30286783 338:0.72069114 339:0.90560837 340:0.99987458 341:0.74840672 342:0.64235419 343:0.66602172 344:0.69400638 345:0.67769914 346:0.57579719 347:0.27580132 348:0 349:0.29687065 350:0.59079473 351:0.80326793 352:0.99019876 353:0.73833775 354:0.49799044 355:0.36494872 356:0.11728149 357:0.21364742 358:0.27478855 359:0.11176934 360:0 361:0 362:0 363:0 364:0.069550358 365:0.069550358 366:0 367:0 368:0 369:0.16039459 370:0.24090975 371:0.079518618 372:0 373:0 374:0 375:0.15219719 376:0.41958735 377:0.39517644 378:0.093163831 379:0 380:0 381:0 382:0 383:0 384:0 385:0 386:0 387:0.14918348 388:0.38909915 389:0.52910059 390:0.22532478 391:0 392:0 393:0 394:0 395:0 396:0 397:0 398:0 399:0 400:0.20786551 401:0.41677294 402:0.20477079 403:0 404:0 405:0 406:0 407:0 408:0 409:0 410:0 411:0 412:0.27765961 413:0.44377864 414:0.43824804 415:0 416:0 417:0 418:0 419:0 420:0 421:0 422:0 423:0.046320575 424:0.20462153 425:0.52874161 426:0.43178291 427:0 428:0 429:0 430:0 431:0 432:0 433:0 434:0 435:0 436:0 437:0 438:0 439:0 440:0 441:0 442:0 443:0 444:0 445:0 446:0 447:0 448:0 449:0 450:0 451:0 452:0 453:0 454:0 455:0 456:0 457:0 458:0 459:0 460:0 461:0 462:0 463:0 464:0 465:0 466:0 467:0 468:0 469:0 470:0.072035185 471:0.21646663 472:0.27060112 473:0.40384529 474:0.4763809 475:0.26437641 476:0.15984588 477:0.12398423 478:0.061682932 479:0.027137908 480:0 481:0.23984699 482:0.46843567 483:0.5102943 484:0.57446801 485:0.8342413 486:0.73233857 487:0.30166156 488:0.22665087 489:0.47997802 490:0.86529527 491:0.44131547 492:0 493:0.2350977 494:0.38855123 495:0.45351093 496:0.54485373 497:1 498:0.86512963 499:0.19875897 500:0.065482169 501:0.5203859 502:0.96875553 503:0.65518146 504:0 505:0 506:0 507:0 508:0.35794413 509:0.41204279 510:0.40585576 511:0 512:0 513:0.30584051 514:0.72001807 515:0.41006667 516:0 517:0 518:0 519:0 520:0.55070604 521:0.76963305 522:0.47364215 523:0 524:0 525:0 526:0 527:0 528:0 529:0 530:0 531:0 532:0.36656681 533:0.73681768 534:0.58115877 535:0 536:0 537:0 538:0 539:0 540:0 541:0 542:0 543:0 544:0.079168203 545:0.21750039 546:0.2131936 547:0 548:0 549:0 550:0 551:0 552:0 553:0 554:0 555:0 556:0.15873324 557:0.15952889 558:0.15637001 559:0 560:0 561:0 562:0 563:0 564:0 565:0 566:0 567:0.18627226 568:0.45146776 569:0.52587255 570:0.15481797 571:0 572:0 573:0 574:0 575:0 576:0 577:0 578:0 579:0 580:0 581:0 582:0 583:0 584:0 585:0 586:0 587:0 588:0 589:0 590:0 591:0 592:0 593:0 594:0 595:0 596:0 597:0 598:0 599:0 600:0 601:0 602:0 603:0 604:0 605:0 606:0 607:0 608:0 609:0 610:0 611:0 612:0 613:0 614:0 615:0 616:0.25155737 617:0.50311473 618:0.25155737 619:0 620:0 621:0 622:0 623:0 624:0 625:0 626:0 627:0 628:0.25155737 629:0.50311473 630:0.50313989 631:0.24905433 632:0 633:0 634:0 635:0 636:0 637:0 638:0 639:0 640:0 641:0.24905433 642:0.49317705 643:0.24412272 644:0 645:0.25408556 646:0.25155737 647:0 648:0 649:0 650:0 651:0 652:0 653:0 654:0 655:0 656:0 657:0.25155737 658:0.25155737 659:0 660:0 661:0 662:0 663:0.2528183 664:0.2528183 665:0.49936953 666:0.25155737 667:0 668:0 669:0 670:0 671:0 672:0 673:0 674:0 675:0.24781217 676:0.2528183 677:0.7509269 678:0.50311473 679:0 680:0 681:0 682:0 683:0 684:0 685:0 686:0 687:0 688:0 689:0.50187263 690:0.49193489 691:0 692:0 693:0 694:0 695:0 696:0 697:0 698:0 699:0 700:0.2528183 701:0.50563661 702:0.50063047 703:0 704:0 705:0 706:0 707:0 708:0 709:0 710:0 711:0.2528183 712:0.75471603 713:1 714:0.49562433 715:0 716:0 717:0 718:0 719:0 
0 0 5.757116126180421 0:0 1:0 2:0 3:0 4:0 5:0 6:0 7:0 8:0 9:0 10:0 11:0 12:0 13:0 14:0 15:0 16:0 17:0 18:0 19:0 20:0 21:0 22:0 23:0 24:0 25:0 26:0.087598261 27:0.087598261 28:0 29:0 30:0 31:0 32:0 33:0 34:0 35:0 36:0 37:0 38:0.99041854 39:0.97650646 40:0.17302074 41:0 42:0 43:0 44:0 45:0 46:0 47:0 48:0 49:0 50:0.90491985 51:0.99798666 52:0.65768478 53:0.65768478 54:0.36463395 55:0 56:0 57:0 58:0 59:0 60:0 61:0 62:0.34347477 63:0.46537426 64:0.65031868 65:0.84716462 66:0.66675455 67:0.018896741 68:0 69:0 70:0 71:0 72:0 73:0 74:0 75:0 76:0 77:0.28284212 78:0.47587199 79:0.19469737 80:0 81:0 82:0 83:0 84:0 85:0 86:0 87:0 88:0 89:0 90:0.17580063 91:0.17231954 92:0 93:0 94:0 95:0 96:0 97:0 98:0 99:0 100:0 101:0 102:0 103:0 104:0 105:0 106:0 107:0 108:0 109:0 110:0 111:0 112:0 113:0 114:0 115:0 116:0.25712459 117:0.45227371 118:0.19320735 119:0 120:0 121:0 122:0 123:0 124:0 125:0 126:0 127:0 128:0.25712459 129:0.45291609 130:0.44777352 131:0 132:0 133:0 134:0 135:0 136:0 137:0 138:0 139:0 140:0 141:0.25456616 142:0.24952541 143:0 144:0 145:0 146:0 147:0 148:0 149:0 150:0 151:0 152:0 153:0 154:0 155:0 156:0 157:0 158:0 159:0 160:0 161:0 162:0 163:0 164:0 165:0 166:0 167:0 168:0 169:0 170:0 171:0.011184346 172:0.017852005 173:0.0066222358 174:0 175:0 176:0 177:0 178:0 179:0 180:0 181:0 182:0.29043283 183:0.29919267 184:0.01800792 185:0.013411444 186:0 187:0 188:0 189:0 190:0 191:0 192:0 193:0 194:0.4592657 195:0.46532771 196:0.34946036 197:0.23981291 198:0.071150668 199:0 200:0 201:0 202:0 203:0 204:0 205:0 206:0.16548975 207:0.45516965 208:0.32851567 209:0.79271206 210:0.62383481 211:0.16171523 212:0 213:0 214:0 215:0 216:0 217:0 218:0 219:0 220:0.10926015 221:0.54660476 222:0.71520914 223:0.32424106 224:0 225:0 226:0 227:0 228:0 229:0 230:0 231:0 232:0 233:0 234:0.16252583 235:0.15930761 236:0.080502064 237:0 238:0 239:0 240:0 241:0 242:0 243:0 244:0 245:0 246:0 247:0.16582162 248:0.61721164 249:0.60908152 250:0.15777923 251:0 252:0 253:0 254:0 255:0 256:0 257:0 258:0 259:0.08363012 260:0.67979134 261:0.93319886 262:0.63609161 263:0 264:0 265:0 266:0 267:0 268:0 269:0 270:0 271:0 272:0.15053787 273:0.62718961 274:0.6210389 275:0 276:0 277:0 278:0 279:0 280:0 281:0 282:0 283:0 284:0 285:0.14903999 286:0.1460888 287:0 288:0 289:0 290:0 291:0 292:0 293:0 294:0 295:0 296:0 297:0 298:0 299:0 300:0 301:0 302:0 303:0 304:0 305:0 306:0 307:0 308:0 309:0 310:0 311:0 312:0 313:0 314:0.10974633 315:0.52096677 316:0.82029885 317:0.40905916 318:0 319:0 320:0 321:0 322:0 323:0 324:0 325:0 326:0.10974633 327:0.52096677 328:0.82029885 329:0.61828637 330:0.20401315 331:0 332:0 333:0 334:0 335:0 336:0 337:0 338:0 339:0.31069705 340:0.71459664 341:0.97423013 342:0.56434088 343:0 344:0 345:0 346:0 347:0 348:0 349:0 350:0 351:0 352:0.34035593 353:0.79638706 354:0.68006035 355:0.0723232 356:0 357:0 358:0 359:0 360:0 361:0 362:0 363:0 364:0.074337088 365:0.35348342 366:0.43025341 367:0.18606531 368:0 369:0 370:0 371:0 372:0 373:0 374:0 375:0 376:0 377:0 378:0.11374212 379:0.18874996 380:0.18874996 381:0 382:0 383:0 384:0 385:0 386:0 387:0 388:0 389:0 390:0 391:0.30179956 392:0.5124363 393:0.45857021 394:0.052684699 395:0 396:0 397:0 398:0 399:0 400:0 401:0 402:0 403:0.11081106 404:0.44376413 405:0.69427625 406:0.28987171 407:0 408:0 409:0 410:0 411:0 412:0 413:0 414:0 415:0 416:0.12427756 417:0.30069827 418:0.29724608 419:0 420:0 421:0 422:0 423:0 424:0 425:0 426:0 427:0 428:0 429:0.061981882 430:0.060754559 431:0 432:0 433:0 434:0 435:0 436:0 437:0 438:0 439:0 440:0 441:0 442:0 443:0 444:0 445:0 446:0 447:0 448:0 449:0 450:0 451:0 452:0 453:0 454:0 455:0 456:0 457:0 458:0.2667312 459:0.43348902 460:0.23797448 461:0.074373224 462:0 463:0 464:0 465:0 466:0 467:0 468:0 469:0 470:0.83287987 471:0.99373531 472:0.70094091 473:0.07519378 474:0.066504477 475:0 476:0 477:0 478:0 479:0 480:0 481:0 482:0.55550586 483:0.99100096 484:0.69226435 485:0.21613525 486:0.2047977 487:0 488:0 489:0 490:0 491:0 492:0 493:0 494:0.028100914 495:0.028100914 496:0.1396101 497:0.32425077 498:0.18464067 499:0 500:0 501:0 502:0 503:0 504:0 505:0 506:0 507:0 508:0 509:0.18464067 510:0.18649634 511:0.18280347 512:0 513:0 514:0 515:0 516:0 517:0 518:0 519:0 520:0 521:0 522:0.18280347 523:0.26007212 524:0.26007212 525:0 526:0 527:0 528:0 529:0 530:0 531:0 532:0 533:0 534:0 535:0.26007212 536:0.26268589 537:0.25748436 538:0 539:0 540:0 541:0 542:0 543:0 544:0 545:0 546:0 547:0 548:0.48834015 549:0.74072598 550:0.48349317 551:0 552:0 553:0 554:0 555:0 556:0 557:0 558:0 559:0 560:0.48349317 561:0.73434762 562:0.72462937 563:0 564:0 565:0 566:0 567:0 568:0 569:0 570:0 571:0 572:0 573:0.24113619 574:0.23636138 575:0 576:0 577:0 578:0 579:0 580:0 581:0 582:0 583:0 584:0 585:0 586:0 587:0 588:0 589:0 590:0 591:0 592:0 593:0 594:0 595:0 596:0 597:0 598:0 599:0 600:0 601:0 602:0 603:0 604:0.50248114 605:0.50248114 606:0 607:0 608:0 609:0 610:0 611:0 612:0 613:0 614:0 615:0 616:0.50248114 617:0.50753116 618:0.49748137 619:0 620:0 621:0 622:0 623:0 624:0 625:0 626:0.50499983 627:0.50499983 628:0.49500017 629:0.9999625 630:0.99011171 631:0 632:0 633:0 634:0 635:0 636:0 637:0 638:0.49500017 639:0.50499983 640:0.49500017 641:0.9999625 642:0.99011171 643:0 644:0 645:0 646:0 647:0 648:0 649:0 650:0 651:0 652:0 653:0.50248114 654:0.50753116 655:0.49748137 656:0 657:0 658:0 659:0 660:0 661:0 662:0 663:0 664:0 665:0 666:0.49748137 667:0.50248114 668:0.50248114 669:0 670:0 671:0 672:0 673:0 674:0 675:0 676:0 677:0 678:0 679:0.50248114 680:0.50753116 681:0.49748137 682:0 683:0 684:0 685:0 686:0 687:0 688:0 689:0 690:0 691:0 692:0.50248114 693:0.50248114 694:0 695:0 696:0 697:0 698:0 699:0 700:0 701:0 702:0 703:0 704:0.50248114 705:0.50753116 706:0.49748137 707:0 708:0 709:0 710:0 711:0 712:0 713:0 714:0 715:0 716:0 717:0.49748137 718:0.48763057 719:0 
3.058965679272173 0 0 0:0 1:0 2:0 3:0 4:0 5:0 6:0 7:0 8:0 9:0 10:0 11:0 12:0 13:0 14:0 15:0 16:0 17:0 18:0 19:0 20:0 21:0 22:0 23:0 24:0 25:0 26:0 27:0 28:0 29:0 30:0 31:0 32:0 33:0.19148461 34:0.19148461 35:0 36:0 37:0 38:0 39:0 40:0 41:0.24467571 42:0.24467571 43:0 44:0 45:0.52698975 46:0.52556981 47:0.37821309 48:0 49:0 50:0 51:0 52:0.030980486 53:0.53624406 54:0.50497277 55:0.4832741 56:0 57:0.4037631 58:0.59715306 59:0.44510073 60:0 61:0 62:0 63:0 64:0.46040185 65:0.7137821 66:0.64925689 67:0.47847741 68:0 69:0.14164076 70:0.21228232 71:0.069242767 72:0 73:0 74:0 75:0 76:0.87952578 77:0.87718736 78:0.56277888 79:0 80:0 81:0 82:0 83:0 84:0 85:0 86:0 87:0 88:0.68628514 89:1 90:0.86673513 91:0 92:0 93:0 94:0 95:0 96:0 97:0 98:0.22470549 99:0.22470549 100:0.233395 101:0.4726748 102:0.46331521 103:0 104:0 105:0 106:0 107:0 108:0 109:0 110:0.66833107 111:0.66833107 112:0.44382969 113:0 114:0 115:0 116:0 117:0 118:0 119:0 120:0 121:0 122:0.4435098 123:0.67259672 124:0.65505117 125:0 126:0 127:0 128:0 129:0 130:0 131:0 132:0 133:0 134:0.0043126456 135:0.21993931 136:0.21135697 137:0 138:0 139:0 140:0 141:0 142:0 143:0 144:0 145:0 146:0 147:0 148:0 149:0 150:0 151:0 152:0 153:0 154:0 155:0 156:0 157:0 158:0 159:0 160:0 161:0 162:0 163:0 164:0 165:0 166:0 167:0 168:0 169:0 170:0 171:0 172:0 173:0 174:0 175:0 176:0.28551879 177:0.56820369 178:0.2826849 179:0 180:0 181:0 182:0 183:0 184:0 185:0 186:0 187:0 188:0.28551879 189:0.68699225 190:0.54672409 191:0.25742196 192:0 193:0 194:0 195:0 196:0 197:0 198:0 199:0 200:0.1402824 201:0.42155037 202:0.5382504 203:0.25463026 204:0 205:0 206:0 207:0.011481953 208:0.02302146 209:0.011311009 210:0 211:0 212:0 213:0 214:0 215:0 216:0 217:0 218:0 219:0.011481953 220:0.2511825 221:0.23947205 222:0.15779889 223:0 224:0 225:0 226:0 227:0 228:0 229:0 230:0 231:0 232:0.53905455 233:0.8778858 234:0.8446817 235:0 236:0 237:0 238:0 239:0 240:0 241:0 242:0.44690048 243:0.44690048 244:0.30786203 245:0.69310204 246:0.6855659 247:0 248:0 249:0 250:0 251:0 252:0 253:0 254:0.56666885 255:0.56666885 256:0.50129889 257:0 258:0 259:0 260:0 261:0 262:0 263:0 264:0 265:0 266:0.55794853 267:1 268:0.7664739 269:0 270:0 271:0 272:0 273:0 274:0 275:0 276:0 277:0 278:0.43066882 279:0.49631765 280:0.27276513 281:0 282:0 283:0 284:0 285:0 286:0 287:0 288:0 289:0 290:0 291:0 292:0 293:0 294:0 295:0 296:0 297:0 298:0 299:0 300:0 301:0 302:0 303:0 304:0 305:0 306:0 307:0 308:0 309:0 310:0 311:0 312:0 313:0 314:0 315:0 316:0 317:0 318:0.34603936 319:0.7148783 320:0.72307836 321:0.68846551 322:0.33405524 323:0 324:0 325:0 326:0.22621738 327:0.67978606 328:0.93135901 329:0.79771648 330:0.82594208 331:0.87298473 332:0.7440525 333:0.70926615 334:0.50570125 335:0.16660589 336:0 337:0 338:0.22621738 339:0.67978606 340:1 341:0.9036771 342:0.87328787 343:0.87950889 344:0.72931927 345:0.86458099 346:0.66504695 347:0.16330687 348:0 349:0 350:0 351:0.44681592 352:0.82366543 353:0.45561491 354:0.11824655 355:0.038699376 356:0.33956743 357:0.51062877 358:0.33703336 359:0 360:0 361:0 362:0 363:0.22318132 364:0.44972436 365:0.48396003 366:0.038699376 367:0 368:0.16683782 369:0.33451193 370:0.16435393 371:0 372:0 373:0 374:0 375:0 376:0.44081922 377:0.63081863 378:0.19244547 379:0 380:0 381:0 382:0 383:0 384:0 385:0 386:0.076215331 387:0.076215331 388:0.095501077 389:0.19437472 390:0.19244547 391:0 392:0 393:0 394:0 395:0 396:0 397:0 398:0.076215331 399:0.076981308 400:0.075456976 401:0 402:0 403:0 404:0 405:0 406:0 407:0 408:0 409:0 410:0.27517908 411:0.34926359 412:0.20849075 413:0 414:0 415:0 416:0 417:0 418:0 419:0 420:0 421:0 422:0.26973017 423:0.27380662 424:0.13452792 425:0 426:0 427:0 428:0 429:0 430:0 431:0 432:0 433:0 434:0 435:0 436:0 437:0 438:0 439:0 440:0 441:0 442:0 443:0 444:0 445:0 446:0 447:0 448:0 449:0 450:0 451:0 452:0 453:0 454:0 455:0 456:0 457:0 458:0 459:0 460:0 461:0 462:0.10394018 463:0.16751316 464:0.096346469 465:0.031741842 466:0 467:0 468:0 469:0 470:0.0013501489 471:0.05454723 472:0.20973141 473:0.25895391 474:0.25972571 475:0.23975278 476:0.14863587 477:0.40072503 478:0.36654368 479:0.12075971 480:0 481:0 482:0.0013501489 483:0.05454723 484:0.37037679 485:0.8745918 486:0.60363843 487:0.38293537 488:0.14569269 489:0.57870852 490:0.49279995 491:0.24212473 492:0 493:0 494:0 495:0.0026667625 496:0.55056136 497:1 498:0.76558309 499:0.14589228 500:0.089233759 501:0.33302551 502:0.40877199 503:0.11896183 504:0 505:0 506:0 507:0 508:0.42140523 509:0.74726203 510:0.64703598 511:0 512:0.043842739 513:0.087905241 514:0.043190006 515:0 516:0 517:0 518:0 519:0 520:0.088603259 521:0.26927966 522:0.17709877 523:0 524:0 525:0 526:0 527:0 528:0 529:0 530:0.059695972 531:0.059695972 532:0 533:0 534:0 535:0 536:0 537:0 538:0 539:0 540:0 541:0 542:0.22969445 543:0.22969445 544:0.059101987 545:0 546:0 547:0 548:0 549:0 550:0 551:0 552:0 553:0 554:0.34170547 555:0.40080746 556:0.22623866 557:0 558:0 559:0 560:0 561:0 562:0 563:0 564:0 565:0 566:0.16999848 567:0.33830545 568:0.16497427 569:0 570:0 571:0 572:0 573:0 574:0 575:0 576:0 577:0 578:0 579:0 580:0 581:0 582:0 583:0 584:0 585:0 586:0 587:0 588:0 589:0 590:0 591:0 592:0 593:0 594:0 595:0 596:0 597:0 598:0 599:0 600:0 601:0 602:0 603:0 604:0 605:0 606:0 607:0 608:0 609:0 610:0 611:0 612:0 613:0 614:0.33778131 615:0.33778131 616:0 617:0.33778131 618:0.33778131 619:0 620:0 621:0 622:0 623:0 624:0 625:0 626:0.33778131 627:0.34117607 628:0.33442033 629:0.33778131 630:0.34117607 631:0.33442033 632:0.33947444 633:0.3327524 634:0 635:0 636:0 637:0 638:0 639:0.33778131 640:0.67556262 641:0.33778131 642:0.33442033 643:0.32779836 644:0.33947444 645:0.33947444 646:0 647:0 648:0 649:0 650:0 651:0.33778131 652:0.67556262 653:0.6755964 654:0.33442033 655:0 656:0.3327524 657:0.3327524 658:0 659:0 660:0 661:0 662:0 663:0 664:0.33442033 665:1 666:0.66557967 667:0 668:0 669:0 670:0 671:0 672:0 673:0 674:0.33778131 675:0.33778131 676:0 677:0.33778131 678:0.33778131 679:0 680:0 681:0 682:0 683:0 684:0 685:0 686:0.33778131 687:0.34117607 688:0.33442033 689:0 690:0 691:0 692:0 693:0 694:0 695:0 696:0 697:0 698:0.33947444 699:0.67389477 700:0.66055076 701:0 702:0 703:0 704:0 705:0 706:0 707:0 708:0 709:0 710:0.3327524 711:0.33947444 712:0.3327524 713:0 714:0 715:0 716:0 717:0 718:0 719:0 
3.648218216954076 0 8 0:0 1:0 2:0 3:0 4:0 5:0 6:0 7:0 8:0 9:0 10:0 11:0 12:0 13:0 14:0 15:0 16:0 17:0 18:0 19:0 20:0 21:0 22:0 23:0 24:0 25:0 26:0 27:0 28:0 29:0 30:0 31:0 32:0.28627746 33:0.28627746 34:0 35:0 36:0 37:0 38:0 39:0 40:0 41:0.089955388 42:0.089955388 43:0.088174152 44:0.65344551 45:0.64859452 46:0.40319472 47:0 48:0 49:0 50:0 51:0 52:0 53:0.088174152 54:0.37825127 55:0.63575921 56:0.89077832 57:0.9973131 58:0.39758245 59:0 60:0 61:0 62:0 63:0 64:0.099364206 65:0.26753947 66:0.4520557 67:0.62944904 68:0.64822703 69:0.64123345 70:0 71:0 72:0 73:0 74:0 75:0 76:0.35818506 77:0.52382759 78:0.50557341 79:0.14243206 80:0.17352972 81:0.1700936 82:0 83:0 84:0 85:0 86:0 87:0.11889153 88:0.43562809 89:0.57379135 90:0.3905728 91:0 92:0 93:0 94:0 95:0 96:0 97:0 98:0.15756351 99:0.39019378 100:0.29649612 101:0.33320847 102:0.09642755 103:0 104:0 105:0 106:0 107:0 108:0.29315896 109:0.29315896 110:0.15756351 111:0.27346989 112:0.3290257 113:0.057544657 114:0 115:0 116:0 117:0 118:0 119:0 120:0.51139302 121:0.5135718 122:0.28879439 123:0.20993183 124:0.20684291 125:0 126:0 127:0 128:0 129:0 130:0 131:0 132:0.21894337 133:0.36370156 134:0.14189178 135:0 136:0 137:0 138:0 139:0 140:0 141:0 142:0 143:0 144:0 145:0 146:0 147:0 148:0 149:0 150:0 151:0 152:0 153:0 154:0 155:0 156:0 157:0 158:0 159:0 160:0 161:0 162:0 163:0 164:0 165:0 166:0 167:0 168:0 169:0 170:0 171:0 172:0 173:0 174:0 175:0 176:0.076940012 177:0.076940012 178:0 179:0 180:0 181:0 182:0 183:0 184:0 185:0 186:0 187:0 188:0.076940012 189:0.077713272 190:0.076174446 191:0 192:0 193:0 194:0 195:0 196:0 197:0 198:0.55702663 199:0.99773565 200:0.45173889 201:0.076174446 202:0.074666091 203:0 204:0 205:0 206:0 207:0 208:0 209:0 210:0.55424845 211:0.9923164 212:0.45627894 213:0.44724401 214:0 215:0 216:0 217:0 218:0 219:0 220:0 221:0 222:0.27231589 223:0.27231589 224:0.44724401 225:0.43838798 226:0 227:0 228:0 229:0 230:0 231:0 232:0 233:0 234:0 235:0 236:0 237:0 238:0 239:0 240:0 241:0 242:0 243:0 244:0 245:0 246:0 247:0 248:0 249:0 250:0 251:0 252:0.54790079 253:0.54790079 254:0.26919713 255:0 256:0 257:0 258:0 259:0 260:0 261:0 262:0 263:0 264:0.71550531 265:0.72196801 266:0.53974361 267:0 268:0 269:0 270:0 271:0 272:0 273:0 274:0 275:0 276:0.17132086 277:0.44186734 278:0.2651893 279:0 280:0 281:0 282:0 283:0 284:0 285:0 286:0 287:0 288:0 289:0 290:0 291:0 292:0 293:0 294:0 295:0 296:0 297:0 298:0 299:0 300:0 301:0 302:0 303:0 304:0 305:0 306:0 307:0.043601761 308:0.043601761 309:0 310:0 311:0 312:0 313:0 314:0 315:0 316:0 317:0 318:0.043601761 319:0.21888412 320:0.25142349 321:0.086120532 322:0 323:0 324:0 325:0 326:0 327:0 328:0 329:0.19744062 330:0.6369133 331:0.71888958 332:0.41110926 333:0.16392935 334:0.077105957 335:0 336:0 337:0 338:0 339:0 340:0 341:0.33231316 342:1 343:0.8123302 344:0.27879679 345:0.077105957 346:0.075579157 347:0 348:0 349:0 350:0 351:0 352:0 353:0.23643336 354:0.51608805 355:0.51137874 356:0 357:0 358:0 359:0 360:0 361:0 362:0 363:0 364:0 365:0.095717609 366:0.37176839 367:0.36711404 368:0 369:0 370:0 371:0 372:0 373:0 374:0 375:0 376:0 377:0 378:0 379:0 380:0 381:0 382:0 383:0 384:0 385:0 386:0 387:0 388:0 389:0 390:0 391:0 392:0 393:0 394:0 395:0 396:0.052368483 397:0.052368483 398:0 399:0 400:0 401:0 402:0 403:0 404:0 405:0 406:0 407:0 408:0.15789426 409:0.15789426 410:0.10343622 411:0 412:0 413:0 414:0 415:0 416:0 417:0 418:0 419:0 420:0.10343622 421:0.15684687 422:0.10240958 423:0 424:0 425:0 426:0 427:0 428:0 429:0 430:0 431:0 432:0 433:0 434:0 435:0 436:0 437:0 438:0 439:0 440:0 441:0 442:0 443:0 444:0 445:0 446:0 447:0 448:0 449:0 450:0 451:0.14906571 452:0.14906571 453:0 454:0 455:0 456:0 457:0 458:0 459:0 460:0 461:0 462:0.14906571 463:0.74832109 464:0.72606551 465:0.2944289 466:0 467:0 468:0 469:0 470:0 471:0 472:0 473:0.12588656 474:0.50188043 475:0.81870869 476:1 477:0.64474085 478:0.2391069 479:0 480:0 481:0 482:0 483:0 484:0 485:0.24697812 486:0.69844487 487:0.74776884 488:0.84977625 489:0.65106205 490:0.23650428 491:0 492:0 493:0 494:0 495:0 496:0.12035238 497:0.72262117 498:0.82311958 499:0.51731499 500:0.38335119 501:0.38005656 502:0 503:0 504:0 505:0 506:0 507:0 508:0.52260083 509:0.99173039 510:0.95879543 511:0.40864755 512:0.081748659 513:0.080129927 514:0 515:0 516:0 517:0 518:0 519:0.2812928 520:0.82285095 521:0.93574037 522:0.50868105 523:0 524:0 525:0 526:0 527:0 528:0 529:0 530:0.1425574 531:0.70832037 532:0.70376105 533:0.69450459 534:0.13614845 535:0 536:0 537:0 538:0 539:0 540:0.14489509 541:0.14489509 542:0.1425574 543:0.42981951 544:0.56586714 545:0.13614845 546:0 547:0 548:0 549:0 550:0 551:0 552:0.43686779 553:0.43686779 554:0.28619125 555:0.28157393 556:0.2787792 557:0 558:0 559:0 560:0 561:0 562:0 563:0 564:0.28619125 565:0.43396984 566:0.28335068 567:0 568:0 569:0 570:0 571:0 572:0 573:0 574:0 575:0 576:0 577:0 578:0 579:0 580:0 581:0 582:0 583:0 584:0 585:0 586:0 587:0 588:0 589:0 590:0 591:0 592:0 593:0 594:0 595:0.49875 596:0.49875 597:0 598:0 599:0 600:0 601:0 602:0 603:0 604:0 605:0 606:0 607:0.49875 608:0.99750001 609:0.49875 610:0 611:0 612:0 613:0 614:0 615:0 616:0 617:0.50125 618:0.50125 619:0.49132458 620:0.49875 621:0.98777224 622:0.49378736 623:0 624:0 625:0 626:0 627:0 628:0 629:0.99007459 630:0.99007459 631:0.49875 632:0.49875 633:0.49378736 634:0.48400971 635:0 636:0 637:0 638:0 639:0 640:0 641:0.49875 642:0.50376252 643:0.49875 644:0.50376252 645:0.49378736 646:0 647:0 648:0 649:0 650:0 651:0 652:0 653:0 654:0.49378736 655:0.48400971 656:0.49378736 657:0.48400971 658:0 659:0 660:0 661:0 662:0 663:0 664:0 665:0 666:0 667:0 668:0 669:0 670:0 671:0 672:0 673:0 674:0.49875 675:0.49875 676:0 677:0 678:0 679:0 680:0 681:0 682:0 683:0 684:0.50125 685:0.50125 686:0.49875 687:0.50376252 688:0.49378736 689:0 690:0 691:0 692:0 693:0 694:0 695:0 696:0.99508711 697:1 698:0.49132458 699:0.49378736 700:0.48400971 701:0 702:0 703:0 704:0 705:0 706:0 707:0 708:0.49875 709:0.49875 710:0 711:0 712:0 713:0 714:0 715:0 716:0 717:0 718:0 719:0 
0.4036555869127583 0 0 0:0 1:0 2:0 3:0 4:0 5:0 6:0 7:0 8:0 9:0 10:0 11:0 12:0 13:0 14:0 15:0 16:0 17:0 18:0 19:0 20:0 21:0 22:0 23:0 24:0 25:0 26:0 27:0 28:0 29:0 30:0 31:0 32:0 33:0 34:0 35:0 36:0 37:0 38:0 39:0 40:0 41:0 42:0.34859899 43:0.34492049 44:0.15960427 45:0 46:0 47:0 48:0 49:0 50:0 51:0 52:0 53:0.49639728 54:0.8607684 55:0.53519753 56:0.61573565 57:0.61573565 58:0.30252606 59:0 60:0 61:0 62:0 63:0 64:0 65:0.49303959 66:0.65503735 67:0.53349077 68:0.91826171 69:0.92745953 70:0.9090946 71:0 72:0 73:0 74:0 75:0 76:0 77:0 78:0.46377758 79:0.59898074 80:0.30252606 81:0.61267997 82:0.6005481 83:0 84:0 85:0 86:0 87:0 88:0 89:0.47368628 90:0.7440171 91:0.41991179 92:0.13605778 93:0 94:0 95:0 96:0 97:0 98:0 99:0 100:0 101:0.47224132 102:0.96534171 103:0.50385365 104:0.24755569 105:0 106:0 107:0 108:0 109:0 110:0 111:0 112:0 113:0.32196239 114:0.99665737 115:0.99338396 116:0.66102983 117:0 118:0 119:0 120:0 121:0 122:0 123:0 124:0 125:0 126:0.81335158 127:0.91274231 128:0.5713989 129:0 130:0 131:0 132:0 133:0 134:0 135:0 136:0 137:0 138:0.47925952 139:0.64211078 140:0.15962659 141:0 142:0 143:0 144:0 145:0 146:0 147:0 148:0 149:0 150:0 151:0 152:0 153:0 154:0 155:0 156:0 157:0 158:0 159:0 160:0 161:0 162:0 163:0 164:0 165:0 166:0 167:0 168:0 169:0 170:0 171:0 172:0 173:0 174:0.17563463 175:0.26192825 176:0.086293613 177:0 178:0 179:0 180:0 181:0 182:0 183:0 184:0 185:0 186:0.17563463 187:0.72132369 188:0.69577221 189:0.15009835 190:0 191:0 192:0 193:0 194:0 195:0 196:0 197:0 198:0.086293613 199:0.45331587 200:0.93619526 201:0.75957695 202:0.15009835 203:0 204:0 205:0 206:0 207:0 208:0 209:0 210:0 211:0 212:0.45331587 213:0.60345936 214:0.15009835 215:0 216:0 217:0 218:0 219:0 220:0 221:0 222:0 223:0 224:0 225:0 226:0 227:0 228:0 229:0 230:0 231:0 232:0 233:0 234:0 235:0 236:0 237:0 238:0 239:0 240:0 241:0 242:0 243:0 244:0 245:0 246:0.11969744 247:0.11910044 248:0.058516976 249:0 250:0 251:0 252:0 253:0 254:0 255:0 256:0 257:0 258:0.11732727 259:0.11910044 260:0.058516976 261:0 262:0 263:0 264:0 265:0 266:0 267:0 268:0 269:0 270:0 271:0 272:0 273:0 274:0 275:0 276:0 277:0 278:0 279:0 280:0 281:0 282:0 283:0 284:0 285:0 286:0 287:0 288:0 289:0 290:0 291:0 292:0 293:0 294:0 295:0 296:0 297:0 298:0 299:0 300:0 301:0 302:0 303:0 304:0 305:0 306:0 307:0 308:0 309:0 310:0 311:0 312:0 313:0 314:0 315:0 316:0 317:0.24197457 318:0.51566719 319:0.42927314 320:0.15249982 321:0 322:0 323:0 324:0 325:0 326:0.097756408 327:0.37503679 328:0.51852245 329:0.48274831 330:0.88212653 331:0.88039053 332:0.447332 333:0.0019783137 334:0 335:0 336:0.1673121 337:0.4426361 338:0.46983969 339:0.47004352 340:0.51193003 341:0.53723113 342:0.63243855 343:0.99268562 344:0.60123488 345:0.010011312 346:0.0019783137 347:0 348:0.2889562 349:0.55815305 350:0.46151495 351:0.38714213 352:0.27957298 353:0.08665418 354:0.15319564 355:0.30715918 356:0.15688961 357:0.0079536645 358:0.0019783137 359:0 360:0.19796201 361:0.37306 362:0.17336007 363:0 364:0 365:0.008291847 366:0.016625257 367:0.0081683975 368:0 369:0 370:0 371:0 372:0.041744361 373:0.041744361 374:0 375:0 376:0 377:0.025000439 378:0.033333849 379:0.024711149 380:0 381:0 382:0 383:0 384:0 385:0 386:0 387:0 388:0 389:0.016377739 390:0.25420529 391:0.2611867 392:0.11634719 393:0 394:0 395:0 396:0 397:0 398:0 399:0 400:0 401:0 402:0.23327758 403:0.23680312 404:0.11634719 405:0 406:0 407:0 408:0 409:0 410:0 411:0 412:0 413:0 414:0 415:0 416:0 417:0 418:0 419:0 420:0 421:0 422:0 423:0 424:0 425:0 426:0 427:0 428:0 429:0 430:0 431:0 432:0 433:0 434:0 435:0 436:0 437:0 438:0 439:0 440:0 441:0 442:0 443:0 444:0 445:0 446:0 447:0 448:0 449:0 450:0 451:0 452:0 453:0 454:0 455:0 456:0 457:0 458:0 459:0 460:0 461:0.12378528 462:0.30350736 463:0.17972208 464:0 465:0 466:0 467:0 468:0 469:0 470:0.081507507 471:0.34881205 472:0.41728191 473:0.30038213 474:0.69456691 475:0.56603227 476:0.23485331 477:0 478:0 479:0 480:0.19711169 481:0.46502733 482:0.43014072 483:0.42774128 484:0.4376983 485:0.38707465 486:0.79262105 487:0.93594404 488:0.26391654 489:0.020067836 490:0.0098598213 491:0 492:0.45757645 493:0.71676902 494:0.44781275 495:0.33771562 496:0.25450236 497:0.23253063 498:0.54336772 499:0.57008066 500:0.030772603 501:0.03022743 502:0.029628887 503:0 504:0.35601151 505:0.54137176 506:0.18343297 507:0 508:0 509:0.15864667 510:0.50838733 511:0.34468999 512:0.093731624 513:0.019968247 514:0.019572849 515:0 516:0.12733447 517:0.12733447 518:0 519:0 520:0 521:0.57165596 522:0.8198085 523:0.66119999 524:0.091875614 525:0 526:0 527:0 528:0 529:0 530:0 531:0 532:0 533:0.40667915 534:0.7247677 535:0.50503557 536:0.037745654 537:0 538:0 539:0 540:0 541:0 542:0 543:0 544:0 545:0.091478327 546:0.36662587 547:0.36498699 548:0.19906161 549:0 550:0 551:0 552:0 553:0 554:0 555:0 556:0 557:0 558:0.42498913 559:0.41981092 560:0.24126202 561:0 562:0 563:0 564:0 565:0 566:0 567:0 568:0 569:0 570:0.25897818 571:0.34051209 572:0.07991943 573:0 574:0 575:0 576:0 577:0 578:0 579:0 580:0 581:0 582:0 583:0 584:0 585:0 586:0 587:0 588:0 589:0 590:0 591:0 592:0 593:0 594:0 595:0 596:0 597:0 598:0 599:0 600:0 601:0 602:0 603:0 604:0 605:0 606:0 607:0.33388843 608:0.32727699 609:0 610:0 611:0 612:0 613:0 614:0 615:0 616:0 617:0 618:0.6677852 619:0.99502905 620:0.33388843 621:0 622:0 623:0 624:0 625:0 626:0 627:0 628:0 629:0.33222315 630:0.99336377 631:0.99506219 632:0.65619447 633:0 634:0 635:0 636:0.33388843 637:0.32727699 638:0 639:0 640:0 641:0.33222315 642:0.6644463 643:0.65783495 644:0.33388843 645:0.33388843 646:0.32727699 647:0 648:0.33388843 649:0.33388843 650:0 651:0 652:0 653:0 654:0.33222315 655:0.65796652 656:0.32891747 657:0.33388843 658:0.32727699 659:0 660:0.32727699 661:0.32727699 662:0 663:0 664:0 665:0.33388843 666:0.32727699 667:0.32891747 668:0.32240447 669:0 670:0 671:0 672:0 673:0 674:0 675:0 676:0 677:0.33388843 678:0.66611157 679:0.33222315 680:0 681:0 682:0 683:0 684:0 685:0 686:0 687:0 688:0 689:0.32727699 690:0.65950014 691:0.33222315 692:0 693:0 694:0 695:0 696:0 697:0 698:0 699:0 700:0 701:0 702:0.33388843 703:0.32727699 704:0 705:0 706:0 707:0 708:0 709:0 710:0 711:0 712:0 713:0 714:0.33388843 715:0.33388843 716:0 717:0 718:0 719:0 
0 0 8 0:0 1:0 2:0 3:0 4:0 5:0 6:0 7:0 8:0 9:0 10:0 11:0 12:0 13:0 14:0 15:0 16:0 17:0 18:0 19:0 20:0 21:0 22:0 23:0 24:0 25:0 26:0 27:0 28:0 29:0 30:0 31:0.4980246 32:0.4980246 33:0 34:0 35:0 36:0 37:0 38:0 39:0 40:0 41:0 42:0 43:0.99748584 44:1 45:0.73724283 46:0 47:0 48:0 49:0 50:0 51:0 52:0 53:0 54:0 55:0.48957125 56:0.99003934 57:0.72747941 58:0 59:0 60:0 61:0 62:0 63:0 64:0 65:0 66:0 67:0 68:0 69:0 70:0 71:0 72:0 73:0 74:0 75:0 76:0.023580215 77:0.023113296 78:0 79:0 80:0 81:0 82:0 83:0 84:0 85:0 86:0 87:0.047042824 88:0.070623039 89:0.046693511 90:0 91:0 92:0 93:0 94:0 95:0 96:0 97:0 98:0.20406892 99:0.24660399 100:0.070391923 101:0.069455743 102:0 103:0 104:0 105:0 106:0 107:0 108:0 109:0 110:0.20406892 111:0.20406892 112:0.023229152 113:0.022769184 114:0 115:0 116:0 117:0 118:0 119:0 120:0 121:0 122:0.20002809 123:0.20002809 124:0 125:0 126:0 127:0 128:0 129:0 130:0 131:0 132:0 133:0 134:0 135:0 136:0 137:0 138:0 139:0 140:0 141:0 142:0 143:0 144:0 145:0 146:0 147:0 148:0 149:0 150:0 151:0 152:0 153:0 154:0 155:0 156:0 157:0 158:0 159:0 160:0 161:0 162:0 163:0 164:0 165:0 166:0 167:0 168:0 169:0 170:0 171:0 172:0 173:0 174:0 175:0.99004983 176:0.99004983 177:0 178:0 179:0 180:0 181:0 182:0 183:0 184:0 185:0 186:0 187:0.99004983 188:1 189:0.98019867 190:0 191:0 192:0 193:0 194:0 195:0 196:0 197:0 198:0 199:0 200:0.98019867 201:0.96078944 202:0 203:0 204:0 205:0 206:0 207:0 208:0 209:0 210:0 211:0 212:0 213:0 214:0 215:0 216:0 217:0 218:0 219:0 220:0 221:0 222:0 223:0 224:0 225:0 226:0 227:0 228:0 229:0 230:0 231:0 232:0 233:0 234:0 235:0 236:0 237:0 238:0 239:0 240:0 241:0 242:0 243:0 244:0 245:0 246:0 247:0 248:0 249:0 250:0 251:0 252:0 253:0 254:0 255:0 256:0 257:0 258:0 259:0 260:0 261:0 262:0 263:0 264:0 265:0 266:0 267:0 268:0 269:0 270:0 271:0 272:0 273:0 274:0 275:0 276:0 277:0 278:0 279:0 280:0 281:0 282:0 283:0 284:0 285:0 286:0 287:0 288:0 289:0 290:0 291:0 292:0 293:0 294:0 295:0 296:0 297:0 298:0 299:0 300:0 301:0 302:0 303:0 304:0 305:0 306:0 307:0 308:0 309:0 310:0 311:0 312:0 313:0 314:0 315:0 316:0 317:0 318:0 319:0 320:0.52630192 321:0.52107815 322:0 323:0 324:0 325:0 326:0 327:0 328:0 329:0 330:0 331:0.20829 332:0.9997231 333:0.99559868 334:0.25988123 335:0 336:0 337:0 338:0 339:0 340:0 341:0 342:0 343:0.20416558 344:0.72936815 345:0.98512497 346:0.25473524 347:0 348:0 349:0 350:0 351:0 352:0 353:0 354:0 355:0 356:0 357:0 358:0 359:0 360:0 361:0 362:0 363:0 364:0.45233442 365:0.44337759 366:0 367:0 368:0 369:0 370:0 371:0 372:0 373:0 374:0 375:0.056483912 376:0.50823846 377:0.45233442 378:0 379:0 380:0 381:0 382:0 383:0 384:0 385:0 386:0.058568329 387:0.11447238 388:0.52883917 389:0.4703067 390:0 391:0 392:0 393:0 394:0 395:0 396:0 397:0 398:0.057988464 399:0.087272628 400:0.084337703 401:0.026395873 402:0 403:0 404:0 405:0 406:0 407:0 408:0 409:0 410:0.028704299 411:0.028704299 412:0 413:0 414:0 415:0 416:0 417:0 418:0 419:0 420:0 421:0 422:0 423:0 424:0 425:0 426:0 427:0 428:0 429:0 430:0 431:0 432:0 433:0 434:0 435:0 436:0 437:0 438:0 439:0 440:0 441:0 442:0 443:0 444:0 445:0 446:0 447:0 448:0 449:0 450:0 451:0 452:0 453:0 454:0 455:0 456:0 457:0 458:0 459:0 460:0 461:0 462:0 463:0.17436593 464:0.41836285 465:0.24157515 466:0 467:0 468:0 469:0 470:0 471:0 472:0 473:0 474:0 475:0.46727823 476:0.85016005 477:0.72943075 478:0.12048259 479:0 480:0 481:0 482:0 483:0 484:0 485:0 486:0 487:0.28711224 488:0.72406394 489:0.72115675 490:0.11809688 491:0 492:0 493:0 494:0 495:0 496:0 497:0 498:0 499:0 500:0 501:0 502:0 503:0 504:0 505:0 506:0 507:0 508:0.20165924 509:0.19766612 510:0 511:0 512:0 513:0 514:0 515:0 516:0 517:0 518:0 519:0.60362898 520:0.80130189 521:0.39932536 522:0 523:0 524:0 525:0 526:0 527:0 528:0 529:0 530:0.40132334 531:0.99698583 532:1 533:0.59398916 534:0 535:0 536:0 537:0 538:0 539:0 540:0 541:0 542:0.39734998 543:0.59865329 544:0.59267518 545:0.19472325 546:0 547:0 548:0 549:0 550:0 551:0 552:0 553:0 554:0.1966883 555:0.1966883 556:0 557:0 558:0 559:0 560:0 561:0 562:0 563:0 564:0 565:0 566:0 567:0 568:0 569:0 570:0 571:0 572:0 573:0 574:0 575:0 576:0 577:0 578:0 579:0 580:0 581:0 582:0 583:0 584:0 585:0 586:0 587:0 588:0 589:0 590:0 591:0 592:0 593:0 594:0 595:0 596:0 597:0 598:0 599:0 600:0 601:0 602:0 603:0 604:0 605:0 606:0 607:0.24844179 608:0.24844179 609:0 610:0 611:0 612:0 613:0 614:0 615:0 616:0 617:0 618:0 619:0.74906757 620:0.99750936 621:0.73915452 622:0 623:0 624:0 625:0 626:0 627:0 628:0 629:0 630:0 631:0.49071273 632:0.99254044 633:0.73428399 634:0 635:0 636:0 637:0 638:0 639:0 640:0 641:0 642:0 643:0 644:0 645:0 646:0 647:0 648:0 649:0 650:0 651:0 652:0.24968711 653:0.24474297 654:0 655:0 656:0 657:0 658:0 659:0 660:0 661:0 662:0 663:0 664:0.24968711 665:0.24968711 666:0 667:0 668:0 669:0 670:0 671:0 672:0 673:0 674:0.24968711 675:0.24474297 676:0.24474297 677:0.24474297 678:0 679:0 680:0 681:0 682:0 683:0 684:0 685:0 686:0.24968711 687:0.24968711 688:0 689:0 690:0 691:0 692:0 693:0 694:0 695:0 696:0 697:0 698:0.24474297 699:0.24474297 700:0 701:0 702:0 703:0 704:0 705:0 706:0 707:0 708:0 709:0 710:0 711:0 712:0 713:0 714:0 715:0 716:0 717:0 718:0 719:0 
1.54230646095601 2.419496610964476 1.568260429222654 0:0 1:0 2:0 3:0 4:0 5:0 6:0 7:0.03621496 8:0.03621496 9:0.035497855 10:0 11:0 12:0 13:0 14:0 15:0 16:0 17:0 18:0 19:0.035497855 20:0.03621496 21:0.035497855 22:0 23:0 24:0 25:0 26:0 27:0 28:0 29:0.24356922 30:0.23874623 31:0 32:0 33:0.23602827 34:0.2313546 35:0 36:0 37:0 38:0 39:0 40:0 41:0.29618729 42:0.29609244 43:0 44:0 45:0.69513026 46:0.68792128 47:0.1414698 48:0 49:0 50:0 51:0 52:0 53:0.24818333 54:0.24818333 55:0 56:0 57:0.74043798 58:0.84814599 59:0.48032505 60:0 61:0 62:0.18372078 63:0.18372078 64:0.020178537 65:0.019778976 66:0 67:0 68:0 69:0.28361865 70:0.55454162 71:0.54517735 72:0 73:0 74:0.62893955 75:0.75894148 76:0.55082013 77:0.1677848 78:0.019778976 79:0 80:0 81:0 82:0.20836657 83:0.20582502 84:0 85:0 86:0.87257227 87:1 88:0.99633154 89:0.16738524 90:0.019778976 91:0 92:0 93:0 94:0 95:0 96:0 97:0 98:0.64279067 99:0.86925824 100:0.85204577 101:0 102:0 103:0 104:0 105:0 106:0 107:0 108:0 109:0 110:0.21138751 111:0.41115658 112:0.40301514 113:0 114:0 115:0 116:0 117:0 118:0 119:0 120:0 121:0 122:0 123:0 124:0 125:0 126:0 127:0 128:0 129:0 130:0 131:0 132:0 133:0 134:0 135:0 136:0 137:0 138:0 139:0 140:0 141:0 142:0 143:0 144:0 145:0 146:0 147:0 148:0 149:0 150:0 151:0.53208216 152:0.52957898 153:0.27495657 154:0 155:0 156:0 157:0 158:0 159:0 160:0 161:0 162:0 163:0.52154622 164:0.52957898 165:0.27495657 166:0 167:0 168:0 169:0 170:0 171:0 172:0 173:0.17125544 174:0.17125544 175:0.16786436 176:0 177:0.14280023 178:0.1399726 179:0 180:0 181:0 182:0 183:0 184:0 185:0.16786436 186:0.17125544 187:0.16786436 188:0 189:0.54934248 190:0.54367304 191:0.1399726 192:0 193:0 194:0 195:0 196:0 197:0 198:0 199:0 200:0 201:0.7411095 202:0.99619251 203:0.39529353 204:0 205:0 206:0 207:0 208:0.2819564 209:0.27637329 210:0 211:0 212:0 213:0.33748343 214:0.71915698 215:0.71002286 216:0 217:0 218:0.036923562 219:0.036923562 220:0.56391281 221:0.56391281 222:0.27637329 223:0 224:0 225:0 226:0.45195273 227:0.4480085 228:0 229:0 230:0.058237596 231:0.058789158 232:0.33399835 233:0.5583297 234:0.3336521 235:0.056710294 236:0 237:0 238:0 239:0 240:0 241:0 242:0.10919113 243:0.21535413 244:0.21282247 245:0.028142487 246:0.05727881 247:0.056710294 248:0 249:0 250:0 251:0 252:0 253:0 254:0.086198586 255:0.17544122 256:0.1736999 257:0 258:0 259:0 260:0 261:0 262:0 263:0 264:0 265:0 266:0 267:0 268:0 269:0 270:0 271:0 272:0 273:0 274:0 275:0 276:0 277:0 278:0 279:0 280:0 281:0 282:0 283:0 284:0 285:0 286:0 287:0 288:0 289:0 290:0 291:0 292:0 293:0 294:0 295:0.10839181 296:0.10785121 297:0.052989949 298:0 299:0 300:0 301:0 302:0 303:0 304:0 305:0 306:0 307:0.10624551 308:0.10785121 309:0.052989949 310:0 311:0 312:0 313:0 314:0 315:0 316:0 317:0.21662223 318:0.21574012 319:0.12543534 320:0 321:0 322:0 323:0 324:0 325:0 326:0 327:0 328:0 329:0.21233282 330:0.21574012 331:0.12543534 332:0 333:0 334:0 335:0 336:0 337:0 338:0 339:0 340:0 341:0 342:0 343:0 344:0 345:0 346:0.2269757 347:0.22248128 348:0 349:0 350:0 351:0 352:0.068347885 353:0.066994506 354:0 355:0 356:0 357:0 358:0.2269757 359:0.2269757 360:0 361:0 362:0 363:0.14266562 364:0.27896635 365:0.20334939 366:0 367:0 368:0 369:0 370:0.22248128 371:0.22248128 372:0 373:0 374:0 375:0.27513076 376:0.73430424 377:0.92974545 378:0.86717063 379:0.52996374 380:0 381:0 382:0 383:0 384:0 385:0 386:0.20585553 387:0.68105072 388:0.88055031 389:0.89758669 390:0.99629731 391:0.52996374 392:0 393:0 394:0 395:0 396:0 397:0 398:0.20177932 399:0.53639628 400:0.80206708 401:0.51929915 402:0.1265698 403:0 404:0 405:0 406:0 407:0 408:0 409:0 410:0 411:0 412:0 413:0 414:0 415:0 416:0 417:0 418:0 419:0 420:0 421:0 422:0 423:0 424:0 425:0 426:0 427:0 428:0 429:0 430:0 431:0 432:0 433:0 434:0 435:0 436:0 437:0 438:0 439:0 440:0 441:0 442:0 443:0 444:0 445:0 446:0 447:0 448:0 449:0 450:0 451:0 452:0 453:0 454:0 455:0 456:0 457:0 458:0 459:0 460:0 461:0.41742171 462:0.41162194 463:0.12205811 464:0 465:0.0010568545 466:0.0010359274 467:0 468:0 469:0 470:0 471:0 472:0 473:0.55199212 474:0.55451169 475:0.12205811 476:0 477:0.0010568545 478:0.0010568545 479:0 480:0 481:0 482:0 483:0 484:0 485:0.28174099 486:0.28174099 487:0 488:0 489:0.0010359274 490:0.0010359274 491:0 492:0 493:0 494:0.03970424 495:0.03970424 496:0.13844019 497:0.13569889 498:0 499:0 500:0 501:0 502:0 503:0 504:0 505:0 506:0.079607499 507:0.54765331 508:0.74097766 509:0.42783792 510:0 511:0 512:0 513:0 514:0 515:0 516:0 517:0 518:0.097890446 519:0.66016823 520:1 521:0.80012087 522:0.27099158 523:0.051078201 524:0 525:0 526:0 527:0 528:0 529:0 530:0.087656069 531:0.37683995 532:0.78092947 533:0.75824686 534:0.36734959 535:0.051078201 536:0 537:0 538:0 539:0 540:0 541:0 542:0.028878744 543:0.21693717 544:0.44046354 545:0.38047957 546:0.094449994 547:0 548:0 549:0 550:0 551:0 552:0 553:0 554:0 555:0 556:0 557:0 558:0 559:0 560:0 561:0 562:0 563:0 564:0 565:0 566:0 567:0 568:0 569:0 570:0 571:0 572:0 573:0 574:0 575:0 576:0 577:0 578:0 579:0 580:0 581:0 582:0 583:1 584:0.99501248 585:0.48887409 586:0 587:0 588:0 589:0 590:0 591:0 592:0 593:0 594:0 595:0.98019867 596:0.99501248 597:0.48887409 598:0 599:0 600:0 601:0 602:0 603:0 604:0 605:0.49875 606:0.49875 607:0.48887409 608:0 609:0.49875 610:0.48887409 611:0 612:0 613:0 614:0 615:0 616:0 617:0.99012409 618:0.99501248 619:0.48887409 620:0 621:0.49875 622:0.49875 623:0 624:0 625:0 626:0 627:0 628:0 629:0.49626248 630:0.49626248 631:0 632:0 633:0.48887409 634:0.49875 635:0.48887409 636:0 637:0 638:0.49626248 639:0.49626248 640:0 641:0 642:0 643:0 644:0 645:0 646:0.49875 647:0.49875 648:0 649:0 650:0.49626248 651:0.99501248 652:0.98762409 653:0.49875 654:0.48887409 655:0 656:0 657:0 658:0.48887409 659:0.48887409 660:0 661:0 662:0 663:0.99007459 664:0.98034571 665:0.98762409 666:0.98762409 667:0.48887409 668:0 669:0 670:0 671:0 672:0 673:0 674:0 675:0.48887409 676:0.48887409 677:0.48887409 678:0.49875 679:0.48887409 680:0 681:0 682:0 683:0 684:0 685:0 686:0 687:0 688:0 689:0 690:0 691:0 692:0 693:0 694:0 695:0 696:0 697:0 698:0 699:0 700:0 701:0 702:0 703:0 704:0 705:0 706:0 707:0 708:0 709:0 710:0 711:0 712:0 713:0 714:0 715:0 716:0 717:0 718:0 719:0 
0 0 0.02959958937796198 0:0 1:0 2:0 3:0 4:0 5:0 6:0 7:0 8:0 9:0 10:0 11:0 12:0 13:0 14:0 15:0 16:0 17:0 18:0 19:0 20:0 21:0 22:0 23:0 24:0 25:0 26:0 27:0 28:0 29:0 30:0 31:0 32:0 33:0 34:0 35:0 36:0 37:0 38:0.13673428 39:0.13402676 40:0 41:0 42:0 43:0 44:0 45:0 46:0 47:0 48:0 49:0 50:0.41957331 51:0.45084833 52:0.038146981 53:0 54:0 55:0 56:0 57:0 58:0 59:0 60:0 61:0 62:0.34297053 63:0.70140606 64:0.35749339 65:0.037767412 66:0 67:0 68:0 69:0 70:0 71:0 72:0 73:0 74:0.071448112 75:0.79261016 76:0.75629073 77:0.037019567 78:0.2295723 79:0.22502646 80:0 81:0 82:0 83:0 84:0 85:0 86:0 87:0.52152593 88:0.52152593 89:0 90:0.2295723 91:0.2295723 92:0 93:0 94:0 95:0 96:0 97:0 98:0 99:0 100:0 101:0 102:0.22502646 103:0.22502646 104:0.020454642 105:0.041011813 106:0.020150112 107:0 108:0 109:0 110:0 111:0 112:0 113:0 114:0 115:0 116:0.31536789 117:0.54657138 118:0.3667875 119:0 120:0 121:0 122:0 123:0 124:0 125:0 126:0 127:0 128:0.28907357 129:0.8550948 130:0.71877787 131:0.26628684 132:0 133:0 134:0 135:0 136:0 137:0 138:0 139:0 140:0 141:0.35257846 142:1 143:0.91157917 144:0 145:0 146:0 147:0 148:0 149:0 150:0 151:0 152:0 153:0 154:0 155:0 156:0 157:0 158:0 159:0 160:0 161:0 162:0 163:0 164:0 165:0 166:0 167:0 168:0 169:0 170:0 171:0 172:0 173:0 174:0 175:0 176:0 177:0 178:0 179:0 180:0 181:0 182:0 183:0 184:0.029955827 185:0.1174836 186:0.25319458 187:0.26774083 188:0.10200105 189:0 190:0 191:0 192:0 193:0 194:0.40400055 195:0.53743713 196:0.29600906 197:0.24123396 198:0.25077518 199:0.33445845 200:0.15852943 201:0 202:0 203:0 204:0 205:0 206:0.55316025 207:0.94830371 208:0.94072287 209:0.68559275 210:0.22350977 211:0.22078687 212:0.15539034 213:0 214:0 215:0 216:0 217:0 218:0.14866837 219:0.73966959 220:1 221:0.96682125 222:0.71642803 223:0.14056332 224:0 225:0 226:0 227:0 228:0 229:0 230:0 231:0.18242275 232:0.18242275 233:0.42888616 234:0.71212669 235:0.28324167 236:0 237:0 238:0 239:0 240:0 241:0 242:0 243:0 244:0 245:0 246:0.14056332 247:0.14056332 248:0 249:0 250:0 251:0 252:0 253:0 254:0 255:0 256:0 257:0 258:0 259:0 260:0.13960831 261:0.54205651 262:0.39690549 263:0 264:0 265:0 266:0 267:0 268:0 269:0 270:0 271:0 272:0.13684388 273:0.76780397 274:0.73850418 275:0.23778188 276:0 277:0 278:0 279:0 280:0 281:0 282:0 283:0 284:0 285:0.22893734 286:0.70633787 287:0.56248961 288:0 289:0 290:0 291:0 292:0 293:0 294:0 295:0 296:0 297:0 298:0 299:0 300:0 301:0 302:0 303:0 304:0 305:0 306:0 307:0 308:0 309:0 310:0 311:0 312:0 313:0 314:0 315:0 316:0 317:0 318:0 319:0 320:0 321:0 322:0 323:0 324:0 325:0 326:0.16623139 327:0.35866976 328:0.58933785 329:0.91573657 330:0.87561071 331:0.4934477 332:0.1356272 333:0 334:0 335:0 336:0 337:0 338:0.16670484 339:0.3800705 340:0.62993158 341:0.92981607 342:1 343:0.75290318 344:0.27467409 345:0 346:0 347:0 348:0 349:0 350:0.048832675 351:0.10959788 352:0.13243535 353:0.35728013 354:0.53937879 355:0.52693132 356:0.26923518 357:0 358:0 359:0 360:0 361:0 362:0.0016046383 363:0.0032497358 364:0.075070923 365:0.11994359 366:0.057756696 367:0.0096316289 368:0 369:0 370:0 371:0 372:0 373:0 374:0 375:0 376:0 377:0.025132246 378:0.044632242 379:0.01945783 380:0 381:0 382:0 383:0 384:0 385:0 386:0 387:0 388:0 389:0 390:0.0096316289 391:0.0096316289 392:0 393:0 394:0 395:0 396:0 397:0 398:0 399:0 400:0 401:0 402:0 403:0 404:0 405:0 406:0 407:0 408:0 409:0 410:0 411:0 412:0 413:0 414:0 415:0 416:0 417:0 418:0 419:0 420:0 421:0 422:0 423:0 424:0 425:0 426:0 427:0 428:0 429:0 430:0 431:0 432:0 433:0 434:0 435:0 436:0 437:0 438:0 439:0 440:0 441:0 442:0 443:0 444:0 445:0 446:0 447:0 448:0 449:0 450:0 451:0 452:0 453:0 454:0 455:0 456:0 457:0 458:0 459:0 460:0 461:0 462:0 463:0 464:0 465:0 466:0 467:0 468:0 469:0 470:0.51132901 471:0.82358866 472:0.47781919 473:0.1635588 474:0 475:0 476:0 477:0 478:0 479:0 480:0 481:0 482:0.68970773 483:0.99211952 484:0.64930902 485:0.1635588 486:0 487:0 488:0 489:0 490:0 491:0 492:0 493:0 494:0.35670865 495:0.52819847 496:0.1680941 497:0 498:0 499:0 500:0 501:0 502:0 503:0 504:0 505:0 506:0 507:0 508:0 509:0 510:0 511:0 512:0 513:0 514:0 515:0 516:0 517:0 518:0 519:0 520:0 521:0 522:0 523:0 524:0 525:0 526:0 527:0 528:0 529:0 530:0 531:0 532:0 533:0 534:0 535:0 536:0.25592373 537:0.51313028 538:0.25211352 539:0 540:0 541:0 542:0 543:0 544:0 545:0 546:0 547:0 548:0.51313028 549:0.7729089 550:0.76269731 551:0 552:0 553:0 554:0 555:0 556:0 557:0 558:0 559:0 560:0.25211352 561:0.76269731 562:0.75258707 563:0 564:0 565:0 566:0 567:0 568:0 569:0 570:0 571:0 572:0 573:0 574:0 575:0 576:0 577:0 578:0 579:0 580:0 581:0 582:0 583:0 584:0 585:0 586:0 587:0 588:0 589:0 590:0 591:0 592:0 593:0 594:0 595:0 596:0 597:0 598:0 599:0 600:0 601:0 602:0 603:0 604:0 605:0 606:0 607:0 608:0 609:0 610:0 611:0 612:0 613:0 614:0 615:0 616:0.5 617:0.5 618:0 619:0 620:0 621:0 622:0 623:0 624:0 625:0 626:0 627:0.5 628:1 629:0.50502508 630:0.49502492 631:0 632:0 633:0 634:0 635:0 636:0 637:0 638:0 639:0.5 640:0.50502508 641:0.99004983 642:0.48522277 643:0 644:0 645:0 646:0 647:0 648:0 649:0 650:0 651:0.50502508 652:0.99502492 653:0.48522277 654:0.50250626 655:0.49255597 656:0 657:0 658:0 659:0 660:0 661:0 662:0 663:0.5 664:0.5 665:0 666:0.50250626 667:0.50250626 668:0 669:0 670:0 671:0 672:0 673:0 674:0 675:0 676:0 677:0 678:0.49255597 679:0.49255597 680:0 681:0.50250626 682:0.49255597 683:0 684:0 685:0 686:0 687:0 688:0 689:0 690:0 691:0 692:0 693:0.50250626 694:0.50250626 695:0 696:0 697:0 698:0 699:0 700:0 701:0 702:0 703:0 704:0 705:0.49255597 706:0.49255597 707:0 708:0 709:0 710:0 711:0 712:0 713:0 714:0 715:0 716:0 717:0 718:0.50502508 719:0.5 
0 4.479542416685878 8 0:0 1:0 2:0 3:0 4:0 5:0 6:0 7:0 8:0 9:0 10:0 11:0 12:0 13:0 14:0 15:0 16:0 17:0 18:0 19:0 20:0 21:0 22:0 23:0 24:0 25:0 26:0 27:0 28:0 29:0 30:0 31:0 32:0.18956445 33:0.18956445 34:0 35:0 36:0 37:0 38:0 39:0 40:0 41:0 42:0 43:0.12808854 44:1 45:0.86217253 46:0.37442046 47:0 48:0 49:0 50:0 51:0 52:0 53:0 54:0 55:0.12808854 56:0.80359945 57:0.99529981 58:0.37070418 59:0 60:0 61:0 62:0 63:0 64:0 65:0 66:0 67:0 68:0.45725121 69:0.45474012 70:0 71:0 72:0.028868257 73:0.093362365 74:0.06321704 75:0 76:0 77:0 78:0 79:0 80:0 81:0 82:0 83:0 84:0.028296627 85:0.093362365 86:0.092790736 87:0 88:0 89:0 90:0 91:0 92:0 93:0 94:0 95:0 96:0 97:0.06321704 98:0.06321704 99:0 100:0 101:0 102:0 103:0 104:0 105:0 106:0 107:0 108:0 109:0 110:0 111:0 112:0 113:0.50396704 114:0.50230034 115:0 116:0 117:0 118:0 119:0 120:0 121:0 122:0 123:0 124:0 125:0.50230034 126:0.50734855 127:0.41561912 128:0 129:0 130:0 131:0 132:0 133:0 134:0 135:0 136:0 137:0 138:0.41561912 139:0.40738931 140:0 141:0 142:0 143:0 144:0 145:0 146:0 147:0 148:0 149:0 150:0 151:0 152:0 153:0 154:0 155:0 156:0 157:0 158:0 159:0 160:0 161:0 162:0 163:0 164:0 165:0 166:0 167:0 168:0 169:0 170:0 171:0 172:0 173:0 174:0 175:0 176:0.23419054 177:0.23392883 178:0 179:0 180:0 181:0 182:0 183:0 184:0 185:0 186:0 187:0 188:0.32690696 189:0.32480935 190:0.21877541 191:0 192:0 193:0 194:0 195:0 196:0 197:0 198:0 199:0 200:0.10567112 201:0.32444652 202:0.21444336 203:0 204:0 205:0 206:0 207:0 208:0 209:0 210:0 211:0 212:0.090880511 213:0.090880511 214:0 215:0 216:0.22643025 217:0.60580704 218:0.37489317 219:0 220:0 221:0 222:0 223:0 224:0 225:0 226:0 227:0 228:0.22194664 229:0.71459006 230:0.7161272 231:0.2624485 232:0 233:0 234:0 235:0 236:0 237:0 238:0 239:0 240:0 241:0.22194664 242:0.48663796 243:0.64461413 244:0.85127714 245:0.21257803 246:0 247:0 248:0 249:0 250:0 251:0 252:0 253:0 254:0 255:0.63600388 256:0.99225901 257:0.99051794 258:0.40928426 259:0 260:0 261:0 262:0 263:0 264:0 265:0 266:0 267:0 268:0.41449613 269:0.76964961 270:0.55994386 271:0.19960588 272:0 273:0 274:0 275:0 276:0 277:0 278:0 279:0 280:0 281:0 282:0.19960588 283:0.19565341 284:0 285:0 286:0 287:0 288:0 289:0 290:0 291:0 292:0 293:0 294:0 295:0 296:0 297:0 298:0 299:0 300:0 301:0 302:0 303:0 304:0 305:0 306:0 307:0 308:0 309:0 310:0 311:0 312:0 313:0 314:0 315:0 316:0 317:0 318:0.17878875 319:0.54987232 320:0.77745178 321:0.40585751 322:0 323:0 324:0 325:0 326:0 327:0 328:0 329:0 330:0.17878875 331:0.73613238 332:0.96186312 333:0.60147516 334:0.20241637 335:0 336:0 337:0 338:0 339:0.080941805 340:0.16228933 341:0.079736739 342:0.085415748 343:0.53179906 344:1 345:0.68153802 346:0.19840826 347:0 348:0 349:0 350:0 351:0.21398778 352:0.29400043 353:0.22581694 354:0.083724402 355:0.17681365 356:0.25576063 357:0.090151676 358:0 359:0 360:0 361:0.19142387 362:0.18988751 363:0.13057055 364:0.29232829 365:0.22261935 366:0 367:0 368:0 369:0 370:0 371:0 372:0 373:0.30582923 374:0.30697329 375:0.23271626 376:0.0078741993 377:0 378:0 379:0 380:0 381:0 382:0 383:0 384:0 385:0.11213998 386:0.30316019 387:0.24260897 388:0.28354376 389:0.099048338 390:0 391:0 392:0 393:0 394:0 395:0 396:0 397:0 398:0 399:0.18087969 400:0.39468829 401:0.48706044 402:0.22349792 403:0 404:0 405:0 406:0 407:0 408:0 409:0 410:0 411:0 412:0.17938504 413:0.40353274 414:0.26040994 415:0.03618111 416:0 417:0 418:0 419:0 420:0 421:0 422:0 423:0 424:0 425:0 426:0.03618111 427:0.035464676 428:0 429:0 430:0 431:0 432:0 433:0 434:0 435:0 436:0 437:0 438:0 439:0 440:0 441:0 442:0 443:0 444:0 445:0 446:0 447:0 448:0 449:0 450:0 451:0 452:0 453:0 454:0 455:0 456:0 457:0 458:0 459:0 460:0 461:0 462:0.034238014 463:0.11309943 464:0.22975991 465:0.15122818 466:0 467:0 468:0 469:0 470:0 471:0 472:0 473:0 474:0.034238014 475:0.41273197 476:1 477:0.61822746 478:0.26728033 479:0 480:0 481:0 482:0 483:0.13748628 484:0.32303117 485:0.18187086 486:0.3755651 487:0.67147 488:0.94741158 489:0.80940368 490:0.26475527 491:0 492:0 493:0 494:0 495:0.6668754 496:0.84479172 497:0.46294261 498:0.36812841 499:0.51949259 500:0.64059221 501:0.30822952 502:0 503:0 504:0 505:0 506:0 507:0.52268024 508:0.84544119 509:0.45657325 510:0 511:0 512:0 513:0 514:0 515:0 516:0 517:0 518:0 519:0.18680609 520:0.18680609 521:0 522:0 523:0 524:0 525:0 526:0 527:0 528:0 529:0 530:0 531:0 532:0 533:0 534:0 535:0 536:0 537:0 538:0 539:0 540:0 541:0 542:0 543:0 544:0 545:0.16365287 546:0.16365287 547:0 548:0 549:0 550:0 551:0 552:0 553:0 554:0 555:0 556:0 557:0.16365287 558:0.1652976 559:0.16202449 560:0 561:0 562:0 563:0 564:0 565:0 566:0 567:0 568:0 569:0 570:0.16202449 571:0.15881619 572:0 573:0 574:0 575:0 576:0 577:0 578:0 579:0 580:0 581:0 582:0 583:0 584:0 585:0 586:0 587:0 588:0 589:0 590:0 591:0 592:0 593:0 594:0 595:0 596:0 597:0 598:0 599:0 600:0 601:0 602:0 603:0 604:0 605:0 606:0.33443424 607:0.33443424 608:0 609:0 610:0 611:0 612:0 613:0 614:0 615:0 616:0 617:0 618:0.33443424 619:0.66886848 620:0.67054484 621:0.32945516 622:0 623:0 624:0 625:0 626:0 627:0 628:0.3361106 629:0.32945516 630:0.33779536 631:0.6655408 632:0.99845617 633:0.66721716 634:0 635:0 636:0 637:0 638:0 639:0.3361106 640:0.66556576 641:0.3361106 642:0.33443424 643:0.33443424 644:0.66056173 645:0.65400538 646:0 647:0 648:0.3361106 649:0.3361106 650:0.32945516 651:0.3361106 652:0.66556576 653:0.32945516 654:0 655:0 656:0 657:0 658:0 659:0 660:0.32945516 661:0.66556576 662:0.66556576 663:0.65891032 664:0.32945516 665:0 666:0 667:0 668:0 669:0 670:0 671:0 672:0 673:0.32945516 674:0.3361106 675:0.6638894 676:0.33443424 677:0 678:0 679:0 680:0 681:0 682:0 683:0 684:0 685:0 686:0 687:0.33443424 688:0.33443424 689:0.33443424 690:0.33443424 691:0 692:0 693:0 694:0 695:0 696:0 697:0 698:0 699:0 700:0 701:0.33443424 702:0.33779536 703:0.33110656 704:0 705:0 706:0 707:0 708:0 709:0 710:0 711:0 712:0 713:0 714:0.33110656 715:0.32455021 716:0 717:0 718:0 719:0 
0.6400844820464003 3.942121641712061 0.9330899789766913 0:0 1:0 2:0 3:0.22551288 4:0.22104742 5:0 6:0 7:0 8:0 9:0 10:0 11:0 12:0 13:0 14:0 15:0.46745019 16:0.46519506 17:0.014991212 18:0 19:0 20:0 21:0 22:0 23:0 24:0 25:0 26:0 27:0.44543555 28:0.6804492 29:0.44770154 30:0.21996677 31:0 32:0 33:0 34:0 35:0 36:0 37:0 38:0 39:0 40:0.66766831 41:0.67435605 42:0.6610029 43:0 44:0 45:0 46:0 47:0 48:0 49:0 50:0 51:0 52:0.21996677 53:0.44547975 54:0.43665866 55:0.17679046 56:0 57:0 58:0 59:0 60:0 61:0 62:0 63:0 64:0 65:0.28776997 66:0.84189616 67:0.54315376 68:0 69:0 70:0 71:0 72:0 73:0.086111095 74:0.25876492 75:0.1700876 76:0 77:0.28776997 78:0.99790462 79:0.99214912 80:0 81:0 82:0 83:0 84:0 85:0.084405981 86:0.25790381 87:0.25619869 88:0.019716263 89:0.019325855 90:0.6316683 91:0.62602677 92:0 93:0 94:0 95:0 96:0 97:0 98:0.084405981 99:0.084405981 100:0.059247616 101:0.059050453 102:0.019325855 103:0 104:0 105:0 106:0 107:0 108:0 109:0 110:0 111:0 112:0.038943782 113:0.058660045 114:0.019325855 115:0 116:0 117:0 118:0 119:0 120:0 121:0 122:0 123:0 124:0 125:0 126:0 127:0 128:0 129:0 130:0 131:0 132:0 133:0 134:0 135:0 136:0 137:0 138:0 139:0 140:0 141:0 142:0 143:0 144:0 145:0 146:0 147:0.14946454 148:0.14650494 149:0 150:0 151:0 152:0 153:0 154:0 155:0 156:0 157:0 158:0 159:0.59519342 160:0.72826052 161:0.15025315 162:0 163:0 164:0 165:0 166:0 167:0 168:0 169:0 170:0 171:0.43964303 172:0.86785015 173:0.70038457 174:0.1346463 175:0 176:0 177:0 178:0 179:0 180:0 181:0 182:0 183:0 184:0.42617353 185:0.70087061 186:0.28775923 187:0 188:0 189:0 190:0 191:0 192:0 193:0 194:0 195:0 196:0.15311293 197:0.15620601 198:0.15311293 199:0 200:0 201:0 202:0 203:0 204:0 205:0 206:0 207:0 208:0 209:0.070417812 210:0.15648975 211:0.084367596 212:0 213:0 214:0 215:0 216:0 217:0.12023147 218:0.50381225 219:0.37858024 220:0 221:0.070417812 222:0.24299312 223:0.24143173 224:0 225:0 226:0 227:0.0076448194 228:0 229:0.11785073 230:0.63074059 231:0.89390844 232:0.53457501 233:0.14822977 234:0.23972739 235:0.2383469 236:0 237:0 238:0 239:0.0075687522 240:0 241:0 242:0.12909389 243:0.5215815 244:0.97291733 245:0.7027996 246:0.14822977 247:0 248:0 249:0 250:0 251:0 252:0 253:0 254:0 255:0 256:0.4373299 257:0.74871473 258:0.31682469 259:0 260:0 261:0 262:0 263:0 264:0 265:0 266:0 267:0 268:0 269:0.16800362 270:0.16525652 271:0 272:0 273:0 274:0 275:0 276:0 277:0 278:0 279:0 280:0 281:0 282:0 283:0 284:0 285:0 286:0 287:0 288:0 289:0 290:0 291:0.019772506 292:0.019380984 293:0 294:0 295:0 296:0 297:0 298:0 299:0 300:0 301:0 302:0 303:0.22932753 304:0.26789991 305:0.040768627 306:0 307:0 308:0 309:0 310:0 311:0 312:0 313:0 314:0 315:0.20616423 316:0.32857307 317:0.28251194 318:0.15759821 319:0 320:0 321:0 322:0 323:0 324:0 325:0 326:0 327:0 328:0.31176641 329:0.70131101 330:0.65509218 331:0.078600144 332:0 333:0 334:0 335:0 336:0 337:0 338:0 339:0 340:0.22547 341:0.53711047 342:0.61115582 343:0.077043757 344:0 345:0 346:0 347:0 348:0 349:0 350:0.068332882 351:0.0669798 352:0 353:0 354:0 355:0 356:0 357:0 358:0 359:0 360:0 361:0.068332882 362:0.24002448 363:0.16931264 364:0 365:0 366:0 367:0 368:0.14820275 369:0.44535111 370:0.75764816 371:0.73669334 372:0 373:0.0669798 374:0.22214708 375:0.36023888 376:0.25612549 377:0.067338264 378:0 379:0.30278624 380:0.69090999 381:0.68575268 382:0.77922984 383:0.88253455 384:0 385:0 386:0.050782681 387:0.25415269 388:0.52307821 389:0.90979977 390:0.87019204 391:0.58320403 392:0.53607207 393:0.71650088 394:0.58254339 395:0.14382269 396:0 397:0 398:0 399:0 400:0.26895322 401:0.85590693 402:1 403:0.7482702 404:0.34607187 405:0.089645004 406:0 407:0 408:0 409:0 410:0 411:0 412:0 413:0.4627949 414:0.66819192 415:0.20583236 416:0 417:0 418:0 419:0 420:0 421:0 422:0 423:0 424:0 425:0 426:0 427:0 428:0 429:0 430:0 431:0 432:0 433:0 434:0 435:0.1957179 436:0.19184242 437:0 438:0 439:0 440:0 441:0 442:0 443:0 444:0 445:0 446:0 447:0.33705181 448:0.33564551 449:0 450:0 451:0 452:0 453:0 454:0 455:0 456:0 457:0 458:0 459:0.33177004 460:0.33177004 461:0.55295679 462:0.37011816 463:0 464:0 465:0 466:0 467:0 468:0 469:0 470:0 471:0 472:0.26713832 473:0.82928771 474:0.82662083 475:0.18459182 476:0 477:0 478:0 479:0 480:0 481:0 482:0 483:0 484:0.088010098 485:0.54835743 486:0.72941988 487:0.18093666 488:0 489:0 490:0 491:0 492:0 493:0 494:0.19762482 495:0.19371158 496:0 497:0.12201556 498:0.36852901 499:0.24528396 500:0 501:0 502:0 503:0 504:0 505:0.19762482 506:0.39524964 507:0.3913364 508:0 509:0.12201556 510:0.36609125 511:0.3636509 512:0.1249144 513:0.37536934 514:0.46403311 515:0.22872935 516:0 517:0.19371158 518:0.3913364 519:0.38742317 520:0 521:0 522:0.12080148 523:0.52625996 524:1 525:0.77449097 526:0.672529 527:0.35240083 528:0 529:0 530:0 531:0 532:0 533:0.33062898 534:0.61511841 535:0.80600023 536:0.86463016 537:0.94260287 538:0.54018154 539:0.12122262 540:0 541:0 542:0 543:0 544:0 545:0.32802343 546:0.60685288 547:0.7153597 548:0.49588157 549:0.16966856 550:0 551:0 552:0 553:0 554:0 555:0 556:0 557:0.066767325 558:0.19639286 559:0.12705878 560:0 561:0 562:0 563:0 564:0 565:0 566:0 567:0 568:0 569:0 570:0 571:0 572:0 573:0 574:0 575:0 576:0 577:0 578:0 579:0 580:0 581:0 582:0 583:0 584:0 585:0 586:0 587:0 588:0 589:0 590:0 591:0.50627499 592:0.50123747 593:0 594:0 595:0 596:0 597:0 598:0 599:0 600:0 601:0 602:0 603:0.50123747 604:0.50123747 605:0.50123747 606:0.50123747 607:0 608:0 609:0 610:0 611:0 612:0 613:0 614:0 615:0 616:0 617:0.50123747 618:0.50627499 619:0.49625007 620:0 621:0 622:0 623:0 624:0 625:0 626:0 627:0 628:0 629:0 630:0.50374993 631:0.49377501 632:0 633:0 634:0 635:0 636:0 637:0 638:0.50374993 639:0.49377501 640:0 641:0 642:0.50374993 643:0.50374993 644:0 645:0 646:0 647:0 648:0 649:0 650:0.50374993 651:0.50374993 652:0 653:0 654:0.99501248 655:0.99501248 656:0 657:0 658:0 659:0.50627499 660:0 661:0 662:0.49377501 663:0.49377501 664:0 665:0 666:0.50123747 667:0.50123747 668:0 669:0 670:0 671:0.50123747 672:0 673:0 674:0 675:0 676:0 677:0 678:0 679:0 680:0 681:0 682:0 683:0 684:0 685:0 686:0 687:0 688:0 689:0 690:0 691:0 692:0 693:0 694:0 695:0 696:0 697:0 698:0 699:0 700:0 701:0 702:0 703:0 704:0 705:0 706:0 707:0 708:0 709:0 710:0 711:0 712:0 713:0 714:0 715:0 716:0 717:0 718:0 719:0 
0 0 1.666391825452963 0:0 1:0 2:0 3:0 4:0 5:0 6:0 7:0 8:0 9:0 10:0 11:0 12:0 13:0 14:0 15:0 16:0 17:0 18:0 19:0 20:0 21:0 22:0 23:0 24:0 25:0 26:0 27:0 28:0 29:0 30:0 31:0 32:0 33:0 34:0 35:0 36:0 37:0 38:0 39:0 40:0 41:0 42:0 43:0 44:0 45:0 46:0 47:0 48:0 49:0 50:0 51:0 52:0 53:0.17170368 54:0.1700037 55:0.084151862 56:0 57:0 58:0 59:0 60:0 61:0 62:0 63:0 64:0.28162223 65:0.73324816 66:0.44774942 67:0.084151862 68:0 69:0 70:0 71:0 72:0 73:0 74:0 75:0 76:0.27604574 77:0.64739632 78:0.64181983 79:0 80:0 81:0 82:0 83:0 84:0 85:0 86:0 87:0 88:0 89:0.27604574 90:0.27604574 91:0 92:0 93:0 94:0 95:0 96:0 97:0 98:0 99:0 100:0 101:0 102:0.65991897 103:0.65991897 104:0.6468517 105:0 106:0 107:0 108:0 109:0 110:0 111:0 112:0 113:0 114:0.99501248 115:0.99501248 116:0.6468517 117:0 118:0 119:0 120:0 121:0 122:0 123:0 124:0 125:0 126:0.34816078 127:0.35165985 128:0.34469652 129:0 130:0 131:0 132:0 133:0 134:0 135:0 136:0 137:0 138:0 139:0.34469652 140:0.33787107 141:0 142:0 143:0 144:0 145:0 146:0 147:0 148:0 149:0 150:0 151:0 152:0 153:0 154:0 155:0 156:0 157:0 158:0 159:0 160:0 161:0 162:0 163:0 164:0 165:0 166:0 167:0 168:0 169:0 170:0 171:0 172:0 173:0 174:0 175:0 176:0 177:0 178:0 179:0 180:0 181:0 182:0 183:0 184:0.58064845 185:0.57390767 186:0.02787818 187:0.1957119 188:0.75745527 189:0.9672437 190:0.37427892 191:0 192:0 193:0 194:0 195:0 196:0.58064845 197:0.80515652 198:0.48176807 199:0.19623228 200:0.74717517 201:0.96031463 202:0.85109029 203:0.13814543 204:0 205:0 206:0 207:0 208:0.33367967 209:0.89184397 210:0.66471967 211:0.11305157 212:0 213:0.47066687 214:0.60414074 215:0.13540997 216:0 217:0 218:0 219:0 220:0.30410455 221:0.61583831 222:0.60973604 223:0 224:0 225:0 226:0 227:0 228:0 229:0 230:0 231:0 232:0.10057677 233:0.47742687 234:0.47539509 235:0 236:0 237:0 238:0 239:0 240:0 241:0 242:0 243:0 244:0 245:0.20449541 246:0.29887095 247:0.22793968 248:0.046820386 249:0 250:0 251:0 252:0 253:0 254:0 255:0 256:0 257:0 258:0.18017346 259:0.22531312 260:0.046820386 261:0 262:0 263:0 264:0 265:0 266:0 267:0 268:0 269:0 270:0.2303748 271:0.46190436 272:0.22694497 273:0 274:0 275:0 276:0 277:0 278:0 279:0 280:0 281:0 282:0.2303748 283:0.46421967 284:0.4596121 285:0 286:0 287:0 288:0 289:0 290:0 291:0 292:0 293:0 294:0 295:0 296:0 297:0 298:0 299:0 300:0 301:0 302:0 303:0 304:0 305:0 306:0 307:0 308:0 309:0 310:0 311:0 312:0 313:0 314:0 315:0 316:0 317:0 318:0 319:0 320:0 321:0 322:0 323:0 324:0.30052866 325:0.59959678 326:0.60276117 327:0.61399915 328:0.74160146 329:0.7654795 330:0.67313211 331:0.66947714 332:0.61349018 333:0.51001531 334:0.21081587 335:0 336:0.30052866 337:0.59959678 338:0.60268126 339:0.60501188 340:0.72917907 341:0.99095803 342:0.95329143 343:0.78602286 344:0.60248931 345:0.5506989 346:0.38943856 347:0.10514179 348:0.14765712 349:0.44439051 350:0.44301352 351:0.14626387 352:0.1298484 353:0.36352402 354:0.41978266 355:0.11654572 356:0 357:0.16196919 358:0.26597533 359:0.10305984 360:0 361:0 362:0 363:0 364:0.25239779 365:0.37946547 366:0.37441675 367:0 368:0 369:0 370:0 371:0 372:0 373:0 374:0 375:0 376:0.12264301 377:0.52647445 378:0.39859902 379:0 380:0 381:0 382:0 383:0 384:0 385:0 386:0 387:0 388:0 389:0.27778193 390:0.57965852 391:0.44129031 392:0.14891743 393:0 394:0 395:0 396:0 397:0 398:0 399:0 400:0 401:0 402:0.33363556 403:0.47360808 404:0.18327755 405:0 406:0 407:0 408:0 409:0 410:0 411:0 412:0 413:0 414:0.096158395 415:0.15826643 416:0.060878215 417:0 418:0 419:0 420:0 421:0 422:0 423:0 424:0 425:0 426:0.061798271 427:0.12452739 428:0.1232914 429:0 430:0 431:0 432:0 433:0 434:0 435:0 436:0 437:0 438:0 439:0 440:0 441:0 442:0 443:0 444:0 445:0 446:0 447:0 448:0 449:0 450:0 451:0 452:0 453:0 454:0 455:0 456:0 457:0 458:0 459:0 460:0 461:0 462:0 463:0 464:0 465:0 466:0 467:0 468:0.15709958 469:0.28891128 470:0.26379474 471:0.25381605 472:0.23416318 473:0.19753518 474:0.12892071 475:0.035387342 476:0 477:0 478:0 479:0 480:0.15709958 481:0.28891128 482:0.26643098 483:0.26120397 484:0.23416318 485:0.99654883 486:0.91316253 487:0.44742602 488:0 489:0 490:0 491:0 492:0.087753786 493:0.22122148 494:0.19716221 495:0.063731768 496:0 497:0.83240109 498:0.84072483 499:0.41203868 500:0 501:0 502:0 503:0 504:0 505:0 506:0 507:0 508:0.29368035 509:0.99793465 510:0.99211939 511:0 512:0 513:0 514:0 515:0 516:0 517:0 518:0 519:0 520:0.28786509 521:0.58589597 522:0.58008071 523:0 524:0 525:0 526:0 527:0 528:0 529:0 530:0 531:0 532:0 533:0 534:0 535:0 536:0 537:0 538:0 539:0 540:0 541:0 542:0 543:0 544:0 545:0 546:0.61245857 547:0.61245857 548:0.37892794 549:0 550:0 551:0 552:0 553:0 554:0 555:0 556:0 557:0 558:0.60480372 559:0.61472866 560:0.60255622 561:0 562:0 563:0 564:0 565:0 566:0 567:0 568:0 569:0 570:0 571:0.22362828 572:0.21920014 573:0 574:0 575:0 576:0 577:0 578:0 579:0 580:0 581:0 582:0 583:0 584:0 585:0 586:0 587:0 588:0 589:0 590:0 591:0 592:0 593:0 594:0 595:0 596:0 597:0 598:0 599:0 600:0 601:0 602:0 603:0 604:0 605:0 606:0 607:0 608:0 609:0 610:0 611:0 612:0.2007982 613:0.19682213 614:0 615:0 616:0.40059491 617:0.39661884 618:0 619:0 620:0 621:0.19979671 622:0.19979671 623:0 624:0.2007982 625:0.2007982 626:0 627:0 628:0.40059491 629:0.79922173 630:0.39760541 631:0 632:0 633:0.19979671 634:0.2018047 635:0.1978087 636:0.19682213 637:0.19682213 638:0 639:0 640:0.2007982 641:0.99602393 642:0.79130886 643:0 644:0 645:0 646:0.1978087 647:0.19389183 648:0 649:0 650:0 651:0 652:0.39762032 653:0.79921671 654:0.79126457 655:0 656:0 657:0 658:0 659:0 660:0 661:0 662:0 663:0 664:0.19682213 665:0.59842354 666:0.59344096 667:0 668:0 669:0 670:0 671:0 672:0 673:0 674:0 675:0 676:0 677:0.39760541 678:0.79629143 679:0.59840361 680:0.19682213 681:0 682:0 683:0 684:0 685:0 686:0 687:0 688:0 689:0 690:0.79522573 691:0.79528493 692:0.39364425 693:0 694:0 695:0 696:0 697:0 698:0 699:0 700:0 701:0 702:0.59641555 703:0.99901844 704:0.59442754 705:0 706:0 707:0 708:0 709:0 710:0 711:0 712:0 713:0 714:0.19979671 715:0.80020831 716:0.79229543 717:0 718:0 719:0 
6.012063803319951 0 0 0:0 1:0 2:0 3:0 4:0 5:0 6:0 7:0 8:0 9:0 10:0 11:0 12:0 13:0 14:0 15:0 16:0 17:0 18:0 19:0 20:0 21:0 22:0 23:0 24:0 25:0 26:0 27:0 28:0 29:0 30:0 31:0 32:0 33:0 34:0 35:0 36:0 37:0 38:0 39:0 40:0 41:0 42:0 43:0 44:0 45:0 46:0 47:0 48:0 49:0 50:0 51:0 52:0 53:0 54:0 55:0.66626102 56:0.65306817 57:0 58:0 59:0 60:0 61:0.50186173 62:0.49686813 63:0 64:0 65:0 66:0.18497544 67:0.84791347 68:0.84425071 69:0 70:0 71:0 72:0 73:0.99747208 74:0.99257735 75:0.49315093 76:0 77:0.10463407 78:0.28594675 79:0.51069319 80:0.50703043 81:0 82:0 83:0 84:0 85:0.49563525 86:0.75030514 87:0.73544811 88:0 89:0.76862981 90:0.75756409 91:0.20666922 92:0 93:0 94:0 95:0 96:0 97:0 98:0.2471919 99:0.24229718 100:0.030202225 101:0.68868134 102:0.76586293 103:0.20461794 104:0 105:0 106:0 107:0 108:0 109:0 110:0 111:0 112:0.63463007 113:0.63463007 114:0.62424519 115:0 116:0 117:0 118:0 119:0 120:0 121:0 122:0 123:0 124:0.60005268 125:0.63818354 126:0.62554666 127:0 128:0 129:0 130:0 131:0 132:0 133:0 134:0 135:0 136:0.14848927 137:0.52814848 138:0.51769044 139:0 140:0 141:0 142:0 143:0 144:0 145:0 146:0 147:0 148:0 149:0 150:0 151:0 152:0 153:0 154:0 155:0 156:0 157:0 158:0 159:0 160:0 161:0 162:0 163:0 164:0 165:0 166:0 167:0 168:0 169:0 170:0 171:0 172:0 173:0 174:0 175:0 176:0 177:0 178:0 179:0 180:0 181:0 182:0 183:0 184:0.075204442 185:0.31711629 186:0.6487392 187:0.72263463 188:0.65145862 189:0.33017788 190:0 191:0 192:0 193:0 194:0 195:0 196:0.073715295 197:0.31083696 198:0.64670639 199:0.71939011 200:0.96790024 201:1 202:0.87600708 203:0.36002484 204:0 205:0.30837178 206:0.30530343 207:0 208:0 209:0 210:0.16303687 211:0.37694358 212:0.68882981 213:0.9886955 214:0.87263089 215:0.36002484 216:0 217:0.61290235 218:0.60989476 219:0.30301937 220:0 221:0 222:0 223:0 224:0 225:0 226:0 227:0 228:0 229:0.30454588 230:0.46102923 231:0.45190024 232:0 233:0 234:0 235:0 236:0 237:0 238:0 239:0 240:0 241:0 242:0.15188846 243:0.14888087 244:0.40506624 245:0.40506624 246:0 247:0 248:0 249:0 250:0 251:0 252:0 253:0 254:0 255:0 256:0.81216289 257:0.81623387 258:0.80007136 259:0 260:0 261:0 262:0 263:0 264:0 265:0 266:0 267:0 268:0.39903559 269:0.80813241 270:0.79213032 271:0 272:0 273:0 274:0 275:0 276:0 277:0 278:0 279:0 280:0.27164101 281:0.72451958 282:0.71684284 283:0.21754399 284:0 285:0 286:0 287:0 288:0 289:0 290:0 291:0 292:0 293:0 294:0 295:0 296:0 297:0 298:0 299:0 300:0 301:0 302:0 303:0 304:0 305:0 306:0 307:0 308:0 309:0 310:0 311:0 312:0 313:0 314:0 315:0 316:0 317:0 318:0 319:0 320:0 321:0 322:0 323:0 324:0 325:0 326:0 327:0.23415965 328:0.81133489 329:0.96664 330:0.93550334 331:0.89443999 332:0.66578107 333:0.30852698 334:0 335:0 336:0 337:0.045097379 338:0.13574424 339:0.36945966 340:0.84829489 341:0.95970271 342:0.93304806 343:0.93502363 344:1 345:0.94527579 346:0.79007983 347:0.33313723 348:0 349:0.13597143 350:0.22481886 351:0.26924483 352:0.50693139 353:0.36928008 354:0.19364402 355:0.60428035 356:0.88382967 357:0.93091898 358:0.78712943 359:0.33313723 360:0 361:0.089074619 362:0.17949543 363:0.13261648 364:0 365:0 366:0.010967268 367:0.022156089 368:0.021934535 369:0 370:0 371:0 372:0 373:0 374:0 375:0 376:0 377:0 378:0 379:0 380:0 381:0 382:0 383:0 384:0 385:0 386:0 387:0 388:0 389:0 390:0 391:0 392:0 393:0 394:0 395:0 396:0 397:0 398:0 399:0 400:0 401:0 402:0 403:0 404:0 405:0 406:0 407:0 408:0 409:0 410:0 411:0 412:0 413:0 414:0 415:0 416:0 417:0 418:0 419:0 420:0 421:0 422:0 423:0 424:0.11427462 425:0.35572995 426:0.35224377 427:0.11615693 428:0 429:0 430:0 431:0 432:0 433:0 434:0 435:0 436:0 437:0 438:0 439:0 440:0 441:0 442:0 443:0 444:0 445:0 446:0 447:0 448:0 449:0 450:0 451:0 452:0 453:0 454:0 455:0 456:0 457:0 458:0 459:0 460:0 461:0 462:0 463:0 464:0 465:0 466:0 467:0 468:0 469:0 470:0 471:0.33583119 472:0.45922826 473:0.12505599 474:0.09172425 475:0.089907988 476:0 477:0 478:0 479:0 480:0 481:0.16749581 482:0.50416657 483:0.83834785 484:0.7541481 485:0.2921378 486:0.13306215 487:0.31684477 488:0.22244313 489:0 490:0 491:0 492:0 493:0.50501035 494:0.83499788 495:1 496:0.70466714 497:0.20388346 498:0.19814657 499:0.51470487 500:0.42087332 501:0 502:0 503:0 504:0 505:0.33083131 506:0.6666625 507:0.49254979 508:0 509:0.1504321 510:0.3446551 511:0.39236957 512:0.38844601 513:0 514:0 515:0 516:0 517:0 518:0 519:0 520:0 521:0.59433948 522:0.58854321 523:0.29712773 524:0 525:0 526:0 527:0 528:0 529:0 530:0 531:0 532:0 533:0.437905 534:0.59133079 535:0.29417861 536:0 537:0 538:0 539:0 540:0 541:0 542:0 543:0 544:0.22190862 545:0.2492214 546:0.24701886 547:0 548:0 549:0 550:0 551:0 552:0 553:0 554:0 555:0 556:0.21970609 557:0.22302094 558:0.21860483 559:0 560:0 561:0 562:0 563:0 564:0 565:0 566:0 567:0 568:0 569:0.10957567 570:0.10740593 571:0 572:0 573:0 574:0 575:0 576:0 577:0 578:0 579:0 580:0 581:0 582:0 583:0 584:0 585:0 586:0 587:0 588:0 589:0 590:0 591:0 592:0 593:0 594:0 595:0 596:0 597:0 598:0 599:0 600:0 601:0 602:0 603:0 604:0 605:0 606:0 607:0 608:0 609:0 610:0 611:0 612:0 613:0 614:0 615:0 616:0 617:0.25375452 618:0.50750903 619:0.50121875 620:0.25248891 621:0 622:0 623:0 624:0 625:0 626:0 627:0 628:0 629:0.24872984 630:0.50750903 631:0.75624522 632:0.50751538 633:0.2499766 634:0 635:0 636:0 637:0 638:0 639:0 640:0 641:0 642:0.25375452 643:0.75497327 644:0.75119535 645:0.24502673 646:0 647:0 648:0 649:0.25248891 650:0.25248891 651:0 652:0 653:0.25248891 654:0.50121875 655:0.25375452 656:0.24872984 657:0 658:0 659:0 660:0 661:0.25248891 662:0.25502647 663:0.2499766 664:0 665:0.50624343 666:0.50121875 667:0.2499766 668:0 669:0 670:0 671:0 672:0 673:0 674:0.2499766 675:0.24502673 676:0.25248891 677:0.50624343 678:0.50373112 679:0.24502673 680:0 681:0 682:0 683:0 684:0 685:0 686:0 687:0 688:0.50497782 689:0.50497782 690:0.49870644 691:0 692:0 693:0 694:0 695:0 696:0 697:0 698:0 699:0 700:0.25248891 701:0.50500307 702:0.49500334 703:0 704:0 705:0 706:0 707:0 708:0 709:0 710:0 711:0 712:0.25375452 713:0.50750903 714:0.74751109 715:0.24872984 716:0 717:0 718:0 719:0 
0.7464742493149982 1.26744604015793 8 0:0 1:0 2:0 3:0 4:0 5:0 6:0 7:0 8:0 9:0 10:0 11:0 12:0 13:0 14:0 15:0 16:0 17:0 18:0 19:0 20:0 21:0 22:0 23:0 24:0 25:0 26:0 27:0 28:0 29:0.14367155 30:0.14082667 31:0 32:0 33:0 34:0 35:0 36:0 37:0 38:0 39:0 40:0 41:0.14367155 42:0.6797767 43:0.53358739 44:0 45:0 46:0 47:0 48:0 49:0 50:0 51:0 52:0 53:0.14082667 54:0.67441405 55:1 56:0.4821825 57:0.21910772 58:0 59:0 60:0 61:0 62:0 63:0 64:0 65:0 66:0 67:0.47775623 68:0.73965676 69:0.73005744 70:0 71:0 72:0 73:0 74:0 75:0 76:0 77:0 78:0 79:0 80:0.51094972 81:0.5058791 82:0 83:0 84:0 85:0 86:0 87:0 88:0 89:0 90:0 91:0 92:0 93:0 94:0 95:0 96:0 97:0 98:0 99:0 100:0 101:0 102:0 103:0 104:0 105:0 106:0 107:0 108:0 109:0 110:0 111:0 112:0 113:0 114:0 115:0 116:0 117:0 118:0 119:0 120:0 121:0 122:0 123:0 124:0 125:0 126:0 127:0 128:0 129:0 130:0 131:0 132:0 133:0 134:0 135:0 136:0 137:0 138:0 139:0 140:0 141:0 142:0 143:0 144:0 145:0 146:0 147:0.15200824 148:0.41837146 149:0.26108887 150:0 151:0 152:0 153:0 154:0 155:0 156:0 157:0 158:0 159:0.15200824 160:0.67657665 161:0.70519859 162:0.28322683 163:0 164:0 165:0 166:0 167:0 168:0 169:0 170:0 171:0 172:0.41158461 173:0.76135311 174:0.40200332 175:0 176:0 177:0 178:0 179:0 180:0 181:0 182:0 183:0 184:0.0981364 185:0.57595943 186:0.67202981 187:0.19264887 188:0 189:0 190:0 191:0 192:0 193:0 194:0 195:0 196:0 197:0.46991941 198:0.66257568 199:0.19264887 200:0 201:0 202:0 203:0 204:0 205:0 206:0 207:0 208:0 209:0 210:0 211:0 212:0.37549009 213:0.3717539 214:0 215:0 216:0.18264672 217:0.18264672 218:0 219:0 220:0 221:0 222:0.09142474 223:0.090515049 224:0.3717539 225:0.3717539 226:0 227:0 228:0.36620896 229:0.79343559 230:0.80213819 231:0.51490446 232:0.20874332 233:0.068771564 234:0.090515049 235:0.090515049 236:0 237:0 238:0 239:0 240:0.17992746 241:0.59869444 242:0.99535127 243:0.65984189 244:0.44506534 245:0.29063475 246:0.10298625 247:0.02260223 248:0 249:0 250:0 251:0 252:0 253:0 254:0.20886003 255:0.44205182 256:0.4376348 257:0.28787688 258:0.10298625 259:0.02260223 260:0 261:0 262:0 263:0 264:0 265:0 266:0 267:0 268:0 269:0 270:0 271:0 272:0 273:0 274:0 275:0 276:0 277:0 278:0 279:0 280:0 281:0 282:0 283:0 284:0 285:0 286:0 287:0 288:0 289:0 290:0 291:0.16594609 292:0.30321415 293:0.13454997 294:0 295:0 296:0 297:0 298:0 299:0 300:0 301:0 302:0 303:0.16594609 304:0.50677627 305:0.70767193 306:0.40207817 307:0 308:0 309:0 310:0 311:0 312:0 313:0 314:0 315:0 316:0.36527255 317:0.73296869 318:0.40207817 319:0 320:0 321:0 322:0 323:0 324:0 325:0 326:0 327:0 328:0.16574122 329:0.50007057 330:0.66475235 331:0.33018552 332:0 333:0 334:0 335:0 336:0 337:0 338:0 339:0 340:0 341:0.32794666 342:0.65819302 343:0.33018552 344:0 345:0 346:0 347:0 348:0 349:0 350:0 351:0 352:0 353:0 354:0.13129726 355:0.39228875 356:0.47979687 357:0.21701189 358:0 359:0 360:0.12000055 361:0.12000055 362:0 363:0 364:0 365:0 366:0.43482606 367:0.69242018 368:0.74192465 369:0.34916591 370:0 371:0 372:0.24060261 373:0.46643532 374:0.5341225 375:0.67117529 376:0.54142846 377:0.1783764 378:0.29751853 379:0.56004398 380:0.62209985 381:0.74720488 382:0.40293207 383:0 384:0.11821397 385:0.35940913 386:0.58891228 387:0.67117529 388:0.93808102 389:1 390:0.84867712 391:0.83358172 392:0.75349979 393:0.75115164 394:0.60996873 395:0.20095735 396:0 397:0 398:0.12705102 399:0.48469794 400:0.89281626 401:0.96162427 402:0.84867712 403:0.83358172 404:0.75072702 405:0.74027991 406:0.59789054 407:0.19697813 408:0 409:0 410:0 411:0 412:0 413:0 414:0 415:0 416:0 417:0 418:0 419:0 420:0 421:0 422:0 423:0 424:0 425:0 426:0 427:0 428:0 429:0 430:0 431:0 432:0 433:0 434:0 435:0.05989729 436:0.05989729 437:0 438:0 439:0 440:0 441:0 442:0 443:0 444:0 445:0 446:0 447:0.05989729 448:0.060499268 449:0.059301302 450:0 451:0 452:0 453:0 454:0 455:0 456:0 457:0 458:0 459:0 460:0.059301302 461:0.058127058 462:0 463:0 464:0 465:0 466:0 467:0 468:0 469:0 470:0 471:0 472:0 473:0 474:0 475:0 476:0 477:0 478:0 479:0 480:0 481:0 482:0 483:0 484:0 485:0 486:0 487:0.4314715 488:0.4314715 489:0.21199255 490:0 491:0 492:0 493:0 494:0 495:0 496:0 497:0 498:0.10039788 499:0.75186525 500:0.89808236 501:0.54842501 502:0 503:0 504:0 505:0 506:0 507:0 508:0 509:0 510:0.30013337 511:0.52242932 512:0.88299095 513:0.57835905 514:0 515:0 516:0 517:0 518:0 519:0 520:0 521:0 522:0.19578046 523:0.39704136 524:0.53766942 525:0.24127137 526:0.03568585 527:0 528:0 529:0 530:0 531:0 532:0 533:0 534:0.031231857 535:0.137055 536:0.28632821 537:0.28816328 538:0.12535539 539:0.017797873 540:0 541:0 542:0 543:0 544:0 545:0 546:0.030613425 547:0.13434113 548:0.20993239 549:0.28421338 550:0.12287318 551:0.017445451 552:0 553:0 554:0 555:0 556:0 557:0 558:0 559:0 560:0 561:0 562:0 563:0 564:0 565:0 566:0 567:0 568:0 569:0 570:0 571:0 572:0 573:0 574:0 575:0 576:0 577:0 578:0 579:0.33166806 580:0.33166806 581:0 582:0 583:0 584:0 585:0 586:0 587:0 588:0 589:0 590:0 591:0.33166806 592:0.33500138 593:0.66003597 594:0.33166806 595:0 596:0 597:0 598:0 599:0 600:0 601:0 602:0 603:0 604:0.33166806 605:0.66003597 606:0.33166806 607:0 608:0 609:0 610:0 611:0 612:0 613:0 614:0 615:0 616:0.33166806 617:0.33500138 618:0.66003597 619:0.33166806 620:0 621:0 622:0 623:0 624:0 625:0 626:0 627:0 628:0 629:0.32836791 630:0.65353385 631:0.98686441 632:0.66499862 633:0.32673017 634:0 635:0 636:0 637:0 638:0 639:0 640:0 641:0 642:0 643:0.65839823 644:1 645:0.98676614 646:0 647:0 648:0.33166806 649:0.33166806 650:0 651:0 652:0 653:0 654:0.33500138 655:0.33166806 656:0.66003597 657:0.65353385 658:0 659:0 660:0.33166806 661:0.33500138 662:0.32836791 663:0 664:0 665:0 666:0.33166806 667:0.33166806 668:0 669:0.33166806 670:0.33166806 671:0 672:0 673:0.32836791 674:0.32186579 675:0 676:0 677:0 678:0 679:0 680:0 681:0.33166806 682:0.33500138 683:0.32836791 684:0 685:0 686:0 687:0 688:0 689:0 690:0 691:0 692:0 693:0 694:0.32836791 695:0.32186579 696:0 697:0 698:0 699:0 700:0 701:0 702:0 703:0 704:0 705:0 706:0 707:0 708:0 709:0 710:0 711:0 712:0 713:0 714:0 715:0 716:0 717:0 718:0 719:0 
0 0 8 0:0 1:0 2:0 3:0 4:0 5:0 6:0 7:0 8:0 9:0 10:0 11:0 12:0 13:0 14:0 15:0 16:0 17:0 18:0 19:0 20:0 21:0 22:0 23:0 24:0 25:0 26:0 27:0 28:0 29:0 30:0 31:0 32:0 33:0 34:0 35:0 36:0 37:0 38:0.56975792 39:0.81537021 40:0.27993607 41:0 42:0 43:0 44:0 45:0 46:0 47:0 48:0 49:0 50:0.56410284 51:0.80971513 52:0.80935606 53:0.2431684 54:0 55:0 56:0 57:0 58:0 59:0 60:0 61:0 62:0 63:0.28133926 64:0.51893677 65:0.23835335 66:0 67:0 68:0 69:0 70:0 71:0 72:0 73:0 74:0 75:0 76:0 77:0 78:0 79:0 80:0 81:0 82:0 83:0 84:0 85:0 86:0 87:0 88:0 89:0 90:0 91:0 92:0.37978707 93:0.7100117 94:0.32693884 95:0 96:0 97:0 98:0 99:0 100:0 101:0 102:0 103:0 104:0.37978707 105:0.71054283 106:0.70294696 107:0 108:0 109:0 110:0 111:0 112:0 113:0 114:0 115:0 116:0.58836513 117:0.69065155 118:0.36856267 119:0 120:0 121:0 122:0 123:0 124:0 125:0 126:0 127:0.36465265 128:0.94672481 129:0.58520291 130:0 131:0 132:0 133:0 134:0 135:0 136:0 137:0 138:0 139:0.73113314 140:1 141:0.98545003 142:0 143:0 144:0 145:0 146:0 147:0 148:0 149:0 150:0 151:0 152:0 153:0 154:0 155:0 156:0 157:0 158:0 159:0 160:0 161:0 162:0 163:0 164:0 165:0 166:0 167:0 168:0 169:0 170:0 171:0 172:0 173:0 174:0 175:0 176:0 177:0 178:0 179:0 180:0 181:0 182:0.28200848 183:0.85209211 184:0.71778758 185:0.14667466 186:0 187:0 188:0 189:0 190:0 191:0 192:0 193:0 194:0.27960417 195:0.84479104 196:1 197:0.61588926 198:0.23774536 199:0 200:0 201:0 202:0 203:0 204:0 205:0 206:0 207:0.1589891 208:0.62209248 209:0.94381008 210:0.97146656 211:0.72630669 212:0.35685233 213:0 214:0 215:0 216:0 217:0 218:0 219:0 220:0 221:0.47908378 222:0.72636549 223:0.92690435 224:0.99338946 225:0.26671507 226:0 227:0 228:0 229:0 230:0 231:0 232:0 233:0 234:0 235:0.71549339 236:0.979079 237:0.33500761 238:0.068292543 239:0 240:0 241:0 242:0 243:0 244:0 245:0 246:0 247:0 248:0 249:0.068292543 250:0.068292543 251:0 252:0 253:0 254:0 255:0 256:0 257:0 258:0 259:0 260:0.42757167 261:0.41910518 262:0 263:0 264:0 265:0 266:0 267:0 268:0 269:0 270:0 271:0.028408698 272:0.45339346 273:0.42627175 274:0 275:0 276:0 277:0 278:0 279:0 280:0 281:0 282:0 283:0.069584042 284:0.36091872 285:0.35953521 286:0 287:0 288:0 289:0 290:0 291:0 292:0 293:0 294:0 295:0 296:0 297:0 298:0 299:0 300:0 301:0 302:0 303:0 304:0 305:0 306:0 307:0 308:0 309:0 310:0 311:0 312:0 313:0 314:0 315:0 316:0 317:0 318:0 319:0 320:0 321:0 322:0 323:0 324:0 325:0 326:0.23154752 327:0.78649836 328:0.76758623 329:0.22427015 330:0 331:0 332:0 333:0 334:0 335:0 336:0 337:0 338:0.22746659 339:0.77259626 340:0.99802424 341:0.50057512 342:0.10993476 343:0 344:0 345:0 346:0 347:0 348:0 349:0 350:0 351:0.025200169 352:0.29669092 353:0.56706331 354:0.68684038 355:0.2433044 356:0.032971726 357:0 358:0 359:0 360:0 361:0 362:0 363:0 364:0 365:0.36357584 366:0.5696338 367:0.46667011 368:0.6968694 369:0.45122828 370:0 371:0 372:0 373:0 374:0 375:0 376:0 377:0 378:0 379:0.24055211 380:0.69209296 381:0.45122828 382:0 383:0 384:0 385:0 386:0 387:0 388:0 389:0 390:0 391:0 392:0 393:0 394:0 395:0 396:0 397:0 398:0 399:0 400:0 401:0 402:0 403:0 404:0 405:0 406:0 407:0 408:0 409:0 410:0 411:0 412:0 413:0 414:0 415:0 416:0 417:0 418:0 419:0 420:0 421:0 422:0 423:0 424:0 425:0 426:0 427:0 428:0 429:0 430:0 431:0 432:0 433:0 434:0 435:0 436:0 437:0 438:0 439:0 440:0 441:0 442:0 443:0 444:0 445:0 446:0 447:0 448:0 449:0 450:0 451:0 452:0 453:0 454:0 455:0 456:0 457:0 458:0 459:0 460:0 461:0 462:0 463:0 464:0 465:0 466:0 467:0 468:0 469:0 470:0.9385643 471:0.9385643 472:0 473:0 474:0 475:0 476:0 477:0 478:0 479:0 480:0 481:0 482:0.9385643 483:0.94799703 484:0.92922543 485:0 486:0 487:0 488:0 489:0 490:0 491:0 492:0 493:0 494:0 495:0.92922543 496:0.91082554 497:0 498:0 499:0 500:0 501:0 502:0 503:0 504:0 505:0 506:0 507:0 508:0 509:0 510:0 511:0 512:0 513:0 514:0 515:0 516:0 517:0 518:0 519:0 520:0 521:0 522:0 523:0 524:0.49750002 525:1 526:0.49750002 527:0 528:0 529:0 530:0 531:0 532:0 533:0 534:0 535:0 536:0.49750002 537:1 538:0.99004983 539:0 540:0 541:0 542:0 543:0 544:0 545:0 546:0 547:0 548:0 549:0.49254981 550:0.48279667 551:0 552:0 553:0 554:0 555:0 556:0 557:0 558:0 559:0 560:0 561:0 562:0 563:0 564:0 565:0 566:0 567:0 568:0 569:0 570:0 571:0 572:0 573:0 574:0 575:0 576:0 577:0 578:0 579:0 580:0 581:0 582:0 583:0 584:0 585:0 586:0 587:0 588:0 589:0 590:0 591:0 592:0 593:0 594:0 595:0 596:0 597:0 598:0 599:0 600:0 601:0 602:0 603:0 604:0 605:0 606:0 607:0 608:0 609:0 610:0 611:0 612:0 613:0 614:0.24998909 615:0.75247969 616:0.49749074 617:0 618:0 619:0 620:0 621:0 622:0 623:0 624:0 625:0 626:0.24998909 627:0.74747983 628:0.74999226 629:0.25124216 630:0.24626723 631:0 632:0 633:0 634:0 635:0 636:0 637:0 638:0 639:0.24750165 640:0.49010245 641:0.50248432 642:0.74749848 643:0.50123125 644:0.24626723 645:0 646:0 647:0 648:0 649:0 650:0 651:0 652:0 653:0.24626723 654:0.4975094 655:0.75247341 656:0.99997506 657:0.49874382 658:0.25124216 659:0.24626723 660:0 661:0 662:0 663:0 664:0 665:0 666:0 667:0.49376889 668:0.99009927 669:0.99135863 670:0.50123125 671:0.24626723 672:0 673:0 674:0 675:0 676:0 677:0 678:0 679:0 680:0.24998909 681:0.5024906 682:0.49749074 683:0 684:0 685:0 686:0 687:0 688:0 689:0 690:0 691:0 692:0.50374368 693:0.49749074 694:0.24260079 695:0 696:0 697:0 698:0 699:0 700:0 701:0 702:0 703:0.24998909 704:0.7487329 705:0.50123125 706:0 707:0 708:0 709:0 710:0 711:0 712:0 713:0 714:0 715:0.50123125 716:0.75001091 717:0.74003612 718:0 719:0 
5.108755879501002 8 0 0:0 1:0 2:0 3:0 4:0 5:0 6:0 7:0 8:0 9:0 10:0 11:0 12:0 13:0 14:0 15:0 16:0 17:0 18:0 19:0 20:0 21:0 22:0 23:0 24:0 25:0 26:0 27:0 28:0 29:0 30:0 31:0 32:0.22148137 33:0.22148137 34:0 35:0 36:0 37:0 38:0 39:0 40:0 41:0 42:0 43:0 44:0.66555429 45:0.66555429 46:0.43746153 47:0 48:0 49:0 50:0 51:0 52:0 53:0 54:0 55:0 56:0.95892192 57:0.95548889 58:0.82233788 59:0 60:0 61:0 62:0 63:0 64:0 65:0 66:0 67:0.28059065 68:0.89357776 69:0.83646469 70:0.55566892 71:0 72:0 73:0 74:0 75:0 76:0 77:0 78:0 79:0.56258776 80:0.83154522 81:0.99114197 82:0.16741065 83:0 84:0 85:0 86:0 87:0.10363918 88:0.10363918 89:0 90:0 91:0.27641319 92:0.55979583 93:0.54871113 94:0 95:0 96:0 97:0 98:0 99:0.20779785 100:0.4253348 101:0.21753696 102:0 103:0 104:0 105:0 106:0 107:0 108:0 109:0 110:0 111:0.37638817 112:0.59392513 113:0.42239561 114:0.21537243 115:0 116:0 117:0 118:0 119:0 120:0 121:0 122:0 123:0.73609506 124:0.73240931 125:0.75714347 126:0.21110777 127:0 128:0 129:0 130:0 131:0 132:0 133:0 134:0 135:0.45525522 136:0.73281844 137:0.53639374 138:0 139:0 140:0 141:0 142:0 143:0 144:0 145:0 146:0 147:0 148:0 149:0 150:0 151:0 152:0 153:0 154:0 155:0 156:0 157:0 158:0 159:0 160:0 161:0 162:0 163:0 164:0 165:0 166:0 167:0 168:0 169:0 170:0 171:0 172:0 173:0 174:0 175:0.15059576 176:0.45254215 177:0.29894944 178:0 179:0 180:0 181:0 182:0 183:0 184:0 185:0 186:0 187:0.15059576 188:0.67484125 189:0.56398463 190:0.25831832 191:0 192:0 193:0 194:0 195:0 196:0 197:0 198:0 199:0 200:0.29745099 201:0.66700936 202:0.36513449 203:0 204:0 205:0 206:0 207:0 208:0 209:0 210:0 211:0 212:0 213:0.10976849 214:0.10759493 215:0 216:0 217:0 218:0 219:0 220:0 221:0 222:0 223:0 224:0 225:0 226:0 227:0 228:0 229:0 230:0 231:0.25074833 232:0.25074833 233:0 234:0 235:0 236:0 237:0 238:0 239:0 240:0 241:0 242:0 243:0.50275353 244:1 245:0.74264864 246:0 247:0 248:0 249:0 250:0 251:0 252:0 253:0 254:0 255:0.42699419 256:0.91929297 257:0.98759923 258:0.24491865 259:0 260:0 261:0 262:0 263:0 264:0 265:0 266:0 267:0.36086019 268:0.54264803 269:0.78038535 270:0.24006894 271:0 272:0 273:0 274:0 275:0 276:0 277:0 278:0 279:0.17729948 280:0.53904838 281:0.53193833 282:0 283:0 284:0 285:0 286:0 287:0 288:0 289:0 290:0 291:0 292:0 293:0 294:0 295:0 296:0 297:0 298:0 299:0 300:0 301:0 302:0 303:0 304:0 305:0 306:0 307:0 308:0 309:0 310:0 311:0 312:0 313:0 314:0 315:0 316:0 317:0.17723183 318:0.58808053 319:0.87964942 320:0.75877596 321:0.28770668 322:0 323:0 324:0 325:0 326:0 327:0.19823691 328:0.64205808 329:0.94434306 330:0.9123405 331:1 332:0.82377947 333:0.52554896 334:0.14349012 335:0 336:0 337:0.049091 338:0.1681815 339:0.38645354 340:0.7048833 341:0.75480074 342:0.848468 343:0.98365585 344:0.80746754 345:0.5151424 346:0.14064883 347:0 348:0 349:0.16937026 350:0.28588573 351:0.39329865 352:0.47847419 353:0.24135948 354:0 355:0 356:0 357:0 358:0 359:0 360:0 361:0.11789757 362:0.21664203 363:0.15480169 364:0.16116599 365:0.16116599 366:0.079382278 367:0 368:0 369:0 370:0 371:0 372:0 373:0 374:0 375:0 376:0.080180083 377:0.15956236 378:0.077810404 379:0 380:0 381:0 382:0 383:0 384:0 385:0 386:0 387:0.082489567 388:0.24747076 389:0.16333961 390:0 391:0 392:0 393:0 394:0 395:0 396:0 397:0 398:0 399:0.2067062 400:0.3700458 401:0.24583736 402:0.081261457 403:0 404:0 405:0 406:0 407:0 408:0 409:0 410:0 411:0.38905252 412:0.51485464 413:0.46038217 414:0.079652373 415:0 416:0 417:0 418:0 419:0 420:0 421:0 422:0 423:0.25799073 424:0.5123376 425:0.37665351 426:0 427:0 428:0 429:0 430:0 431:0 432:0 433:0 434:0 435:0 436:0 437:0 438:0 439:0 440:0 441:0 442:0 443:0 444:0 445:0 446:0 447:0 448:0 449:0 450:0 451:0 452:0 453:0 454:0 455:0 456:0 457:0 458:0 459:0 460:0 461:0.058598762 462:0.1513277 463:0.1317279 464:0.039491744 465:0 466:0 467:0 468:0 469:0 470:0 471:0.28454289 472:0.58228782 473:0.5266492 474:0.37254144 475:0.26892432 476:0.13767983 477:0.098188082 478:0 479:0 480:0 481:0.17323685 482:0.52324874 483:0.78771078 484:0.82688828 485:0.51249813 486:0.3702033 487:0.26525928 488:0.44662748 489:0.44362617 490:0.19393735 491:0 492:0 493:0.51274246 494:0.85601385 495:1 496:0.73356652 497:0.2516855 498:0 499:0.1508151 500:0.6496313 501:0.59745239 502:0.28922353 503:0 504:0 505:0.33278294 506:0.68091355 507:0.51031521 508:0.29230905 509:0.29230905 510:0.14397677 511:0.1745858 512:0.47548636 513:0.56921042 514:0.095286186 515:0 516:0 517:0 518:0 519:0 520:0.14542376 521:0.28940052 522:0.14112584 523:0.023300014 524:0.17308517 525:0.16965785 526:0 527:0 528:0 529:0 530:0 531:0 532:0.067135652 533:0.067135652 534:0 535:0 536:0 537:0 538:0 539:0 540:0 541:0 542:0 543:0 544:0.067135652 545:0.067810376 546:0.066467641 547:0 548:0 549:0 550:0 551:0 552:0 553:0 554:0 555:0.46270026 556:0.45553423 557:0.16527548 558:0.065151493 559:0 560:0 561:0 562:0 563:0 564:0 565:0 566:0 567:0.45711224 568:0.46089529 569:0.098807836 570:0 571:0 572:0 573:0 574:0 575:0 576:0 577:0 578:0 579:0 580:0 581:0 582:0 583:0 584:0 585:0 586:0 587:0 588:0 589:0 590:0 591:0 592:0 593:0 594:0 595:0 596:0 597:0 598:0 599:0 600:0 601:0 602:0 603:0 604:0 605:0 606:0 607:0 608:0 609:0 610:0 611:0 612:0 613:0 614:0 615:0 616:0 617:0 618:0 619:0 620:0 621:0 622:0 623:0 624:0 625:0 626:0 627:0 628:0 629:0 630:0 631:0 632:0 633:0 634:0 635:0 636:0 637:0.50249998 638:0.49750002 639:0 640:0.49750002 641:0.49750002 642:0 643:0 644:0 645:0 646:0 647:0 648:0 649:0.49750002 650:0.49750002 651:0 652:1 653:1 654:0.49254981 655:0.49999375 656:0.49999375 657:0.49009321 658:0 659:0 660:0 661:0 662:0 663:0.49750002 664:0.99004983 665:0.99004983 666:0.48279667 667:0.49009321 668:0.49999375 669:0.49009321 670:0 671:0 672:0 673:0 674:0 675:0.49750002 676:0.99500004 677:0.49750002 678:0 679:0 680:0 681:0 682:0 683:0 684:0 685:0 686:0 687:0 688:0.49750002 689:0.98529665 690:0.49254981 691:0 692:0 693:0 694:0 695:0 696:0 697:0 698:0 699:0.49999375 700:0.99259319 701:0.99004983 702:0.48279667 703:0 704:0 705:0 706:0 707:0 708:0 709:0 710:0 711:0.49999375 712:0.99749377 713:0.49750002 714:0 715:0 716:0 717:0 718:0 719:0 
0 0 0.9820289812861986 0:0 1:0 2:0 3:0 4:0 5:0 6:0 7:0 8:0 9:0 10:0 11:0 12:0 13:0 14:0 15:0 16:0 17:0 18:0 19:0 20:0 21:0 22:0 23:0 24:0 25:0 26:0 27:0 28:0 29:0.18796785 30:0.18796785 31:0 32:0 33:0 34:0 35:0 36:0 37:0 38:0 39:0 40:0 41:0.18796785 42:0.42591454 43:0.42167662 44:0 45:0 46:0 47:0 48:0 49:0 50:0 51:0 52:0 53:0 54:0.42167662 55:0.41799164 56:0 57:0 58:0 59:0 60:0 61:0 62:0 63:0 64:0 65:0 66:0 67:0 68:0 69:0 70:0 71:0 72:0 73:0 74:0 75:0 76:0 77:0.3838599 78:0.37625897 79:0 80:0 81:0 82:0 83:0 84:0 85:0 86:0 87:0 88:0.26350089 89:0.64440773 90:0.38237599 91:0 92:0 93:0 94:0 95:0 96:0 97:0 98:0 99:0 100:0.76480196 101:0.81183798 102:0.75053384 103:0 104:0 105:0 106:0 107:0 108:0 109:0 110:0 111:0 112:0.97529206 113:1 114:0.51529114 115:0 116:0 117:0 118:0 119:0 120:0 121:0 122:0 123:0 124:0.89616142 125:0.89616142 126:0 127:0 128:0 129:0 130:0 131:0 132:0 133:0 134:0 135:0 136:0.47157621 137:0.47157621 138:0 139:0 140:0 141:0 142:0 143:0 144:0 145:0 146:0 147:0 148:0 149:0 150:0 151:0 152:0 153:0 154:0 155:0 156:0 157:0 158:0 159:0 160:0 161:0 162:0 163:0 164:0 165:0 166:0 167:0 168:0 169:0 170:0 171:0 172:0 173:0.16336577 174:0.46521545 175:0.31060935 176:0.028864196 177:0.01406347 178:0 179:0 180:0 181:0 182:0 183:0 184:0 185:0.16336577 186:0.92120464 187:0.99962881 188:0.59616668 189:0.42124088 190:0.20261145 191:0 192:0 193:0 194:0 195:0 196:0 197:0 198:0.61032576 199:0.99044209 200:0.59537913 201:0.42067691 202:0.302818 203:0.098222324 204:0.22931078 205:0.47192368 206:0.24279275 207:0 208:0 209:0 210:0 211:0 212:0 213:0 214:0.098222324 215:0.096277392 216:0.22931078 217:0.47192368 218:0.44787015 219:0.42568795 220:0.19797743 221:0.43715075 222:0.42849458 223:0 224:0 225:0 226:0 227:0 228:0.11266602 229:0.32965965 230:0.44075124 231:0.42296237 232:0.19797743 233:0.44476815 234:0.43509164 235:0 236:0 237:0 238:0 239:0 240:0 241:0 242:0 243:0 244:0.023488998 245:0.24925667 246:0.24878923 247:0 248:0 249:0 250:0 251:0 252:0 253:0 254:0 255:0 256:0.49750379 257:0.48788108 258:0.022909626 259:0 260:0 261:0 262:0 263:0 264:0 265:0 266:0 267:0 268:0.74388573 269:0.74388573 270:0 271:0 272:0 273:0 274:0 275:0 276:0 277:0 278:0 279:0 280:0.43428803 281:0.43428803 282:0 283:0 284:0 285:0 286:0 287:0 288:0 289:0 290:0 291:0 292:0 293:0 294:0 295:0 296:0 297:0 298:0 299:0 300:0 301:0 302:0 303:0 304:0 305:0 306:0 307:0 308:0 309:0 310:0 311:0 312:0 313:0 314:0 315:0 316:0 317:0.099458846 318:0.29962158 319:0.39896336 320:0.29627251 321:0.095554762 322:0 323:0 324:0 325:0 326:0 327:0 328:0 329:0.099458846 330:0.39506038 331:0.67283784 332:0.74979209 333:0.51589976 334:0.31386508 335:0.15602798 336:0 337:0 338:0.1673465 339:0.33364318 340:0.16624634 341:0 342:0.19648805 343:0.66591599 344:1 345:0.86036019 346:0.5771539 347:0.31974095 348:0.16162404 349:0.39704436 350:0.40253386 351:0.33364318 352:0.25141067 353:0.080721859 354:0 355:0.16819065 356:0.33908082 357:0.34835344 358:0.41743459 359:0.31507221 360:0.16162404 361:0.39566919 362:0.4866352 363:0.66309167 364:0.42922398 365:0.079123459 366:0.0042223869 367:0 368:0 369:0 370:0 371:0 372:0.073658445 373:0.24446569 374:0.32993804 375:0.34387107 376:0.18279158 377:0.11506511 378:0.058640233 379:0 380:0 381:0 382:0 383:0 384:0 385:0 386:0 387:0 388:0.12718329 389:0.1871192 390:0.14960125 391:0 392:0 393:0 394:0 395:0 396:0 397:0 398:0 399:0 400:0.072025299 401:0.18069267 402:0.1431966 403:0 404:0 405:0 406:0 407:0 408:0 409:0 410:0 411:0 412:0.044141055 413:0.043716837 414:0 415:0 416:0 417:0 418:0 419:0 420:0 421:0 422:0 423:0 424:0.043687 425:0.043687 426:0 427:0 428:0 429:0 430:0 431:0 432:0 433:0 434:0 435:0 436:0 437:0 438:0 439:0 440:0 441:0 442:0 443:0 444:0 445:0 446:0 447:0 448:0 449:0 450:0 451:0 452:0 453:0 454:0 455:0 456:0 457:0 458:0 459:0 460:0 461:0.087949604 462:0.21904155 463:0.20301424 464:0.10275559 465:0.029781806 466:0 467:0 468:0 469:0 470:0 471:0 472:0 473:0.087949604 474:0.25664539 475:0.29904475 476:0.16864226 477:0.060314527 478:0.14518248 479:0.14374149 480:0 481:0 482:0.13789032 483:0.24361329 484:0.10643471 485:0 486:0.18871286 487:0.34286404 488:0.30092784 489:0.22482583 490:0.24832981 491:0.20530698 492:0 493:0.24320843 494:0.38109875 495:0.43065115 496:0.15562343 497:0.053082984 498:0 499:0.096789985 500:0.16917649 501:0.17456196 502:0.21125359 503:0.20241776 504:0 505:0.23839258 506:0.33125893 507:0.42684418 508:0.15254188 509:0.49269135 510:0.48293541 511:0 512:0 513:0 514:0 515:0 516:0 517:0 518:0 519:0 520:0.1292621 521:0.74759729 522:0.60609134 523:0 524:0 525:0 526:0 527:0 528:0 529:0 530:0 531:0 532:0.81830429 533:0.98365541 534:0.74268226 535:0 536:0 537:0 538:0 539:0 540:0 541:0 542:0 543:0 544:1 545:0.98441723 546:0.46582377 547:0 548:0 549:0 550:0 551:0 552:0 553:0 554:0 555:0 556:0.83407463 557:0.83407463 558:0 559:0 560:0 561:0 562:0 563:0 564:0 565:0 566:0 567:0 568:0.56352755 569:0.56352755 570:0 571:0 572:0 573:0 574:0 575:0 576:0 577:0 578:0 579:0 580:0 581:0 582:0 583:0 584:0 585:0 586:0 587:0 588:0 589:0 590:0 591:0 592:0 593:0 594:0 595:0 596:0 597:0 598:0 599:0 600:0 601:0 602:0 603:0 604:0 605:0.25249367 606:0.50498733 607:0.25249367 608:0 609:0 610:0 611:0 612:0 613:0 614:0 615:0 616:0 617:0.25249367 618:0.76001861 619:0.75750625 620:0.24998131 621:0.25249367 622:0.50498733 623:0.25249367 624:0 625:0 626:0 627:0.25249367 628:0.25249367 629:0 630:0.50247498 631:1 632:0.49752502 633:0.25249367 634:0.50498733 635:0.50501258 636:0.2537593 637:0.50249382 638:0.2537593 639:0.25249367 640:0.25503127 641:0.24998131 642:0 643:0.25249367 644:0.25249367 645:0 646:0.24998131 647:0.49501267 648:0.2537593 649:0.49746905 650:0.2537593 651:0.50122819 652:0.50247498 653:0.50879057 654:0.49871584 655:0 656:0 657:0 658:0 659:0 660:0.24873453 661:0.24873453 662:0 663:0.25249367 664:0.25249367 665:0.75749991 666:0.7425004 667:0 668:0 669:0 670:0 671:0 672:0 673:0 674:0 675:0 676:0.2537593 677:0.50249382 678:0.50249382 679:0 680:0 681:0 682:0 683:0 684:0 685:0 686:0 687:0 688:0.50879057 689:0.75498749 690:0.24873453 691:0 692:0 693:0 694:0 695:0 696:0 697:0 698:0 699:0 700:0.75372186 701:0.75372186 702:0 703:0 704:0 705:0 706:0 707:0 708:0 709:0 710:0 711:0 712:0.25249367 713:0.25249367 714:0 715:0 716:0 717:0 718:0 719:0 
